svm_type nu_svc
kernel_type rbf
gamma 0.000206612
nr_class 10
total_sv 2011
rho 8.47857 3.68494 21.7398 -0.0492786 5.09815 2.52967 -2.90607 -5.2104 0.71492 -8.0396 14.1249 -10.5825 -7.89591 -7.19643 -9.05191 -12.3989 -9.51906 24.0322 -4.87355 2.61024 -0.157019 -6.75571 -9.80632 -4.99448 -27.7976 -26.4968 -20.4397 -22.9939 -27.3073 -24.5679 6.86722 1.57094 -4.18775 -6.8321 -1.66468 -3.2622 -7.58465 -10.5513 -6.51775 -3.81001 -6.10352 -2.58522 -1.5594 3.32575 6.3389
label 4 1 5 0 3 2 9 7 8 6
nr_sv 190 173 187 221 200 231 191 188 215 215
SV
93.7617531238141 105.8590065634219 94.08553440036077 42.33791294155805 152.9932400023719 131.8230728301822 143.8193446094467 214.6307757190805 168.4336021421942 21:0.222179 37:0.399687 72:0.0224511 77:0.266458 130:0.112069 202:0.0363636 204:0.130094 227:0.137539 309:0.206897 411:0.0909091 505:0.102665 533:0.148903 539:0.131661 579:0.102194 631:0.0564263 634:0.2938 644:0.188506 671:0.0629862 703:0.11233 722:0.083296 737:0.0532915 740:0.0992685 781:0.18652 861:0.0751045 934:0.0987461 950:0.0619122 1030:0.0856844 1086:0.16395 1127:0.110972 1268:0.0838558 1313:0.178683 1354:0.106583 1367:0.0850873 1386:0.065047 1409:0.202194 1439:0.191223 1448:0.112853 1452:0.141066 1458:0.197492 1471:0.181818 1539:0.0207732 1545:0.275078 1560:0.206897 1580:0.108673 1601:0.689655 1650:0.0771944 1699:0.0365726 1773:0.0809822 2101:0.129467 2133:0.0610363 2162:0.0237722 2212:0.194357 2246:0.0523511 2268:0.0219436 2276:0.0689655 2283:0.445141 2375:0.0329154 2478:0.345611 2545:0.0879982 2639:0.12931 2748:0.258934 2772:0.442006 2863:0.0634796 2916:0.0228579 3069:0.080721 3147:0.142491 3230:0.080721 3257:0.0489028 3288:0.225705 3411:0.209248 3461:0.186207 3498:0.136886 3516:0.0549149 3519:0.0297806 3522:0.0556426 3536:0.0299765 3537:0.0299765 3661:0.0658307 3686:0.0699451 3740:0.0264271 3815:0.250784 3974:1 3980:0.175549 3986:0.126959 4065:0.225705 4105:0.196708 4230:0.0689655 4263:0.213166 4282:0.0289098 4303:0.163636 4306:0.0544671 4368:0.406897 4385:0.147335 4449:0.176724 4493:0.147727 4528:0.339812 4538:0.101358 4627:0.107837 4672:0.0751045 4750:0.145768 
93.7617531238141 0 19.55057281775007 0 41.49370469652359 0 0 0 0 18:0.162809 34:0.201389 77:0.393519 265:0.111111 467:0.210648 539:0.194444 558:0.00940161 634:0.123971 673:0.190972 703:0.165895 737:0.157407 740:0.146605 754:0.181713 825:0.233796 846:0.256944 861:0.0591564 1009:0.19213 1099:0.146123 1180:0.175926 1227:0.341821 1232:0.0908565 1316:0.203704 1384:0.26466 1391:0.075 1401:0.288029 1425:0.356692 1488:0.00918069 1511:0.305556 1761:0.993056 1834:0.393519 1849:0.046633 1880:0.196759 1913:0.268519 2024:0.366319 2077:0.0584491 2101:0.382407 2128:0.0843621 2395:0.0821759 2516:0.238426 2668:0.375 2795:0.347222 2863:0.09375 2916:0.0337577 2957:0.477778 2969:0.11713 3109:0.0960648 3153:0.0297939 3232:0.150463 3303:0.111574 3313:0.0679977 3486:0.194444 3498:0.20216 3522:0.0821759 3536:0.0442708 3537:0.0442708 3590:0.175926 3681:0.167989 3862:0.157407 3934:0.166667 4060:0.243056 4065:0.111111 4081:0.0686728 4131:0.00918069 4192:0.125 4282:0.0853909 4305:0.13689 4348:0.08261 4501:0.467593 4525:0.197917 4544:0.189815 4620:0.993056 4672:0.0591564 4783:0.10571 4821:0.0601852 
60.58886026144059 168.0175803397597 94.08553440036077 167.7871081316417 152.9932400023719 92.47633095297969 143.8193446094467 214.6307757190805 121.8658238362747 223:0.0567477 348:0.129471 533:0.0679542 598:0.47401 617:0.192179 661:0.057781 754:0.112303 757:0.0593705 803:0.160229 825:0.144492 861:0.0274201 950:0.0565093 1009:0.178112 1251:0.0941027 1313:0.108727 1410:0.194564 1456:0.0550787 1465:0.200286 1482:0.138293 1511:0.0629471 1545:0.125536 1547:0.037196 1577:0.203863 1601:0.251788 1678:0.148784 1683:0.065093 1724:0.0543634 1752:0.137339 1770:0.0755365 1818:0.0362423 1840:0.127325 1924:0.120172 1962:0.0550787 1969:0.57568 2059:0.237482 2090:0.153076 2124:0.0629471 2128:0.052138 2130:0.0917795 2160:0.0958512 2268:0.0200286 2276:0.188841 2376:0.0543634 2712:0.274678 2772:0.201717 2793:0.39485 2834:0.30186 2843:0.0886981 2863:0.11588 2928:0.0636624 2957:0.246066 2969:0.217167 3106:0.105579 3181:0.128755 3255:0.10515 3276:0.103004 3313:0.0420243 3413:0.0672389 3423:0.640916 3448:0.232475 3461:0.0566524 3491:0.100143 3498:0.12494 3532:0.120172 3536:0.0273605 3537:0.0273605 3617:0.243205 3681:0.0519109 3719:0.111588 3740:0.0241208 3794:0.273247 3858:0.11588 4065:0.274678 4075:0.422747 4105:0.179542 4157:0.0994278 4161:0.0593705 4188:0.110157 4221:0.0507868 4273:0.490701 4282:0.158321 4303:0.0497854 4305:0.0846014 4306:0.0994278 4310:0.103004 4401:0.207439 4412:1 4572:0.221745 4611:0.241904 4642:0.160944 4654:0.029566 4672:0.0274201 4740:0.118026 4748:0.125374 4750:0.133047 4786:0.160944 
0 168.0175803397597 54.30171983010207 167.7871081316417 0 0 143.8193446094467 214.6307757190805 168.4336021421942 72:0.0812007 199:0.183673 204:0.282313 282:0.163265 294:0.117914 313:1 322:0.10034 459:0.164399 472:0.0918367 513:0.130952 579:0.147846 585:0.123583 634:0.121441 644:0.0340892 703:0.243764 737:0.0385488 757:0.0470522 802:0.0963719 848:0.128685 861:0.0760582 882:0.0986395 1009:0.0470522 1180:0.0861678 1301:0.0706727 1313:0.344671 1426:0.0506425 1435:0.10771 1553:0.190476 1580:0.0786092 1650:0.111678 1659:0.303288 1705:0.360544 1707:0.161565 1770:0.209524 1774:0.210884 1955:0.158163 1964:0.138322 1971:0.0402494 2059:0.188209 2065:0.145351 2077:0.0572562 2119:0.0946712 2124:0.0498866 2161:0.223214 2246:0.0378685 2272:0.0748299 2276:0.249433 2400:0.0918367 2478:0.0833333 2519:0.163265 2557:0.0963719 2580:0.126984 2633:0.0566893 2639:0.0935374 2675:0.331633 2712:0.217687 2761:0.0861678 2855:0.0839002 2863:0.321429 2870:0.153628 2887:0.0816327 2919:0.183673 2928:0.0504535 2933:0.0963719 2934:0.256236 2973:0.100907 3181:0.102041 3246:0.0986395 3255:0.0833333 3313:0.033305 3382:0.0793651 3386:0.420887 3423:0.253968 3433:0.0816327 3461:0.0897959 3681:0.0822805 3719:0.176871 3768:0.0952381 3818:0.118594 3854:0.231293 3897:0.10771 3900:0.0193716 3901:0.197279 3943:0.037415 3956:0.0634921 4121:0.108844 4132:0.0873016 4134:0.12585 4162:0.0829082 4165:0.297052 4217:0.269841 4221:0.241497 4241:0.10771 4282:0.167297 4303:0.157823 4306:0.118197 4348:0.080924 4449:0.255669 4452:0.0388007 4491:0.114286 4492:0.0353741 4582:0.14966 4584:0.0764172 4654:0.0468632 4672:0.0760582 4746:0.0406544 4821:0.0294785 
0 0 0 0 67.73588968641639 0 0 0 168.4336021421942 72:0.0312066 203:0.116993 254:0.573296 274:0.826797 379:0.0701836 631:0.0784314 644:0.0655047 852:0.154829 861:0.0835149 985:0.111837 1310:0.0257807 1313:0.248366 1332:0.0833498 1391:0.0705882 1511:0.0958606 1659:0.233115 1880:0.185185 1891:0.115468 1955:0.151961 1967:0.191721 1995:0.0864198 2077:0.110022 2161:0.0857843 2162:0.0330428 2180:0.248366 2212:0.135076 2276:0.0958606 2794:0.102397 2957:0.0749455 3276:0.313725 3313:0.0639978 3386:0.24885 3479:0.509804 3536:1 3537:1 3600:0.0958606 3690:0.130065 3721:0.553377 3899:0.228758 3957:0.229847 4075:0.214597 4081:0.0646333 4111:0.131808 4225:0.124909 4230:0.0958606 4282:0.0803679 4303:0.075817 4448:0.383442 4672:0.0835149 4750:0.202614 4821:0.0566449 
34.26565852044013 168.0175803397597 94.08553440036077 167.7871081316417 152.9932400023719 131.8230728301822 143.8193446094467 214.6307757190805 168.4336021421942 42:0.0458145 72:0.0324068 181:0.081448 204:0.0469457 217:0.0313914 224:0.0200792 290:0.0197964 296:0.356335 309:0.149321 313:0.221719 317:0.020362 322:0.0250283 333:0.0671192 351:0.0261124 365:0.0384872 388:0.02319 411:0.0328054 472:0.0458145 513:0.10888 533:0.0268665 539:0.0475113 585:0.123303 623:0.084276 627:0.0520362 634:0.121166 641:0.0401584 673:0.0466629 694:0.0345023 703:0.0405354 737:0.0192308 749:0.0780543 763:0.10905 772:0.184389 803:0.0633484 831:0.164027 848:0.0641968 861:0.126477 882:0.0492081 886:0.0216596 910:0.0260181 947:0.171946 953:0.0241092 968:0.031448 1009:0.0938914 1030:0.0309201 1065:0.143213 1091:0.0390271 1099:0.0357042 1124:0.0457973 1155:0.0258767 1252:0.875 1271:0.0486425 1313:0.214932 1314:0.0143288 1332:0.0865556 1374:0.0298643 1386:0.117364 1458:0.071267 1465:0.0395928 1482:0.0273379 1511:0.0746606 1545:0.0496324 1550:0.081448 1577:0.0805995 1601:0.0995475 1625:0.167924 1633:0.0517534 1638:0.050905 1659:0.0302602 1675:0.0288462 1683:0.0257353 1696:0.0390271 1705:0.134898 1755:0.0805995 1756:0.120475 1770:0.0895928 1782:0.0381787 1793:0.0736425 1794:0.0214932 1798:0.0738122 1848:0.131976 1883:0.0169683 1971:0.0200792 1988:0.00552144 2046:0.101244 2075:0.0469457 2090:0.0605204 2119:0.094457 2130:0.0362861 2135:0.0746606 2161:0.267251 2162:0.0257353 2207:0.0324284 2210:0.206448 2211:0.0441176 2212:0.175339 2244:0.0820136 2268:0.00791855 2272:0.0746606 2276:0.174208 2355:0.0361991 2375:0.0237557 2376:0.0859729 2402:0.028092 2410:0.0837104 2444:0.10325 2454:0.0384615 2553:0.0520362 2558:0.0659502 2640:0.0361991 2668:0.091629 2685:0.0361991 2741:0.0533396 2761:0.128959 2772:0.0797511 2781:0.0307315 2808:0.0401584 2834:0.119344 2863:0.183258 2886:0.0478884 2919:0.091629 2928:0.125848 2949:0.0736278 3065:0.0251697 3087:0.02502 3140:0.0230486 3147:0.0257096 3227:0.0626414 3229:0.0154977 3232:0.0735294 3260:0.0882353 3273:0.0214932 3288:0.040724 3311:0.120475 3313:0.0498445 3368:0.0202004 3376:0.0328054 3386:0.371481 3393:0.0246041 3416:0.0704186 3460:0.0933258 3461:0.0223982 3465:0.0791855 3491:0.0791855 3498:0.123492 3524:0.1069 3532:0.0475113 3563:0.095618 3600:0.0248869 3635:0.0469457 3661:0.0475113 3681:0.0205236 3693:0.040724 3719:0.0441176 3812:0.0368259 3818:0.236652 3854:0.0769231 3862:0.0384615 3873:0.166148 3882:0.162896 3897:0.053733 3901:0.0492081 3943:0.0186652 3956:0.0475113 3982:0.0803167 3986:0.0458145 4005:0.0582579 4065:0.0542986 4075:0.0278563 4121:0.108597 4147:0.0424208 4160:0.0252888 4162:0.0413603 4169:0.0403469 4177:0.0237557 4188:0.0871041 4217:0.269231 4221:0.140554 4241:0.053733 4264:0.0961538 4282:0.104324 4293:0.119627 4303:0.078733 4304:0.014643 4305:0.0334482 4306:0.11793 4381:0.0373303 4392:0.00961538 4449:0.0637726 4452:0.0193565 4473:0.0123303 4528:0.0613122 4535:0.0656109 4548:0.144231 4582:0.0746606 4584:0.0762443 4618:0.091629 4627:0.019457 4642:0.0212104 4654:0.0116893 4672:0.126477 4714:0.0559955 4746:0.0405624 4750:0.0526018 4786:0.0212104 4798:0.0746606 4821:0.0147059 
93.7617531238141 168.0175803397597 94.08553440036077 167.7871081316417 152.9932400023719 131.8230728301822 143.8193446094467 214.6307757190805 168.4336021421942 18:0.151674 158:0.021488 181:0.0443623 282:0.0221811 296:0.064695 316:0.0349148 317:0.0221811 338:0.0318452 467:0.0280345 485:0.0446704 487:0.0274184 539:0.103512 558:0.00250246 631:0.0110906 634:0.0247484 648:0.017406 673:0.0254159 694:0.0187924 711:0.0272643 732:0.0295749 740:0.0390224 749:0.0283426 764:0.0391251 829:0.0831793 924:0.0586876 948:0.0184843 954:0.0304991 971:0.0477511 1009:0.0255699 1013:0.0221811 1091:0.0212569 1094:0.0164818 1102:0.118299 1198:0.0311152 1227:0.0909838 1229:0.00804229 1232:0.0483672 1256:0.0271103 1310:0.00364551 1313:0.0234134 1324:0.0118792 1326:0.0188951 1384:0.105669 1401:0.0383329 1420:0.0617683 1425:0.142413 1426:0.0412816 1452:0.0138632 1488:0.00366549 1499:0.0231054 1511:0.0135551 1522:0.0135551 1552:0.0898028 1561:0.0582255 1562:0.0438409 1580:0.0427192 1601:0.0271103 1633:0.0563771 1675:0.0157116 1716:0.0437461 1770:0.00813309 1810:0.00893407 1823:0.0184843 1825:0.051756 1832:0.0121996 1849:0.024825 1878:0.132594 1883:0.0184843 1944:0.0201479 1967:0.0271103 2001:0.00698882 2011:0.0783528 2024:0.170633 2101:0.0254467 2108:0.0413843 2135:0.0203327 2161:0.0121303 2166:0.0238242 2213:0.0489834 2243:0.100893 2268:0.008626 2272:0.0203327 2276:0.0271103 2300:0.0563771 2316:0.025878 2337:0.113678 2358:0.0548367 2381:0.0412816 2385:0.0104744 2395:0.0328096 2402:0.0306018 2407:0.0329636 2409:0.00785582 2454:0.0209489 2464:0.0757856 2552:0.0282105 2668:0.0499076 2685:0.0394331 2695:0.0178681 2709:0.0209489 2808:0.0218731 2835:0.0252619 2863:0.0374307 2928:0.0274184 2931:0.03468 2957:0.201356 2969:0.0311768 2979:0.0514479 3003:0.0194085 3025:0.008626 3030:0.0150955 3045:0.0146847 3100:0.0377388 3101:0.0385089 3109:0.012785 3128:0.0457315 3147:0.0140032 3195:0.0212569 3242:0.00740912 3250:0.00816389 3266:0.157116 3293:0.0315993 3300:0.041487 3311:0.0218731 3312:0.0751694 3313:0.0090496 3361:0.0394331 3391:0.0107545 3431:0.166359 3440:0.0269091 3491:0.0107825 3532:0.077634 3533:0.00714726 3536:0.0294593 3537:0.0294593 3542:0.0328096 3590:0.0234134 3669:0.0184843 3681:0.0111786 3796:0.158041 3897:0.0292668 3919:0.0132471 3933:0.0825632 3934:0.0443623 3963:0.025878 3977:0.0292668 4029:0.0274184 4039:0.0244917 4060:0.0323475 4065:0.0295749 4086:0.0160197 4124:0.0425139 4131:0.00366549 4132:0.0237215 4147:0.0231054 4166:0.0185459 4176:0.10401 4192:0.0166359 4230:0.0271103 4246:0.0220271 4282:0.0397755 4303:0.0107209 4304:0.0717807 4305:0.0182182 4306:0.0107055 4348:0.0109943 4385:0.159273 4426:0.0104744 4486:0.017098 4516:0.117478 4547:0.0133087 4548:0.0523722 4556:0.0455946 4561:0.0370071 4605:0.0505237 4654:0.0254672 4691:0.0178681 4693:0.0443623 4698:0.454097 4753:0.0172725 4756:0.0205792 4783:0.0140686 4821:0.0720887 
93.7617531238141 168.0175803397597 94.08553440036077 167.7871081316417 152.9932400023719 131.8230728301822 143.8193446094467 214.6307757190805 168.4336021421942 195:0.0359292 339:0.260177 445:0.13646 467:0.161062 558:0.014377 648:0.1 673:0.146018 852:0.188673 861:0.10177 934:0.111504 1009:0.146903 1015:0.186726 1198:0.178761 1227:0.261357 1232:0.069469 1316:0.155752 1375:0.166372 1384:0.40472 1425:1 1471:0.20531 1488:0.0140391 1511:0.155752 1562:0.0503744 1818:0.0448378 1849:0.0713113 2024:0.840265 2059:0.146903 2083:0.20531 2101:0.146195 2128:0.129007 2329:0.169027 2376:0.0672566 2552:0.162073 2668:0.573451 2671:0.292625 2928:0.0787611 2934:0.4 3080:0.100885 3253:0.266372 3313:0.0519912 3376:0.20531 3427:0.238938 3461:0.0700885 3661:0.0743363 3934:0.382301 4081:0.0525074 4131:0.0140391 4303:0.123186 4305:0.209332 4306:0.123009 4672:0.10177 4693:0.297345 4756:0.11823 4783:0.161652 
52.17359980345954 168.0175803397597 29.48633065396326 88.71687434990987 70.47832041388008 131.8230728301822 143.8193446094467 214.6307757190805 168.4336021421942 49:0.113043 72:0.0207591 195:0.0294203 313:0.142029 317:0.0521739 353:0.084058 365:0.493083 410:0.133333 445:0.111739 580:0.207971 694:0.0884058 740:0.183575 760:0.0992754 861:0.101852 870:0.84058 910:0.0666667 950:0.0572464 987:0.198551 1091:0.5 1099:0.274457 1116:0.0507246 1143:0.124457 1163:0.155072 1310:0.0514493 1313:0.0550725 1332:0.0554458 1456:0.0557971 1545:0.381522 1651:0.105797 1681:0.104891 1770:0.0765217 1851:0.0693582 1913:0.168116 1962:0.0557971 1971:0.0514493 1988:0.0141477 2055:0.195362 2060:0.204348 2162:0.065942 2268:0.101449 2273:0.313043 2276:0.0637681 2375:0.0913043 2377:0.491304 2696:0.14686 2714:0.126087 2723:0.165217 2755:0.242512 2831:0.124638 2834:0.305797 2863:0.117391 2957:0.598261 3136:0.246377 3159:0.22029 3183:0.295652 3486:0.121739 3498:0.12657 3556:0.130435 3595:0.368116 3719:0.226087 3862:0.591304 3890:0.0689855 3974:0.616425 4022:0.0299517 4024:0.176329 4081:0.0429952 4149:0.0449275 4188:0.111594 4201:0.497101 4221:0.102899 4256:0.166667 4282:0.0534622 4358:0.0565217 4371:0.157971 4544:0.0594203 4599:0.106522 4627:0.0498551 4672:0.101852 4684:0.122705 4691:0.252174 4754:0.0458937 
0 0 20.27327843703587 75.07589028761171 0 131.8230728301822 143.8193446094467 214.6307757190805 168.4336021421942 72:0.00854643 74:0.0180702 130:0.213305 147:0.0417661 203:0.0320406 215:0.114558 217:0.0331146 256:0.071599 317:0.0429594 338:0.00411176 439:0.0417661 482:0.261784 547:0.0247613 567:0.1428 579:0.0389021 592:0.118337 634:0.0319544 640:0.15185 673:0.0492243 686:0.0381862 689:0.0542959 703:0.0855211 722:0.0317081 740:0.0377884 749:0.0548926 754:0.0936754 757:0.0495227 759:0.281708 781:0.426014 783:0.0152305 793:0.0438213 803:0.100239 812:0.212411 825:0.0602625 831:0.173031 861:0.0686158 920:0.234785 939:0.456444 950:0.023568 990:0.21957 1006:0.0865155 1009:0.0990453 1015:0.566527 1030:0.0652347 1065:0.151074 1077:0.0369928 1091:0.0411695 1232:0.0234189 1251:0.0392469 1313:0.0906921 1320:0.0379873 1328:0.318616 1386:0.0495227 1448:0.0429594 1452:0.0268496 1456:0.0229714 1524:0.0393795 1569:0.0403739 1580:0.330947 1601:0.052506 1605:0.0444511 1724:0.0680191 1725:0.157518 1730:0.036794 1770:0.0945107 1879:0.0495227 1962:0.0229714 1989:0.109785 2059:0.0495227 2077:0.0150656 2095:0.0369928 2101:0.049284 2119:0.249105 2136:0.076074 2162:0.00904932 2210:0.0544451 2268:0.0167064 2270:0.0972554 2276:0.157518 2335:0.0502685 2359:0.0341587 2369:0.052506 2633:0.0298329 2639:0.0984487 2710:0.0653341 2748:0.049284 2753:0.0721957 2761:0.0453461 2863:0.072494 2919:0.144988 2928:0.0796539 2957:0.246301 2979:0.099642 2984:0.0660302 2995:0.132757 3045:0.0284407 3068:0.0429594 3080:0.0680191 3134:0.0648369 3135:0.0460173 3181:0.0536993 3188:0.0423628 3227:0.06608 3246:0.0519093 3255:0.131563 3288:0.0429594 3311:0.254177 3344:0.0548926 3382:0.0417661 3391:0.0208288 3399:0.170048 3461:0.0472554 3491:0.0208831 3498:0.104216 3533:0.0138425 3554:0.0557876 3590:0.0453461 3627:0.318616 3661:0.075179 3681:0.0649506 3706:0.050716 3719:0.0465394 3796:0.102029 3819:0.270883 3862:0.0811456 3897:0.0566826 3943:0.0196897 3956:0.0167064 4018:0.0247613 4060:0.0626492 4065:0.114558 4138:0.247017 4147:0.0447494 4177:0.0250597 4217:0.142005 4221:0.275358 4230:0.026253 4282:0.0990453 4303:0.124582 4304:0.0308937 4305:0.105853 4306:0.0829356 4325:0.0342598 4348:0.0425865 4368:0.258154 4400:0.0876342 4454:0.0190931 4506:0.0501193 4528:0.129356 4538:0.0385839 4572:0.184964 4672:0.0686158 4684:0.101034 4710:0.127088 4750:0.0554893 4756:0.398568 4828:0.0984487 
93.7617531238141 168.0175803397597 94.08553440036077 167.7871081316417 152.9932400023719 131.8230728301822 143.8193446094467 214.6307757190805 168.4336021421942 34:0.109572 42:0.40806 72:0.0180401 77:0.214106 156:0.0257287 181:0.18136 290:0.0440806 309:0.166247 317:0.0906801 333:0.0747271 419:0.0734677 444:0.375315 455:0.518388 513:0.0969773 533:0.0598237 567:0.150714 595:0.390428 627:0.115869 644:0.227204 655:0.099916 703:0.0902603 757:0.104534 764:0.15995 802:0.0535264 861:0.0643717 910:0.0579345 934:0.0793451 938:0.0348447 985:0.0646516 987:0.172544 1091:0.0869018 1209:0.174693 1232:0.1483 1313:0.287154 1386:0.104534 1456:0.0484887 1545:0.110516 1550:0.0906801 1580:0.0873216 1601:0.110831 1631:0.0303749 1650:0.0620277 1675:0.128463 1752:0.120907 1755:0.179471 1770:0.0664987 1794:0.0478589 1962:0.0484887 1967:0.110831 2059:0.104534 2160:0.0843829 2211:0.196474 2244:0.18262 2272:0.0831234 2276:0.387909 2292:0.117128 2355:0.161209 2401:0.199622 2402:0.0625525 2437:0.119647 2444:0.114953 2508:0.0638119 2540:0.292191 2741:0.237542 2748:0.20806 2761:0.287154 2834:0.265743 2843:0.0780856 2855:0.093199 2919:0.102015 2928:0.0560453 2957:0.129975 3069:0.129723 3230:0.129723 3300:0.169605 3303:0.0607053 3313:0.0369962 3389:0.0717884 3413:0.059194 3416:0.052267 3433:0.0906801 3435:0.0554156 3460:0.207809 3461:0.0997481 3491:0.132242 3498:0.274979 3554:0.117758 3740:0.0212348 3849:0.029507 3876:0.0515404 3901:0.109572 3919:0.108312 3934:0.0906801 3943:0.166247 4065:0.0604534 4075:0.0620277 4086:0.196474 4113:0.120277 4121:0.120907 4132:0.193955 4138:0.521411 4157:0.0875315 4161:0.104534 4162:0.276291 4221:0.268262 4241:0.0598237 4303:0.306801 4306:0.0437657 4348:0.134839 4582:0.166247 4627:0.0866499 4672:0.0643717 4710:0.268262 4715:0.147985 4750:0.117128 4756:0.084131 4821:0.0327456 
93.7617531238141 168.0175803397597 94.08553440036077 167.7871081316417 152.9932400023719 131.8230728301822 143.8193446094467 214.6307757190805 168.4336021421942 72:0.102313 265:0.0685714 282:0.308571 290:0.05 317:0.154286 322:0.0632143 351:0.0659524 365:0.194416 513:0.055 627:0.131429 686:0.0914286 693:0.186429 694:0.0871429 757:0.118571 781:0.34 802:0.242857 803:0.08 831:0.414286 861:0.118651 886:0.0547059 1028:0.118571 1065:0.180857 1091:0.197143 1143:0.0817857 1180:0.108571 1313:0.217143 1332:0.109307 1452:0.0642857 1456:0.055 1465:0.1 1631:0.27563 1683:0.065 1697:0.192857 1725:0.377143 1756:0.101429 1848:1 1894:0.0474286 1943:0.187143 1962:0.055 1988:0.0139456 2046:0.0639286 2119:0.119286 2124:0.0628571 2162:0.0433333 2180:0.108571 2268:0.04 2276:0.125714 2355:0.0914286 2375:0.15 2376:0.217143 2437:0.407143 2454:0.0971429 2666:0.06 2712:0.274286 2863:0.115714 2928:0.190714 2934:0.322857 3101:0.178571 3122:0.0387097 3147:0.12987 3246:0.124286 3255:0.105 3382:0.1 3416:0.177857 3461:0.0565714 3491:0.05 3498:0.124762 3546:0.362857 3561:0.117857 3719:0.445714 3720:0.554286 3862:0.291429 3896:0.249143 3936:0.384286 3956:0.04 3998:0.189643 4065:0.0685714 4147:0.107143 4157:0.0992857 4188:0.55 4221:0.304286 4282:0.0263492 4293:0.100714 4304:0.0369841 4305:0.0844805 4306:0.248214 4412:0.998571 4538:0.092381 4547:0.0617143 4582:0.188571 4654:0.0295238 4672:0.118651 4684:0.120952 4740:0.0589286 4748:0.0625974 
0 0 0 0 0 0 0 0 30.0548435338286 18:0.0854597 72:0.0174044 203:0.195747 223:0.0481977 270:0.28149 317:0.0437424 347:0.082017 351:0.0560956 411:0.0704739 479:0.0850547 494:1 535:0.0874848 567:0.290806 634:0.0650736 648:0.0686513 661:0.0490752 689:0.110571 711:0.107533 757:0.0504253 759:0.458948 822:0.0668287 825:0.122722 829:0.109356 852:0.0431754 861:0.0853922 930:0.172539 1009:0.151276 1015:0.12819 1099:0.0767011 1227:0.35885 1232:0.238457 1320:0.0773593 1324:0.046853 1332:0.0464855 1358:0.36938 1384:0.138923 1391:0.0393682 1448:0.17497 1452:0.054678 1580:0.336979 1601:0.106926 1675:0.0619684 1752:0.116646 1770:0.0641555 1782:0.082017 2046:0.0543742 2090:0.260024 2101:0.301094 2119:0.101458 2135:0.320778 2161:0.0478433 2212:0.0753341 2213:0.193196 2329:0.232078 2335:0.102369 2376:0.0923451 2454:0.0826245 2552:0.222531 2639:0.100243 2668:0.196841 2794:0.0285541 2928:0.216282 2957:0.167193 3003:0.153098 3070:0.0204352 3181:0.109356 3195:0.0838396 3228:0.106521 3232:0.236938 3391:0.0424169 3416:0.0504253 3435:0.0534629 3443:0.115431 3460:0.200486 3486:0.102066 3491:0.0850547 3536:0.0232382 3537:0.0232382 3554:0.113609 3590:0.277035 3681:0.0881791 3934:0.612394 3956:0.0680437 3969:0.0438292 4020:0.22904 4065:0.0583232 4111:0.367558 4200:0.286756 4201:0.833536 4221:0.0862697 4236:0.151276 4303:0.169137 4305:0.215564 4306:0.0844471 4368:0.210288 4385:0.0571081 4424:0.309842 4501:0.368165 4506:0.102066 4516:0.0421223 4525:0.207776 4544:0.0498177 4620:0.0868773 4672:0.0853922 4756:0.0811665 4783:0.0554881 4821:0.221142 
0 0 9.301230135585731 0 38.84012549675818 85.34746842136434 33.20393626303626 158.8835900793101 0 290:0.0997151 317:0.102564 349:0.100665 411:0.165242 444:0.849003 470:0.160969 634:0.07629 644:0.08566 661:0.115068 754:0.223647 764:0.180912 861:0.0455049 1009:0.236467 1180:0.433048 1181:0.267806 1232:0.111823 1313:0.108262 1324:0.109858 1456:0.109687 1545:1 1650:0.140313 1756:0.202279 1794:0.108262 1880:0.242165 1962:0.109687 1964:0.347578 2059:0.236467 2246:0.190313 2335:0.240028 2355:0.182336 2375:0.0598291 2376:0.108262 2444:0.260036 2639:0.235043 2709:0.193732 2741:0.268673 2761:0.433048 2863:0.115385 2928:0.126781 2949:0.370866 2957:0.490028 2969:0.14416 3003:0.358974 3147:0.1295 3486:0.239316 3491:0.0997151 3554:0.266382 3590:0.216524 3768:0.239316 3849:0.0667481 3909:0.564103 3934:0.410256 3943:0.282051 4188:0.219373 4306:0.396011 4372:0.188034 4528:0.308832 4584:0.192023 4627:0.196011 4672:0.0455049 
93.7617531238141 168.0175803397597 94.08553440036077 167.7871081316417 152.9932400023719 97.75091419318554 143.8193446094467 214.6307757190805 168.4336021421942 131:0.0934028 164:0.149206 172:0.15 182:0.151667 322:0.0921875 333:0.123611 347:0.140625 411:0.120833 472:0.16875 579:0.135833 631:0.075 644:0.125278 700:0.261111 711:0.184375 737:0.0708333 757:0.0864583 781:0.495833 803:0.116667 861:0.0532407 910:0.0958333 950:0.0822917 985:0.106944 1009:0.0864583 1015:0.219792 1099:0.13151 1152:0.569792 1166:0.235417 1305:0.1375 1313:0.158333 1354:0.283333 1386:0.172917 1435:0.197917 1448:0.3 1482:0.100694 1511:0.0916667 1545:0.365625 1601:0.183333 1675:0.10625 1683:0.189583 1756:0.147917 1770:0.165 1794:0.0791667 1890:0.197917 2044:0.183333 2119:0.347917 2130:0.133654 2161:0.246094 2162:0.0315972 2246:0.139167 2272:0.1375 2276:0.0916667 2292:0.19375 2355:0.133333 2375:0.04375 2402:0.103472 2444:0.190152 2478:0.153125 2639:0.171875 2683:0.229167 2712:0.4 2843:0.129167 2863:0.16875 2896:0.158333 2919:0.16875 2928:0.185417 2936:0.0553385 2957:0.0716667 3181:0.1875 3271:0.135417 3491:0.0729167 3537:0.0398437 3635:0.172917 3640:0.120833 3661:0.0875 3681:0.15119 3740:0.0702519 3768:0.175 3818:0.217917 3849:0.0488095 3897:0.197917 3901:0.18125 3928:0.15 4075:0.102604 4138:0.43125 4230:0.0916667 4241:0.0989583 4303:0.145 4304:0.0539352 4306:0.0723958 4310:0.15 4371:0.113542 4486:0.115625 4493:0.589063 4584:0.42125 4672:0.0532407 4748:0.0912879 4750:0.19375 4765:0.88125 
93.7617531238141 122.2254729400906 94.08553440036077 167.7871081316417 152.9932400023719 131.8230728301822 67.85351567353121 164.2813986761484 52.56500404968897 339:0.448171 539:0.512195 670:0.328049 711:0.809451 861:0.0389566 1009:0.506098 1030:1 1236:0.166006 1384:0.697154 1425:0.626386 1511:0.134146 1880:0.777439 2024:0.241235 2128:1 2639:0.251524 2863:0.123476 2957:0.314634 3322:0.146951 4065:0.439024 4179:0.685976 4306:0.317835 4310:0.658537 4672:0.0389566 
93.7617531238141 168.0175803397597 94.08553440036077 167.7871081316417 152.9932400023719 131.8230728301822 143.8193446094467 214.6307757190805 168.4336021421942 558:1 648:0.0371955 852:0.0233926 861:0.0525748 1301:0.0410358 1488:1 1849:0.0265246 2162:0.139785 3266:0.335747 3498:0.402458 3536:0.025181 3537:0.025181 4111:0.0398288 4131:1 4501:0.0664911 4654:0.0136054 4672:0.0525748 
93.7617531238141 168.0175803397597 94.08553440036077 167.7871081316417 152.9932400023719 131.8230728301822 143.8193446094467 214.6307757190805 168.4336021421942 18:0.0427039 23:0.0892532 72:0.00869691 89:0.0994015 145:0.071949 156:0.049614 203:0.0326047 211:0.216758 215:0.116576 229:0.0379478 231:0.0526209 316:0.034406 317:0.0218579 333:0.0360251 347:0.0409836 351:0.0280308 353:0.0352155 365:0.0413148 388:0.0497875 399:0.114494 456:0.0412872 464:0.131148 467:0.055252 493:0.0276867 514:0.0613236 533:0.0288403 535:0.0437158 563:0.482316 579:0.0395871 595:0.282332 631:0.0874317 634:0.0162585 640:0.309047 686:0.0388585 737:0.0619308 778:0.0126464 781:0.144505 803:0.0340012 831:0.0880389 845:0.0132058 861:0.0465493 869:0.11354 934:0.114754 987:0.0831815 1009:0.125987 1030:0.0663833 1054:0.023477 1069:0.0704311 1077:0.0376442 1101:0.0720502 1198:0.0613236 1204:0.0809553 1209:0.0842173 1229:0.0317004 1247:0.036612 1305:0.0400729 1313:0.161506 1316:0.0534305 1398:0.0510018 1410:0.0412872 1426:0.05424 1448:0.0437158 1465:0.127505 1471:0.281724 1489:0.0870928 1511:0.0801457 1545:0.0532787 1561:0.114754 1631:0.0439301 1655:0.0579235 1656:0.0510018 1683:0.055252 1696:0.0837887 1756:0.0431087 1761:0.0868245 1770:0.0641166 1832:0.0240437 1872:0.178506 1875:0.30763 1877:0.0494839 1878:0.0653309 1944:0.0397086 1950:0.0977535 1963:0.11945 1967:0.0534305 1988:0.0296354 1989:0.111718 1995:0.192674 2046:0.0543412 2059:0.100789 2091:0.0380085 2099:0.102206 2119:0.202793 2128:0.0221278 2161:0.0239071 2162:0.027626 2171:0.133576 2180:0.092289 2187:0.607772 2191:0.072374 2246:0.0405586 2276:0.0801457 2298:0.0910747 2339:0.0673953 2355:0.194293 2360:0.0356709 2375:0.0382514 2385:0.0206436 2395:0.0107772 2402:0.0904675 2426:0.0576806 2435:0.281724 2454:0.123862 2511:0.0387067 2545:0.0681759 2552:0.0555989 2576:0.00943129 2680:0.169399 2698:0.0291439 2745:0.0485732 2761:0.0461445 2763:0.0461445 2794:0.370978 2795:0.0910747 2848:0.0768063 2863:0.0737705 2870:0.0822708 2876:0.63388 2886:0.102813 2928:0.189132 2957:0.0835458 2965:0.0233151 3029:0.0167847 3087:0.0537162 3090:0.0891857 3108:0.0510018 3147:0.0275984 3159:0.0461445 3163:0.0825744 3165:0.187007 3187:0.0425015 3211:0.0740741 3214:0.021511 3227:0.0336217 3228:0.0532281 3290:0.195102 3300:0.327059 3313:0.0356709 3367:0.15422 3391:0.0211956 3400:0.088646 3407:0.058895 3413:0.0570735 3435:0.0267152 3461:0.0480874 3487:0.227687 3491:0.0212508 3498:0.0530257 3513:0.0707347 3536:0.011612 3537:0.011612 3541:0.0155586 3554:0.0567699 3556:0.0364299 3587:0.02712 3590:0.0461445 3592:0.017203 3640:0.0704311 3645:0.101396 3679:0.0403764 3690:0.144991 3740:0.0204742 3773:0.518519 3812:0.0395313 3848:0.119611 3849:0.014225 3854:0.0412872 3941:0.10929 3943:0.0200364 3956:0.0340012 3963:0.0510018 3977:0.115361 4043:0.125683 4060:0.0637523 4075:0.0299029 4081:0.0360251 4098:0.0336976 4124:0.0837887 4127:0.85003 4152:0.0910747 4161:0.0251973 4163:0.036612 4180:0.0758956 4187:0.0314208 4188:0.0467517 4221:0.064663 4225:0.0696215 4230:0.187007 4241:0.0288403 4282:0.0223976 4303:0.063388 4305:0.0359055 4306:0.105495 4310:0.0437158 4343:0.037037 4354:0.0291439 4377:0.0789314 4389:0.0185461 4397:0.0965392 4437:0.0468384 4440:0.0250455 4452:0.0207785 4473:0.0132362 4506:0.0510018 4525:0.0519126 4535:0.0704311 4538:0.0785266 4572:0.188221 4584:0.0409229 4601:0.0708359 4627:0.0208865 4642:0.0227687 4654:0.0376442 4657:0.0100182 4672:0.0465493 4691:0.0352155 4745:0.192471 4747:0.0340012 4750:0.0564663 4756:0.0405586 4760:0.0120927 4786:0.0227687 
93.7617531238141 168.0175803397597 94.08553440036077 167.7871081316417 152.9932400023719 131.8230728301822 143.8193446094467 214.6307757190805 168.4336021421942 49:0.09375 274:0.304087 623:0.179087 648:0.0679087 737:0.0408654 825:0.121394 861:0.0307158 1009:0.0498798 1015:0.126803 1065:0.0507212 1077:0.149038 1138:0.459135 1313:0.0456731 1320:0.535657 1386:0.249399 1560:0.158654 1580:1 1631:0.0289876 1770:0.317308 1912:0.292468 1943:0.078726 1988:0.0117331 1995:0.0476763 2119:0.100361 2162:0.0182292 2276:0.0528846 2359:0.0688101 2402:0.238782 2552:0.330185 2695:0.0697115 2696:0.121795 2701:0.0576923 2804:0.0841346 2843:0.0745192 2957:0.0413462 2990:0.205529 3016:0.479567 3045:0.0572917 3159:0.182692 3181:0.108173 3219:0.256611 3237:0.191106 3391:0.125874 3393:0.0522837 3399:0.913462 3536:0.0229868 3537:0.0229868 3590:0.182692 3890:0.114423 3957:0.507212 4060:0.126202 4282:0.155182 4286:0.24399 4303:0.0418269 4306:0.0417668 4368:0.104006 4440:0.0495793 4544:0.0492788 4547:0.103846 4556:0.177885 4642:0.0450721 4654:0.0248397 4672:0.0307158 4756:0.0802885 4786:0.0450721 4795:0.807692 
93.7617531238141 168.0175803397597 94.08553440036077 167.7871081316417 152.9932400023719 131.8230728301822 143.8193446094467 214.6307757190805 168.4336021421942 9:0.525896 72:0.057067 170:0.605578 353:0.346614 506:0.298805 513:0.153386 592:0.451527 861:0.20363 1143:0.114044 1301:0.24834 1313:0.151394 1410:0.270916 1448:0.286853 1539:0.0528021 1756:0.282869 1988:0.0777841 2124:0.175299 2162:0.060425 2174:0.0942895 2193:0.350598 2251:0.346614 2272:0.262948 2276:0.175299 2666:0.167331 2916:0.116202 3087:0.881181 3105:0.332669 3134:0.432935 3153:0.41023 3498:0.173971 3516:0.0465282 3522:0.141434 3523:0.121229 3536:0.0761952 3537:0.0761952 4188:0.306773 4192:0.215139 4221:0.141434 4282:0.0734838 4304:0.103143 4306:0.276892 4473:0.0868526 4479:0.358566 4492:0.248606 4672:0.20363 4741:0.2251 4746:1 
93.7617531238141 168.0175803397597 94.08553440036077 167.7871081316417 152.9932400023719 131.8230728301822 143.8193446094467 214.6307757190805 168.4336021421942 648:0.0865237 1320:0.194997 1827:0.287902 2217:0.0918836 3440:0.104037 3556:0.0918836 4131:0.00607359 4693:0.0183767 
93.7617531238141 168.0175803397597 94.08553440036077 167.7871081316417 152.9932400023719 131.8230728301822 143.8193446094467 214.6307757190805 168.4336021421942 72:0.00132236 130:0.00660081 338:0.195949 339:0.00678545 365:0.00628189 445:0.199298 535:0.00664697 618:0.0060192 640:0.0234952 648:0.0521603 694:0.00563146 732:0.00443131 737:0.00941654 759:0.270244 764:0.00586226 825:0.00932422 968:0.0102659 1009:0.00383124 1015:0.029219 1065:0.00389586 1232:0.00724705 1320:0.0293882 1349:0.00960118 1425:0.00474184 1452:0.0166174 1580:0.0128016 1631:0.00222652 1696:0.01274 1757:0.650542 1794:0.00350812 1875:0.0116937 1988:0.00090121 1995:0.00366199 2119:0.0616691 2128:0.00336452 2162:0.00140017 2207:0.00529296 2276:0.0812408 2369:0.21935 2402:0.00458518 2472:0.0853028 2552:0.00845379 2633:0.00461595 2695:0.0588996 2696:0.140325 2701:0.0531758 2957:0.0889217 2984:0.00510832 3024:0.0221566 3126:0.650542 3135:0.00712011 3159:0.00701625 3181:0.0747784 3233:0.0218796 3237:0.0146787 3319:0.0117245 3391:0.00644555 3399:0.149095 3440:0.541169 3443:0.00877031 3498:0.00403127 3590:0.00701625 3627:0.147895 3645:0.0154173 3858:0.0673006 3883:0.00208641 3890:0.00439439 3929:0.0705318 3943:0.00304653 4065:0.132939 4075:0.00454671 4129:0.0115399 4131:0.111674 4230:0.00406204 4282:0.052786 4303:0.0899557 4304:0.172083 4305:0.0382159 4306:0.00641617 4348:0.00658927 4368:0.335524 4380:0.0184946 4547:0.0279173 4564:0.0024003 4627:0.00317578 4642:0.00692393 4654:0.00763171 4693:0.00664697 4786:0.00692393 
59.49609460337398 168.0175803397597 94.08553440036077 167.7871081316417 152.9932400023719 131.8230728301822 143.8193446094467 214.6307757190805 168.4336021421942 72:0.0434055 130:0.0270833 199:0.0613636 204:0.157197 224:0.013447 265:0.0181818 282:0.0545455 294:0.0393939 309:0.1 313:0.482576 317:0.0136364 322:0.234659 333:0.0224747 360:0.0481405 365:0.0257748 411:0.0219697 435:0.0329545 445:0.0292045 459:0.0549242 470:0.0214015 472:0.0306818 479:0.0265152 486:0.017803 505:0.0248106 513:0.0583333 531:0.0625 533:0.0179924 534:0.0439394 579:0.0493939 585:0.123864 598:0.0179293 626:0.0568182 630:0.132576 634:0.0811448 641:0.0268939 644:0.0113889 680:0.0306439 703:0.0814394 737:0.0257576 748:0.0811448 749:0.0348485 757:0.0157197 802:0.032197 803:0.0212121 839:0.0448864 848:0.0429924 861:0.133102 882:0.0988636 910:0.0174242 934:0.0238636 947:0.0575758 1009:0.0785985 1015:0.0799242 1028:0.0314394 1030:0.0621212 1065:0.0319697 1180:0.0287879 1301:0.0236111 1313:0.331061 1314:0.0191919 1332:0.0144915 1337:0.109848 1349:0.0393939 1386:0.0314394 1426:0.0169192 1435:0.0359848 1449:0.0401515 1465:0.0795455 1511:0.0166667 1524:0.05 1540:0.112879 1553:0.0636364 1562:0.0215618 1580:0.0262626 1601:0.0333333 1605:0.0846591 1650:0.0559659 1659:0.121591 1675:0.0579545 1683:0.0689394 1705:0.180682 1707:0.107955 1741:0.11553 1755:0.107955 1756:0.0537879 1770:0.09 1774:0.0704545 1798:0.0329545 1842:0.055303 1848:0.022096 1890:0.0359848 1898:0.018354 1943:0.0248106 1955:0.0528409 1964:0.0924242 1971:0.013447 1988:0.0221861 2046:0.0169508 2050:0.0371212 2059:0.0628788 2065:0.121402 2077:0.0286932 2101:0.0625758 2119:0.0316288 2124:0.05 2130:0.0243007 2135:0.025 2161:0.149148 2162:0.0172348 2207:0.0217172 2212:0.0234848 2246:0.0126515 2272:0.075 2276:0.25 2335:0.0319129 2355:0.145455 2375:0.0159091 2376:0.0143939 2400:0.0460227 2410:0.0560606 2437:0.0359848 2478:0.0556818 2519:0.109091 2545:0.0212662 2557:0.032197 2566:0.0363636 2580:0.0424242 2589:0.0265152 2633:0.0378788 2639:0.03125 2640:0.0242424 2675:0.110795 2709:0.0257576 2712:0.145455 2761:0.0575758 2763:0.0287879 2793:0.139394 2808:0.0268939 2855:0.0280303 2863:0.214773 2870:0.0513258 2887:0.0272727 2919:0.0920455 2928:0.101136 2933:0.0643939 2934:0.0856061 2957:0.0130303 2973:0.0674242 3087:0.0167558 3108:0.0318182 3181:0.0340909 3188:0.0268939 3227:0.0209754 3246:0.0329545 3255:0.0835227 3286:0.0167929 3313:0.0222538 3382:0.0265152 3386:0.281229 3393:0.0494318 3415:0.0335227 3416:0.0157197 3423:0.0848485 3433:0.136364 3461:0.03 3491:0.0132576 3498:0.0661616 3524:0.0178977 3540:0.00585227 3600:0.0166667 3620:0.0659091 3645:0.189773 3661:0.0795455 3679:0.0125947 3681:0.0412338 3719:0.0886364 3740:0.00638654 3768:0.0318182 3794:0.0723485 3807:0.0501515 3818:0.0396212 3849:0.133117 3854:0.0772727 3862:0.0515152 3876:0.0155012 3896:0.0330303 3897:0.0719697 3900:0.00647186 3901:0.0659091 3943:0.0375 3956:0.0318182 3973:0.0557576 4029:0.0674242 4065:0.0909091 4075:0.167898 4100:0.00858793 4111:0.0229167 4121:0.0363636 4132:0.0291667 4134:0.0420455 4162:0.0553977 4165:0.148864 4217:0.270455 4221:0.188258 4230:0.0166667 4241:0.0719697 4282:0.0978114 4293:0.0534091 4303:0.210909 4304:0.0588384 4306:0.0526515 4348:0.027036 4392:0.0386364 4449:0.213542 4452:0.0259259 4454:0.0121212 4461:0.0414773 4491:0.0381818 4492:0.0118182 4528:0.0410606 4535:0.0439394 4544:0.0310606 4547:0.0163636 4582:0.1 4584:0.0510606 4640:0.0287879 4642:0.0142045 4654:0.0313131 4662:0.0318182 4672:0.133102 4714:0.225 4740:0.015625 4746:0.0135823 4750:0.0352273 4754:0.0119949 4756:0.025303 4786:0.0142045 4821:0.00984848 
0 46.6824857618267 0 0 0 0 143.8193446094467 214.6307757190805 127.9035973438585 72:0.0423781 77:0.502959 147:0.207101 224:0.10503 265:0.142012 482:0.432692 513:0.227811 673:0.732249 686:0.189349 703:0.212032 754:0.232249 861:0.0567061 1015:0.31213 1017:0.230769 1030:0.161736 1086:0.309467 1143:0.0846893 1313:0.674556 1320:0.188363 1471:0.343195 1562:0.0842057 1601:0.52071 1705:0.235207 1730:0.182446 1770:0.0781065 1890:0.281065 2090:0.316568 2329:0.282544 2709:0.201183 2863:0.239645 2896:0.224852 2928:0.263314 2957:0.101775 3014:0.488166 3147:0.134481 3311:0.210059 3372:0.254438 3433:0.213018 3460:0.488166 3461:0.11716 3486:0.248521 3498:0.129191 3536:0.0565828 3537:0.0565828 3593:0.227811 3719:0.230769 3849:0.0693153 3862:0.201183 3896:0.257988 3939:0.245293 3943:0.195266 4221:0.420118 4225:0.169625 4282:0.163708 4303:0.308876 4305:0.17496 4306:0.102811 4348:0.105584 4392:0.150888 4509:0.263314 4547:0.127811 4584:0.199408 4627:0.305325 4672:0.0567061 4754:0.0936884 
27.75043922553202 0 19.99587922118493 0 0 26.20597143979611 0 0 0 18:0.569962 181:0.233387 217:0.0899514 309:0.213938 365:0.220569 411:0.188006 482:0.237034 487:0.432739 547:0.134522 579:0.105673 644:0.194922 671:0.06513 694:0.0988655 737:0.275527 825:0.163695 861:0.0465964 953:0.138169 1090:0.172609 1143:0.0927877 1170:0.153971 1180:0.246353 1232:0.636143 1313:0.0615883 1322:0.234198 1386:0.0672609 1448:0.116694 1452:0.0729335 1489:0.0581207 1516:0.0950837 1545:0.14222 1601:0.142626 1631:0.0390886 1683:0.36872 1697:0.218801 1770:0.0427877 1875:0.410589 1943:0.106159 2046:0.0725284 2077:0.0818476 2135:0.106969 2162:0.122907 2246:0.162399 2329:0.154781 2375:0.102107 2452:0.123177 2552:0.148414 2612:0.231767 2666:0.0680713 2761:0.123177 2763:0.123177 2863:0.0656402 2870:0.219611 2883:0.280065 2928:0.144246 2957:0.167261 3181:0.583468 3267:0.0696921 3433:0.116694 3502:0.0871961 3536:0.0309968 3537:0.0309968 3543:0.0846029 3554:0.15154 3556:0.0486224 3645:0.270665 3681:0.352859 3708:0.175041 3849:0.0379718 3974:0.689357 4065:0.0777958 4081:0.0480821 4086:0.168558 4121:0.466775 4188:0.124797 4225:0.0929227 4230:0.0713128 4246:0.115883 4282:0.209256 4305:0.095845 4306:0.112642 4371:0.0883306 4381:0.106969 4599:0.119125 4627:0.0557536 4672:0.0465964 4821:0.252836 
0 168.0175803397597 94.08553440036077 167.7871081316417 0 131.8230728301822 143.8193446094467 214.6307757190805 168.4336021421942 42:0.0273556 72:0.0532124 181:0.0486322 204:0.0280311 217:0.0187437 224:0.0119892 265:0.0162107 274:0.0854441 282:0.0729483 290:0.0236407 296:0.212766 309:0.0891591 313:0.198582 317:0.0486322 322:0.0298886 333:0.0601148 351:0.0779579 365:0.0459611 388:0.0138467 411:0.039176 472:0.0273556 482:0.0987842 513:0.0910165 533:0.0320838 539:0.0283688 585:0.0736238 598:0.0159856 622:0.0216143 623:0.0503208 627:0.0621412 631:0.0121581 634:0.0723479 641:0.0359676 673:0.0278622 686:0.0864573 693:0.0440729 694:0.0412023 703:0.0242035 737:0.0114826 749:0.0466059 751:0.0101438 757:0.0700777 763:0.0651131 772:0.110098 781:0.0803783 802:0.0430598 803:0.0567376 831:0.24485 848:0.0383316 861:0.116515 882:0.029382 886:0.0258657 910:0.0155353 947:0.102668 950:0.0133401 953:0.0143955 968:0.0187774 1009:0.112124 1015:0.0356299 1028:0.0280311 1030:0.0369245 1065:0.128267 1091:0.0699088 1099:0.0213188 1124:0.0273454 1143:0.0193347 1155:0.0154509 1180:0.025667 1252:0.522459 1271:0.0290442 1301:0.0421029 1313:0.179669 1314:0.00855567 1320:0.0215017 1322:0.0488011 1326:0.0207137 1332:0.0775229 1374:0.0178318 1386:0.0700777 1448:0.0243161 1452:0.0151976 1456:0.0130024 1458:0.0425532 1465:0.0472813 1482:0.0163233 1499:0.0253293 1511:0.0445795 1545:0.0296353 1550:0.0486322 1577:0.0481256 1601:0.0891591 1625:0.100266 1631:0.0488706 1633:0.0309017 1638:0.0303951 1659:0.0722729 1675:0.0172239 1683:0.0307329 1696:0.0233029 1697:0.0455927 1705:0.0805471 1725:0.0891591 1755:0.0481256 1756:0.119892 1770:0.0891591 1782:0.0227964 1793:0.0439716 1794:0.0128335 1798:0.0440729 1848:0.334909 1883:0.0101317 1894:0.0112124 1943:0.0663627 1962:0.0130024 1971:0.0119892 1988:0.00989048 2046:0.0755657 2059:0.0280311 2075:0.0560621 2090:0.0361364 2101:0.027896 2119:0.0845998 2124:0.0148598 2130:0.0433326 2135:0.0445795 2161:0.25266 2162:0.0256107 2180:0.0385005 2207:0.0193628 2210:0.154086 2211:0.0263425 2212:0.125633 2244:0.0489699 2268:0.0189125 2272:0.0445795 2276:0.163458 2355:0.064843 2359:0.0193347 2375:0.0567376 2376:0.102668 2402:0.0167736 2408:0.025667 2410:0.0499831 2437:0.0962513 2444:0.0616499 2454:0.0459304 2479:0.0597771 2553:0.0310706 2558:0.0393786 2640:0.0216143 2666:0.0141844 2668:0.0547112 2685:0.0216143 2712:0.064843 2741:0.0318488 2748:0.055792 2761:0.077001 2772:0.047619 2781:0.0183497 2808:0.0239784 2834:0.0712597 2855:0.0249916 2863:0.191489 2886:0.0285939 2919:0.0547112 2928:0.135258 2934:0.0763256 2949:0.0439628 2957:0.0116177 3045:0.0160982 3065:0.0150287 3087:0.0149393 3101:0.0422155 3122:0.00915122 3136:0.0287065 3140:0.0137622 3147:0.0460532 3195:0.0233029 3227:0.0374029 3229:0.00925363 3232:0.0439041 3246:0.029382 3255:0.0248227 3260:0.0526849 3273:0.0128335 3288:0.0243161 3311:0.0959135 3313:0.0396825 3368:0.0120616 3376:0.019588 3382:0.0236407 3386:0.395399 3393:0.014691 3416:0.0840932 3456:0.0486322 3460:0.0557244 3461:0.0267477 3465:0.0472813 3491:0.070922 3498:0.103231 3524:0.0638298 3532:0.0283688 3534:0.0742992 3546:0.0857818 3561:0.0557244 3563:0.114186 3590:0.025667 3600:0.0148598 3635:0.0280311 3640:0.019588 3645:0.0563999 3661:0.0283688 3681:0.0122545 3693:0.0243161 3719:0.131712 3720:0.131037 3812:0.0219886 3818:0.141304 3854:0.0459304 3862:0.0918609 3873:0.0992063 3882:0.0972644 3896:0.058899 3897:0.0641675 3901:0.029382 3936:0.0908477 3943:0.0222898 3956:0.0378251 3963:0.0283688 3976:0.100642 3982:0.0479568 3986:0.0273556 3998:0.0448328 4005:0.0347855 4065:0.0972644 4075:0.0166329 4111:0.0204323 4121:0.064843 4124:0.0932118 4134:0.0374873 4147:0.0506586 4157:0.0234718 4160:0.0150998 4162:0.0493921 4169:0.024091 4176:0.0325774 4177:0.0141844 4188:0.182033 4211:0.0291568 4217:0.160757 4221:0.15586 4230:0.0148598 4241:0.0320838 4264:0.057413 4282:0.0934369 4293:0.0952381 4303:0.0470111 4304:0.0262299 4305:0.0599153 4306:0.176039 4316:0.010675 4348:0.0361575 4381:0.0222898 4392:0.0057413 4412:0.236069 4449:0.0380784 4452:0.0115577 4473:0.00736238 4516:0.0234155 4528:0.0366093 4535:0.039176 4538:0.0218395 4544:0.0138467 4547:0.0145897 4548:0.0861196 4556:0.0499831 4582:0.0891591 4584:0.0682877 4618:0.0547112 4627:0.0348531 4642:0.0126646 4654:0.0139592 4672:0.116515 4684:0.0571879 4714:0.100304 4740:0.0139311 4746:0.0242196 4748:0.0147984 4750:0.0314083 4786:0.0126646 4798:0.0445795 4821:0.0175616 
93.7617531238141 168.0175803397597 94.08553440036077 167.7871081316417 152.9932400023719 131.8230728301822 143.8193446094467 214.6307757190805 168.4336021421942 72:0.0296559 267:0.0993789 322:0.0916149 388:0.0848861 631:0.0745342 648:0.233954 673:0.341615 732:0.198758 760:0.141822 818:0.23354 861:0.0462963 968:0.115114 1015:0.218427 1030:0.113182 1150:0.141247 1151:0.0560807 1279:0.230849 1299:0.0559006 1316:0.364389 1332:0.158416 1420:0.276743 1426:0.0924776 1522:0.0910973 1538:0.0961583 1552:0.0548654 1766:0.538302 1825:0.173913 1832:0.163975 1875:0.26225 1883:0.186335 1950:1 1988:0.020211 1995:0.73913 2119:0.172878 2162:0.282609 2228:0.331263 2268:0.202899 2276:0.0910973 2355:0.26501 2376:0.15735 2393:0.621118 2695:0.120083 2749:0.2098 2794:0.291925 2839:0.0776398 2957:0.142443 2998:0.15735 3069:0.106625 3162:0.136646 3165:0.15942 3181:0.372671 3311:0.146998 3401:0.107143 3413:0.291925 3440:0.0401872 3461:0.163975 3498:0.0904072 3556:0.559006 3592:0.703934 3600:0.273292 3601:0.0730159 3669:0.248447 3740:0.0698156 3890:0.0985507 3943:0.068323 4065:0.0993789 4098:0.114907 4187:0.107143 4306:0.215839 4343:0.252588 4422:0.925466 4440:0.768634 4473:0.0902692 4654:0.128364 4672:0.0462963 4691:0.120083 4693:0.0993789 4819:0.177019 
0 23.04933201005979 65.32850281958008 0 8.230051663943433 0 0 0 0 322:0.0724223 339:0.120295 435:0.14239 472:0.397709 533:0.0777414 626:0.12275 634:0.0438262 644:0.246045 673:0.135025 861:0.0418258 1030:0.178942 1074:0.235679 1099:0.103314 1163:0.175123 1313:0.186579 1326:0.100382 1349:0.170213 1409:0.211129 1545:0.287234 1562:0.0465819 1601:0.576105 1675:0.166939 1695:0.121931 1705:0.520458 1725:0.432079 1756:0.116203 1770:0.0432079 1794:0.124386 1880:0.139116 1967:0.288052 2046:0.0732406 2074:0.086743 2077:0.0413257 2161:0.128887 2276:0.216039 2437:0.310966 2454:0.222586 2919:0.265139 2928:0.0728314 2957:0.394108 3014:0.270049 3181:0.1473 3288:0.11784 3382:0.343699 3389:0.0932897 3411:0.145663 3413:0.0769231 3435:0.0720131 3491:0.0572831 3494:0.065671 3498:0.0714675 3536:0.0313011 3537:0.0313011 3615:0.0626841 3640:0.0949264 3661:0.0687398 3849:0.0383446 3854:0.111293 3862:0.111293 3943:0.0540098 4065:0.314239 4121:0.157119 4124:0.451718 4161:0.0679214 4221:0.0581015 4230:0.0720131 4282:0.150937 4293:0.230769 4303:0.0569558 4306:0.113748 4371:0.178396 4385:0.0769231 4392:0.0834697 4528:0.177414 4627:0.112602 4640:0.124386 4672:0.0418258 4740:0.0675123 4756:0.109329 
40.04547153544263 0 0 0 100.5148258077302 0 0 0 0 156:0.103698 217:0.281726 505:0.332487 533:0.241117 558:0.103084 595:0.786802 634:0.271856 641:0.180203 644:0.610491 661:0.20502 737:0.172589 861:0.0486464 1009:0.21066 1313:0.192893 1386:0.21066 1405:0.385787 1448:0.365482 1488:0.100661 1511:0.22335 1650:1 1683:0.230964 1712:0.396503 1844:0.256345 2101:0.838579 2180:0.192893 2276:0.446701 2748:0.419289 2957:0.174619 3232:0.329949 3461:0.201015 3498:0.221658 3554:0.474619 3600:0.22335 3640:0.588832 4075:1 4131:0.100661 4162:0.371193 4305:0.300185 4627:0.174619 4654:0.104907 4672:0.0486464 
93.7617531238141 168.0175803397597 94.08553440036077 167.7871081316417 152.9932400023719 131.8230728301822 143.8193446094467 214.6307757190805 168.4336021421942 72:0.0577573 130:0.288306 310:0.495968 316:0.228495 348:0.364919 579:0.262903 689:0.366935 789:0.22379 829:0.362903 861:0.0386425 1140:0.288306 1154:0.464286 1313:0.153226 1426:0.180108 1650:0.198589 1770:0.106452 1819:0.21371 1995:0.159946 2046:0.541331 2059:0.334677 2161:0.15877 2320:0.649194 2402:0.200269 2409:0.102823 2421:0.0599078 2763:0.306452 2794:0.47379 2969:0.204032 3227:0.223286 3491:0.282258 3556:0.120968 3563:0.681664 3582:0.280242 3590:0.306452 3603:0.204301 3614:0.266129 3862:0.274194 4385:0.379032 4548:0.685484 4556:0.596774 4672:0.0386425 4684:0.341398 
16.0669940540859 0 0 69.13920814148108 13.2172892820752 0 88.63709854987205 154.7591996279846 23.53558184183575 42:0.0914221 113:0.089541 317:0.0812641 349:0.0398796 365:0.0768007 379:0.509029 388:0.0925508 459:0.163657 505:0.0739278 547:0.0468397 585:0.123025 617:0.151618 634:0.0604465 644:0.0339353 673:0.0931151 689:0.102709 737:0.0383747 740:0.0714823 749:0.0519187 803:0.0632054 861:0.0576875 866:0.11851 890:0.100828 990:0.207675 1009:0.187359 1091:0.0778781 1120:0.0514955 1143:0.0323081 1148:0.419865 1227:1 1301:0.0703536 1313:0.0857788 1326:0.069225 1386:0.0468397 1391:0.109707 1545:0.0990406 1548:0.0296863 1577:0.160835 1625:0.167545 1770:0.0595937 1821:0.0744921 1844:0.0569977 1912:0.137321 1930:0.0852144 1955:0.0787246 1971:0.0400677 2046:0.0505079 2101:0.093228 2161:0.0444413 2180:0.0857788 2207:0.0647103 2262:1 2268:0.0474041 2395:0.0601016 2402:0.0560572 2454:0.0767494 2465:0.0829571 2639:0.18623 2723:0.643341 2794:0.0265237 2831:0.0970655 2863:0.0914221 2928:0.0502257 3028:0.402935 3068:0.0812641 3080:0.0643341 3105:0.0942438 3139:0.0948081 3165:0.0869074 3181:0.10158 3232:0.0733634 3246:0.0981941 3255:0.0829571 3288:0.0812641 3311:0.160271 3353:0.068623 3391:0.0394008 3400:0.164786 3416:0.0468397 3448:0.183409 3460:0.18623 3491:0.0790068 3536:0.0215858 3537:0.0215858 3558:0.0838036 3640:0.0654628 3661:0.0474041 3685:0.525959 3740:0.0380597 3807:0.149436 3854:0.0767494 3862:0.153499 3890:0.0537246 3919:0.0485327 3943:0.037246 3956:0.0632054 3974:0.24003 4065:0.216704 4132:0.0869074 4176:0.0544365 4221:0.0400677 4241:0.107223 4282:0.0832706 4303:0.0785553 4306:0.0392212 4371:0.123025 4385:0.21219 4422:0.100903 4627:0.194131 4636:0.0415995 4672:0.0576875 4748:0.0494562 4798:0.0744921 4821:0.0880361 
0 0 0 113.2507962778256 0 0 22.47046414333497 0 73.55173401882278 307:0.165414 351:0.347118 379:0.0605532 485:0.545113 644:0.226065 686:0.120301 689:0.171053 703:0.134712 749:0.259398 757:0.31203 861:0.0540414 1009:0.156015 1180:0.142857 1221:0.228697 1313:0.214286 1386:0.0780075 1448:0.135338 1601:0.165414 1638:0.169173 1752:0.180451 1761:0.806391 1943:0.12312 1964:0.229323 2024:0.148731 2059:0.31203 2123:0.0620301 2161:0.222039 2300:0.343985 2426:0.178571 2508:0.0952381 2519:0.270677 2545:0.211063 2607:0.128571 2639:0.155075 2738:0.327068 2759:0.31015 2786:1 2792:0.306391 2863:0.152256 2928:0.167293 2957:0.840602 3025:0.105263 3313:0.496945 3372:0.161654 3532:0.157895 3536:0.0359492 3537:0.0359492 3682:0.0650376 3873:0.110432 3919:0.0808271 3963:0.157895 3977:0.178571 4065:0.0902256 4230:0.0827068 4282:0.41604 4303:0.261654 4306:0.326598 4348:0.134164 4371:0.102444 4506:0.315789 4538:0.121554 4642:0.140977 4672:0.0540414 4715:0.110432 4786:0.140977 4821:0.244361 
0 168.0175803397597 31.79574937298177 167.7871081316417 122.9816078081835 66.47404062181577 72.41594497961718 214.6307757190805 62.09815569293016 18:0.13061 42:0.0752089 72:0.0265995 102:0.569638 131:0.041628 204:0.0770659 215:0.178273 317:0.0334262 336:0.244197 365:0.0631806 513:0.0357474 535:0.0668524 579:0.0605385 634:0.0248633 648:0.0524605 673:0.229805 686:0.0594243 737:0.157846 749:0.0854225 757:0.038533 759:0.0876774 764:0.0589601 781:0.220984 825:0.187558 861:0.0593212 924:0.0589601 947:0.141133 964:0.165274 1009:0.038533 1163:0.09935 1313:0.141133 1320:0.177344 1332:0.0355224 1391:0.0601671 1409:0.119777 1425:0.0476914 1456:0.0357474 1458:0.116992 1465:0.0649954 1545:0.0814763 1601:0.0817084 1770:0.0490251 1943:0.0608171 1962:0.0357474 2059:0.0770659 2077:0.0234448 2119:0.0775302 2162:0.042247 2207:0.0532343 2268:0.0519963 2276:0.245125 2359:0.0531569 2389:0.107707 2402:0.0922315 2417:0.0508659 2454:0.189415 2478:0.0682451 2519:0.133705 2552:0.425123 2639:0.0766017 2695:0.107707 2701:0.0445682 2748:0.153389 2822:0.0752089 2863:0.112813 2919:0.150418 2928:0.082637 2938:1 2945:0.146147 2957:0.287465 3012:0.0285184 3068:0.0668524 3139:0.0779944 3147:0.0422048 3181:0.0835655 3235:0.195915 3246:0.0807799 3257:0.0579387 3311:0.461467 3313:0.0545497 3399:0.176416 3448:0.75441 3491:0.0649954 3498:0.0810894 3536:0.0177577 3537:0.0177577 3556:0.0557103 3590:0.0705664 3593:0.0714949 3641:0.0876406 3681:0.0336915 3862:0.0631383 3897:0.088208 3899:0.097493 3934:0.0668524 3957:0.0979573 4065:0.178273 4081:0.0550913 4188:0.0714949 4192:0.0501393 4221:0.16481 4241:0.044104 4246:0.0663881 4282:0.171258 4304:0.0480759 4306:0.129062 4348:0.033136 4371:0.253018 4416:0.0251504 4454:0.0594243 4538:0.120087 4544:0.0380687 4572:0.143918 4584:0.0625812 4627:0.0319406 4640:0.0705664 4642:0.0348189 4654:0.0383782 4672:0.0593212 4750:0.086351 4756:0.124048 4786:0.0348189 
6.461414375864291 168.0175803397597 94.08553440036077 167.7871081316417 152.9932400023719 0 143.8193446094467 214.6307757190805 168.4336021421942 72:0.0228086 204:0.264331 265:0.0764331 313:0.468153 322:0.634156 333:0.0944798 445:0.122771 470:0.0899682 479:0.111465 598:0.0753715 626:0.119427 630:0.557325 634:0.127919 749:0.146497 861:0.0712137 882:0.27707 947:0.242038 1009:0.132166 1015:0.167994 1028:0.132166 1030:0.0870488 1313:0.242038 1314:0.0403397 1337:0.461783 1465:0.111465 1524:0.210191 1540:0.474522 1562:0.0453209 1601:0.140127 1659:0.0851911 1675:0.243631 1683:0.0724522 1705:0.253185 1707:0.226911 1755:0.226911 1756:0.113057 1770:0.0420382 1798:0.138535 1842:0.232484 2046:0.071258 2065:0.20414 2077:0.040207 2124:0.140127 2161:0.125398 2162:0.0241507 2212:0.0987261 2272:0.210191 2276:0.490446 2437:0.151274 2519:0.229299 2761:0.121019 2793:0.585987 2863:0.257962 2928:0.21258 2933:0.13535 2973:0.14172 3188:0.113057 3255:0.234076 3313:0.0467755 3386:0.454706 3393:0.138535 3416:0.0660828 3498:0.208599 3645:0.265924 3661:0.133758 3679:0.0529459 3719:0.124204 3849:0.0373066 3876:0.0651641 3896:0.138854 3943:0.105096 4029:0.14172 4065:0.152866 4111:0.0963376 4217:0.378981 4221:0.282643 4282:0.146851 4303:0.27707 4392:0.0270701 4544:0.0652866 4584:0.107325 4654:0.0658174 4672:0.0712137 4714:0.157643 4750:0.148089 
0 0 0 0 0 0 0 34.49322412440855 0 204:0.282313 317:0.122449 598:0.160998 634:0.0910809 644:0.204535 698:0.0614246 749:0.156463 852:0.120862 861:0.0543273 1009:0.423469 1017:0.265306 1232:0.133503 1313:0.387755 1341:0.258503 1448:0.244898 1511:0.14966 1580:0.471655 1705:0.270408 1762:0.581633 1770:0.179592 2023:0.698413 2101:0.280952 2136:0.433673 2162:0.0515873 2212:0.210884 2283:0.482993 2355:0.217687 2478:1 2570:0.252551 2792:0.554422 2883:0.587755 2919:0.27551 2949:0.221384 2957:0.234014 3065:0.151361 3080:0.387755 3235:0.717687 3303:0.163946 3645:0.568027 3661:0.142857 3681:0.246842 3956:0.0952381 4065:0.489796 4161:0.282313 4192:0.183673 4221:0.241497 4225:0.195011 4303:0.118367 4305:0.201144 4306:0.118197 4310:0.244898 4371:0.370748 4501:0.343537 4535:0.789116 4572:0.527211 4672:0.0543273 4694:0.632653 4750:0.316327 4821:0.0884354 
93.7617531238141 168.0175803397597 94.08553440036077 167.7871081316417 152.9932400023719 131.8230728301822 143.8193446094467 214.6307757190805 168.4336021421942 42:0.120536 72:0.0639456 182:0.108333 215:0.285714 217:0.0825893 287:0.178571 322:0.0658482 439:0.104167 483:0.176587 513:0.0572917 644:0.0447421 694:0.0907738 740:0.094246 760:0.101935 781:0.177083 831:0.215774 861:0.0427827 870:0.345238 934:0.09375 990:0.27381 1001:0.0357143 1009:0.247024 1028:0.247024 1117:0.319643 1313:0.0565476 1332:0.113862 1374:0.0785714 1410:0.404762 1438:0.0391156 1448:0.214286 1456:0.114583 1465:0.104167 1511:0.0654762 1524:0.294643 1601:0.130952 1699:0.0694444 1756:0.105655 1770:0.0392857 1874:0.126488 1962:0.114583 1965:0.169643 1966:0.315476 1988:0.0435799 1995:0.118056 1996:0.0458568 2046:0.0665923 2124:0.130952 2130:0.095467 2180:0.0565476 2207:0.0853175 2268:0.0208333 2272:0.196429 2276:0.261905 2311:0.094494 2354:0.122024 2356:0.0516183 2376:0.0565476 2393:0.14881 2437:0.141369 2623:0.290551 2639:0.613839 2659:0.113095 2668:0.241071 2684:0.114583 2714:0.129464 2722:0.121032 2834:0.313988 2835:0.122024 2863:0.120536 2928:0.264881 2934:0.33631 3010:0.189732 3080:0.254464 3227:0.0824033 3313:0.0874256 3460:0.245536 3461:0.176786 3498:0.0649802 3536:0.0284598 3537:0.0284598 3635:0.123512 3640:0.172619 3661:0.0625 3721:0.377976 3797:0.114583 3887:0.128827 3894:0.0546131 3907:0.0888393 3941:0.0892857 3943:0.147321 3956:0.0416667 3980:0.166667 4000:0.0674603 4092:0.154762 4124:0.205357 4132:0.114583 4149:0.046131 4166:0.179167 4177:0.0625 4188:0.114583 4221:0.105655 4236:0.185268 4256:0.171131 4282:0.0823413 4303:0.155357 4304:0.0385251 4306:0.103423 4355:0.233631 4356:0.0650298 4500:0.113095 4547:0.128571 4627:0.0511905 4642:0.0558036 4654:0.030754 4672:0.0427827 4684:0.125992 4746:0.0533588 4748:0.0652056 4786:0.0558036 
93.7617531238141 168.0175803397597 94.08553440036077 167.7871081316417 152.9932400023719 131.8230728301822 143.8193446094467 214.6307757190805 168.4336021421942 42:0.112188 164:0.198391 183:0.0942458 203:0.0743767 254:0.364464 257:0.164127 332:0.0720222 333:0.0821791 399:0.0870598 459:0.200831 547:0.0574792 585:0.15097 617:0.372114 673:0.114266 757:0.0574792 765:0.447368 782:0.108033 825:0.139889 848:0.157202 861:0.0752155 871:0.106648 1117:0.148753 1143:0.0396468 1221:0.168513 1232:0.108726 1301:0.0863343 1305:0.0914127 1313:0.0526316 1335:0.154663 1336:0.278393 1384:0.316713 1414:0.0543629 1448:0.199446 1456:0.159972 1465:0.193906 1545:0.121537 1631:0.133616 1726:0.0441584 1756:0.196676 1761:0.396122 1894:0.0459834 1962:0.159972 2026:0.0598401 2077:0.174861 2090:0.148199 2162:0.0210065 2166:0.10711 2210:0.126385 2246:0.0462604 2276:0.0609418 2329:0.132271 2375:0.0290859 2376:0.0526316 2402:0.0687904 2633:0.0692521 2698:0.066482 2709:0.0941828 2712:0.265928 2741:0.130615 2761:0.315789 2852:0.164127 2919:0.112188 2924:0.195291 2957:0.0476454 3007:0.0990305 3233:0.328255 3311:0.196676 3382:0.0969529 3412:0.0715028 3423:0.310249 3460:0.457064 3556:0.0415512 3590:0.105263 3651:1 3915:0.0937871 3950:0.197599 4060:0.145429 4084:0.138504 4134:0.15374 4221:0.049169 4246:0.198061 4282:0.0255463 4303:0.192798 4305:0.163813 4421:0.0582532 4424:0.353186 4506:0.116343 4523:0.121884 4525:0.236842 4547:0.0598338 4556:0.204986 4626:0.117729 4654:0.0286242 4672:0.0752155 4821:0.144044 
93.7617531238141 168.0175803397597 94.08553440036077 167.7871081316417 73.75365794645602 90.74974545063688 143.8193446094467 214.6307757190805 168.4336021421942 42:0.111878 164:0.197843 183:0.0939854 203:0.0741713 254:0.363457 257:0.163674 332:0.0718232 333:0.0819521 399:0.0868193 459:0.200276 547:0.0573204 585:0.150552 617:0.371087 673:0.11395 757:0.0573204 765:0.446133 782:0.107735 803:0.0773481 825:0.139503 848:0.156768 861:0.0705955 871:0.106354 1117:0.148343 1143:0.0395373 1221:0.168048 1232:0.108425 1301:0.0860958 1305:0.0911602 1313:0.0524862 1335:0.154236 1336:0.277624 1384:0.315838 1414:0.0542127 1448:0.198895 1456:0.15953 1465:0.19337 1545:0.121202 1631:0.133247 1726:0.0440364 1756:0.196133 1761:0.395028 1894:0.0458564 1962:0.15953 2026:0.0596748 2077:0.174378 2090:0.14779 2162:0.0209484 2166:0.106814 2210:0.126036 2246:0.0461326 2276:0.0607735 2329:0.131906 2375:0.0290055 2376:0.0524862 2402:0.0686004 2633:0.0690608 2698:0.0662983 2709:0.0939227 2712:0.265193 2741:0.130255 2761:0.314917 2852:0.163674 2919:0.111878 2924:0.194751 2957:0.0475138 3007:0.0987569 3233:0.327348 3311:0.196133 3382:0.0966851 3412:0.0713052 3423:0.309392 3460:0.455801 3556:0.0414365 3590:0.104972 3651:0.997238 3915:0.093528 3950:0.197053 4060:0.145028 4084:0.138122 4134:0.153315 4221:0.0490331 4246:0.197514 4282:0.0254758 4303:0.192265 4305:0.16336 4421:0.0580923 4424:0.35221 4506:0.116022 4523:0.121547 4525:0.236188 4547:0.0596685 4556:0.20442 4626:0.117403 4654:0.0285451 4672:0.0705955 4821:0.143646 
0 20.47266680130603 5.529202887831342 0 0 131.8230728301822 143.8193446094467 117.9675999282963 108.3202311373924 31:0.236542 164:0.116834 195:0.0331158 203:0.087602 246:0.077174 317:0.0587276 322:0.072186 513:0.0628059 626:0.122349 644:0.0490484 661:0.0658873 698:0.206218 737:0.0554649 831:0.236542 861:0.0521117 1030:0.356716 1086:0.170636 1251:0.107305 1313:0.185971 1332:0.0624104 1358:0.495922 1384:0.373029 1389:0.231648 1425:0.167581 1452:0.146819 1458:0.205546 1545:0.143148 1580:0.113105 1625:0.242161 1629:0.168026 1631:0.0393436 1699:0.0380642 1756:0.115824 1829:0.0722442 1863:0.0988581 1878:0.702121 1890:0.309951 1966:0.17292 1995:0.0647091 2046:0.219005 2050:0.159869 2090:0.174551 2119:0.136215 2161:0.128467 2162:0.0494834 2268:0.045677 2276:0.0717781 2659:0.12398 2781:0.0886351 2957:0.336705 3134:0.17727 3181:0.293638 3187:0.228385 3311:0.115824 3536:0.031199 3537:0.031199 3554:0.152529 3721:0.414356 3862:0.22186 3890:0.0776509 3899:0.171289 4065:0.23491 4221:0.0579119 4263:0.22186 4282:0.0300888 4306:0.0566884 4452:0.0558274 4454:0.0522023 4535:0.378467 4557:0.265253 4654:0.033714 4672:0.0521117 4685:0.316476 4710:0.347471 
42.59316565596293 0 0 0 0 0 0 0 50.98908139976484 18:0.131219 31:0.270522 54:0.36194 224:0.0662313 322:0.082556 673:0.461754 706:0.106046 737:0.126866 749:0.0858209 803:0.104478 861:0.0417185 934:0.117537 1017:0.145522 1030:0.10199 1065:0.157463 1299:0.0503731 1332:0.0713761 1349:0.58209 1465:0.130597 1545:0.163713 1601:0.164179 1659:0.0998134 1697:0.251866 1720:0.0839552 1762:0.31903 1842:0.272388 1880:0.158582 1988:0.0182125 1995:0.14801 2046:0.250466 2077:0.0471082 2101:0.616418 2161:0.293843 2162:0.028296 2268:0.208955 2276:0.164179 2335:0.157183 2400:0.151119 2545:0.104744 2552:0.170842 2571:0.100124 2590:0.20709 2626:0.461754 2712:0.358209 2723:0.106343 2745:0.149254 2755:0.312189 2957:0.192537 3109:0.0774254 3238:0.399254 3311:0.132463 3343:0.0850746 3391:0.0651289 3393:0.324627 3536:0.285448 3537:0.285448 3556:0.11194 3558:0.138526 3615:0.285821 3720:0.723881 3721:0.473881 4018:0.0774254 4060:0.195896 4123:0.231343 4126:0.41791 4188:0.143657 4230:0.164179 4256:0.214552 4282:0.103234 4305:0.110329 4454:0.0597015 4654:0.0385572 4672:0.0417185 4685:0.36194 4689:1 4740:0.076959 
93.7617531238141 168.0175803397597 94.08553440036077 167.7871081316417 152.9932400023719 131.8230728301822 143.8193446094467 214.6307757190805 168.4336021421942 147:0.130841 181:0.269159 282:0.134579 317:0.0672897 351:0.0862928 352:0.134579 399:0.293725 445:0.144112 467:0.170093 626:0.140187 634:0.150156 635:0.134579 644:0.112399 673:0.154206 702:0.553271 703:0.133956 759:0.176502 861:0.0537383 890:0.333956 1009:0.0775701 1028:0.15514 1030:0.408723 1301:0.116511 1313:0.071028 1386:0.0775701 1456:0.0719626 1511:0.082243 1524:0.123364 1601:0.164486 1605:0.139252 1675:0.0953271 1707:0.266355 1755:0.266355 1818:0.047352 1848:0.109034 1875:0.23676 1921:0.0751817 1962:0.0719626 2046:0.0836449 2059:0.465421 2077:0.0943925 2090:0.4 2162:0.0850467 2211:0.145794 2212:0.115888 2511:0.119159 2639:0.308411 2647:0.626168 2748:0.154393 2772:0.263551 2792:0.609346 2863:0.227103 2934:0.42243 2949:0.121658 2957:0.0642991 3147:0.0849618 3165:0.143925 3311:0.13271 3313:0.0549065 3423:0.418692 3491:0.0654206 3498:0.24486 3536:0.0357477 3537:0.0357477 3554:0.174766 3708:0.201869 3897:0.17757 3943:0.0616822 4113:0.178505 4134:0.207477 4165:0.24486 4241:0.088785 4282:0.137902 4303:0.19514 4305:0.221071 4348:0.0667056 4372:0.123364 4392:0.127103 4400:0.274533 4414:0.276636 4525:0.159813 4535:0.216822 4582:0.246729 4640:0.142056 4672:0.0537383 4725:0.456075 4740:0.0771028 4756:0.12486 4759:0.211215 
93.7617531238141 168.0175803397597 94.08553440036077 167.7871081316417 152.9932400023719 131.8230728301822 143.8193446094467 214.6307757190805 168.4336021421942 49:0.111588 72:0.0204919 110:0.0722461 158:0.0997854 181:0.206009 265:0.0686695 296:0.300429 317:0.103004 331:0.290415 353:0.0414878 360:0.181818 477:0.242251 533:0.135908 598:0.0677158 655:0.113495 689:0.130186 737:0.243205 803:0.160229 861:0.0228501 1007:0.0944206 1009:0.178112 1080:0.056867 1097:0.138054 1115:0.231044 1313:0.16309 1386:0.118741 1441:0.321888 1605:0.106581 1752:0.137339 1770:0.0755365 1771:0.597997 1794:0.0543634 1879:0.118741 1950:0.0460658 1955:0.0997854 2046:0.57618 2101:0.354506 2162:0.0216977 2335:0.120529 2355:0.0915594 2376:0.108727 2385:0.0972818 2695:0.0829757 2794:0.0336195 2796:0.103004 2863:0.11588 2919:0.11588 2928:0.254649 2957:0.147639 2973:0.127325 3070:0.0481207 3087:0.189851 3105:0.358369 3147:0.065028 3183:0.145923 3231:0.0883405 3382:0.200286 3416:0.0593705 3465:0.100143 3536:0.054721 3537:0.054721 3605:0.237482 3681:0.0519109 3812:0.0931446 3873:0.168097 3890:0.0680973 3943:0.141631 3971:0.112065 4011:0.137188 4086:0.074392 4165:0.187411 4169:0.204101 4221:0.253934 4225:0.41011 4303:0.199142 4305:0.0846014 4306:0.0497139 4348:0.10211 4350:0.213519 4535:0.165951 4654:0.029566 4664:0.201717 4672:0.0228501 4693:0.0171674 4715:0.0840486 
36.72024208418614 94.9229645755477 0 111.2773587960853 89.31169268946186 0 143.8193446094467 214.6307757190805 120.7726478691786 411:0.258929 470:0.252232 513:0.34375 533:0.424107 626:0.334821 644:0.134226 655:0.354167 686:0.285714 861:0.0713046 1030:0.244048 1313:0.508929 1410:0.303571 1425:0.229302 1511:0.196429 1625:0.662698 1705:0.354911 2059:0.370536 2077:0.112723 2580:1 2928:0.595982 2957:0.153571 3423:1 3491:0.3125 3498:0.19494 3554:0.417411 3849:0.209184 3950:0.636905 3982:0.633929 4121:0.428571 4293:0.314732 4306:0.155134 4371:0.243304 4392:0.0758929 4627:0.307143 4672:0.0713046 4756:0.596429 4767:0.699405 
93.7617531238141 89.14209322302786 0 115.8636194688922 49.73526873445487 131.8230728301822 107.8369141669951 214.6307757190805 168.4336021421942 95:0.251928 147:0.179949 181:0.37018 227:0.225578 353:0.0745501 365:0.174924 411:0.1491 686:0.164524 754:0.201799 861:0.0574836 890:0.229649 985:0.131962 1090:0.547558 1232:0.1009 1269:0.292751 1310:0.0608398 1322:0.371465 1326:0.157669 1332:0.0983485 1386:0.213368 1425:0.13204 1539:0.0681405 1631:0.0619991 1650:0.126607 1675:0.131105 1770:0.0678663 1794:0.0976864 2020:0.0995806 2090:0.275064 2135:0.169666 2162:0.0389889 2174:0.182519 2193:0.113111 2212:0.159383 2385:0.0874036 2402:0.127678 2508:0.130249 2552:0.235402 2628:0.503856 2640:0.164524 2748:0.212339 2863:0.104113 2916:0.0749786 2949:0.167319 2957:0.353728 3153:0.0330873 3188:0.182519 3228:0.225364 3230:0.132391 3276:0.18509 3311:0.365039 3386:0.0734076 3536:0.0491645 3537:0.0491645 3543:0.13419 3554:0.48072 3563:0.434583 3593:0.197943 3719:0.200514 3728:0.0851185 3849:0.240911 3873:0.151028 3934:0.55527 4065:0.123393 4132:0.197943 4172:0.17395 4221:0.0912596 4241:0.122108 4246:0.183805 4282:0.237075 4303:0.0894602 4306:0.178663 4381:0.169666 4392:0.131105 4435:0.231362 4627:0.0884319 4672:0.0574836 
93.7617531238141 108.0370499249556 94.08553440036077 66.12875519330494 152.9932400023719 131.8230728301822 143.8193446094467 214.6307757190805 168.4336021421942 130:0.6875 195:0.195192 397:1 447:0.701923 740:0.608974 836:0.348901 861:0.122863 1332:0.367861 1349:1 1511:0.423077 1558:0.397164 1678:1 2180:0.365385 2375:0.201923 3049:1 3536:0.183894 3537:0.183894 3679:0.319712 4075:0.473558 4161:0.399038 4306:0.334135 4538:0.621795 4642:0.360577 4672:0.122863 4748:0.421329 4786:0.360577 4821:1 
93.7617531238141 37.80198499772693 94.08553440036077 116.9808019447888 152.9932400023719 131.8230728301822 35.98243044245162 0 102.5361632177271 365:0.356259 379:0.843306 388:0.21466 447:0.382199 513:0.201571 757:0.217277 861:0.0836242 947:0.795812 1009:0.217277 1301:0.652705 1452:0.235602 1511:0.460733 1524:0.34555 1601:0.460733 1633:0.479058 1638:0.471204 1650:0.257853 1683:0.23822 1829:0.695587 1971:0.371728 2320:0.421466 2329:1 2607:0.119372 2928:0.232984 3162:0.34555 3313:0.461387 3433:0.376963 3536:0.100131 3537:0.100131 3719:0.408377 3794:1 3873:0.307592 4065:0.502618 4261:1 4371:0.28534 4584:0.35288 4649:0.363874 4672:0.0836242 4822:1 
0 0 0 0 0 17.8419857047365 0 92.71651549444972 0 158:0.136765 333:0.11634 339:0.144118 415:0.233333 472:0.158824 539:0.164706 634:0.157516 644:0.176863 757:0.0813725 764:0.24902 793:0.144009 825:0.198039 861:0.100218 866:0.205882 890:0.175163 924:0.12451 985:0.301961 1009:0.0813725 1017:0.305882 1091:0.135294 1099:0.123775 1232:0.230882 1301:0.122222 1354:0.266667 1465:0.137255 1516:0.0575163 1631:0.0472895 1633:0.179412 1737:0.181569 1761:0.560784 1770:0.0517647 2046:0.0877451 2074:0.103922 2077:0.643627 2101:0.161961 2135:0.129412 2161:0.154412 2248:0.501961 2276:0.0862745 2402:0.0973856 2516:0.201961 2834:0.413725 2844:0.376471 2863:0.158824 2957:0.202353 3087:0.0867359 3147:0.0891266 3228:0.515686 3392:0.194118 3433:0.141176 3435:0.0862745 3536:0.0375 3537:0.0375 3899:0.205882 3934:0.141176 3943:0.0647059 3950:0.279739 3957:0.413725 3974:0.416993 4065:0.188235 4131:0.00777658 4161:0.0813725 4282:0.108497 4293:0.138235 4306:0.136275 4368:0.339346 4501:0.396078 4509:0.17451 4544:0.0803922 4556:0.290196 4561:0.11777 4618:0.317647 4672:0.100218 4728:1 4750:0.182353 
23.63381251573765 152.4584790369188 55.16308814068255 167.7871081316417 37.75463968993318 0 143.8193446094467 214.6307757190805 168.4336021421942 42:0.11522 164:0.203753 200:0.28165 201:0.172831 351:0.0656709 360:0.361567 459:0.206259 472:0.230441 513:0.0547653 579:0.185491 634:0.304726 673:0.117354 749:0.130868 754:0.111664 757:0.177098 765:0.459459 803:0.159317 861:0.0318081 947:0.216216 990:0.261735 991:0.059744 1009:0.118065 1065:0.120057 1180:0.108108 1221:0.173068 1301:0.0886676 1313:0.216216 1449:0.0753912 1456:0.0547653 1511:0.125178 1545:0.124822 1663:0.233286 1697:0.192034 1755:0.202703 1756:0.100996 1770:0.0375533 1848:0.0829777 1880:0.12091 1962:0.0547653 1969:0.286202 1988:0.0138861 1995:0.11285 2059:0.118065 2101:0.234993 2130:0.0912572 2161:0.33606 2207:0.16311 2246:0.0475107 2268:0.0199147 2272:0.0938834 2276:0.187767 2283:0.201991 2320:0.229018 2402:0.211949 2454:0.483642 2639:0.234708 2772:0.200569 2863:0.172831 2886:0.120436 2896:0.108108 2919:0.230441 2928:0.316501 2934:0.321479 2973:0.1266 3080:0.324324 3105:0.118777 3181:0.128023 3311:0.100996 3313:0.208926 3330:0.27027 3372:0.244666 3393:0.123755 3460:0.234708 3461:0.05633 3479:0.665718 3498:0.124229 3532:0.119488 3536:0.0272048 3537:0.0272048 3661:0.059744 3681:0.0516155 3690:0.0849218 3721:0.361309 3943:0.0938834 3956:0.119488 4052:0.0938834 4132:0.109531 4161:0.0590327 4188:0.109531 4230:0.0625889 4368:0.246183 4486:0.0789474 4493:0.134068 4547:0.0614509 4552:0.142564 4561:0.0854374 4627:0.195733 4645:0.699858 4649:0.098862 4654:0.0881935 4657:0.0469417 4672:0.0318081 4685:0.27596 
93.7617531238141 168.0175803397597 94.08553440036077 167.7871081316417 152.9932400023719 131.8230728301822 143.8193446094467 214.6307757190805 168.4336021421942 21:0.0948795 34:0.116466 42:0.0542169 54:0.129853 72:0.0287627 130:0.0957162 204:0.0555556 274:0.084672 311:0.0749665 317:0.0240964 322:0.0296185 445:0.0516064 493:0.0610442 533:0.0635877 558:0.165831 623:0.0997323 626:0.100402 631:0.0722892 634:0.0179235 671:0.0268977 686:0.042838 726:0.189759 737:0.0227577 754:0.0525435 772:0.109103 781:0.716867 793:0.0491596 802:0.0284471 803:0.149933 825:0.135207 831:0.0970549 861:0.00641455 866:0.0702811 890:0.0597947 934:0.0421687 950:0.0264391 1006:0.0970549 1009:0.0555556 1015:0.0706158 1028:0.0555556 1030:0.0731816 1040:0.0455154 1089:0.129792 1099:0.0422523 1127:0.0236948 1143:0.0383199 1180:0.0508701 1313:0.15261 1314:0.0339134 1320:0.0426149 1332:0.0256075 1381:0.0502008 1386:0.0555556 1426:0.0298974 1465:0.0937082 1482:0.161758 1488:0.220337 1545:0.11747 1560:0.0883534 1562:0.0381011 1601:0.0589023 1605:0.0498661 1659:0.0358099 1675:0.0341365 1696:0.0461847 1737:0.0619813 1770:0.0706827 1798:0.0291165 1842:0.0977242 1844:0.0338019 1848:0.0390451 1851:0.0320329 1880:0.0568942 1944:0.0437751 1959:0.100736 1988:0.00653407 2046:0.0599063 2077:0.0507028 2119:0.0558902 2130:0.042941 2161:0.0527108 2268:0.11245 2272:0.0441767 2276:0.0294511 2329:0.0639224 2355:0.042838 2375:0.0983936 2376:0.0254351 2377:0.226908 2410:0.0990629 2465:0.0491968 2508:0.10174 2557:0.0568942 2576:0.0207943 2612:0.0957162 2666:0.0562249 2685:0.042838 2794:0.456158 2816:0.0455154 2831:0.0575636 2835:0.0548862 2839:0.0251004 2843:0.0414993 2848:0.084672 2863:0.0271084 2883:0.115663 2933:0.0568942 2934:0.151272 2957:0.0921017 2974:0.0930388 3025:0.0187416 3080:0.0381526 3087:0.0296086 3101:0.083668 3136:0.170683 3143:0.019913 3245:0.100067 3311:0.0475234 3344:0.0615797 3382:0.0937082 3386:0.0573405 3401:0.0346386 3411:0.0297858 3413:0.0314592 3491:0.0702811 3498:0.116912 3536:0.0384036 3537:0.0384036 3554:0.125167 3572:0.0884125 3593:0.0515395 3640:0.038822 3719:0.0522088 3862:0.0455154 3873:0.039324 3890:0.0318608 3897:0.127175 3899:0.0702811 3943:0.0441767 3955:0.170683 3957:0.141232 3986:0.0542169 4011:0.0320933 4075:0.164826 4131:0.220337 4157:0.0465194 4187:0.103916 4192:0.0361446 4200:0.157965 4211:0.231147 4221:0.0950469 4225:0.0767515 4303:0.0232932 4306:0.0930388 4348:0.0238872 4385:0.440428 4452:0.0229064 4489:0.176707 4525:0.0572289 4535:0.155288 4640:0.0508701 4641:0.025212 4642:0.0753012 4662:0.0562249 4672:0.00641455 4746:0.0480015 4748:0.0293294 4756:0.0447122 4786:0.0753012 4798:0.0883534 4821:0.0174029 
93.7617531238141 117.9817303124606 66.84083624302211 167.7871081316417 152.9932400023719 131.8230728301822 143.8193446094467 98.10263850526104 168.4336021421942 72:0.0392433 317:0.0986301 349:0.193607 352:0.19726 399:0.0861057 459:0.39726 631:0.0986301 634:0.146728 644:0.74137 673:0.90411 861:0.0437595 934:0.345205 1009:0.113699 1389:0.389041 1420:0.183105 1439:0.668493 1449:0.145205 1452:0.123288 1456:0.105479 1562:0.0779768 1696:0.189041 1729:0.871233 1752:0.263014 1756:0.194521 1770:0.0723288 1848:0.159817 1880:0.232877 1962:0.105479 1971:0.0972603 2065:0.175616 2091:0.0571689 2161:0.215753 2166:0.211872 2207:0.157078 2210:1 2268:0.0383562 2273:0.591781 2320:0.220548 2335:0.230822 2375:0.115068 2452:0.208219 2639:0.226027 2792:0.446575 2863:0.110959 2928:0.121918 2949:0.17832 2957:0.0942466 2998:0.208219 3014:0.452055 3187:0.191781 3228:0.240183 3311:0.194521 3413:0.128767 3416:0.113699 3435:0.120548 3491:0.0958904 3561:0.226027 3740:0.0461931 3849:0.192564 3963:0.230137 4065:0.263014 4081:0.0812785 4121:0.263014 4149:0.0849315 4176:0.264278 4221:0.194521 4230:0.241096 4282:0.101065 4303:0.0953425 4473:0.059726 4642:0.205479 4649:0.190411 4672:0.0437595 4677:0.126623 4714:0.813699 4786:0.205479 4821:0.0712329 
31.09537949928366 41.07350211900492 94.08553440036077 80.56431086104047 152.9932400023719 58.10617907369833 143.8193446094467 214.6307757190805 168.4336021421942 19:0.331104 71:0.270903 72:0.0239529 131:0.449833 164:0.239529 203:0.628595 215:0.64214 227:0.440217 259:0.0645485 289:0.0502717 322:0.147993 353:0.048495 379:0.05387 459:0.242475 483:0.0992196 485:0.242475 513:0.0643813 631:0.0602007 737:0.113712 757:0.138796 781:0.795987 861:0.0480769 890:0.149387 910:0.0769231 934:0.105351 964:0.297659 1009:0.069398 1030:0.0914158 1301:0.521182 1332:0.255904 1374:0.0882943 1439:0.408027 1456:0.128763 1464:0.242475 1493:0.147157 1545:0.146739 1560:0.441472 1601:0.147157 1675:0.0852843 1705:0.132943 1752:0.160535 1770:0.0882943 1880:0.14214 1962:0.128763 1965:0.190635 1988:0.0489728 2074:0.177258 2090:0.17893 2142:0.0540398 2160:0.11204 2246:0.111706 2268:0.0936455 2276:0.0735786 2329:0.159699 2346:0.107023 2355:0.214047 2376:0.0635452 2378:0.102007 2508:0.169454 2633:0.083612 2639:0.27592 2723:0.0953177 2863:0.0677258 2919:0.406355 2933:0.14214 2957:0.0575251 3069:0.172241 3147:0.0760109 3160:0.0330328 3399:0.794314 3435:0.147157 3461:0.132441 3640:0.09699 3661:0.140468 3781:0.139632 3854:0.113712 3897:0.317726 3901:0.145485 3943:0.165552 4065:0.0802676 4111:0.607023 4161:0.208194 4162:0.122283 4221:0.474916 4303:0.174582 4306:0.116221 4437:0.0322504 4548:0.14214 4552:0.167596 4627:0.0575251 4649:0.116221 4654:0.0345596 4672:0.0480769 4750:0.155518 4811:0.20903 
93.7617531238141 168.0175803397597 94.08553440036077 167.7871081316417 152.9932400023719 131.8230728301822 143.8193446094467 214.6307757190805 168.4336021421942 45:0.110266 72:0.0544632 353:0.220532 487:0.676806 513:0.146388 535:0.547529 861:0.145754 953:0.162072 963:0.612167 985:0.195184 1001:0.0912548 1009:0.157795 1143:0.10884 1332:0.72733 1354:0.258555 1410:0.258555 1414:0.14924 1458:0.479087 1511:0.1673 1580:0.263625 1631:0.0917021 1650:0.187262 1794:0.144487 1967:0.334601 2161:0.449144 2244:0.551331 2276:0.1673 2454:0.51711 2556:0.26109 2633:0.760456 2863:0.153992 2891:0.425856 2933:0.323194 3159:0.288973 3498:0.166033 3764:0.308745 4221:0.134981 4241:0.180608 4304:0.0984368 4491:0.191635 4627:0.261597 4654:0.0785805 4672:0.145754 4756:0.253992 4821:0.0988593 
93.7617531238141 168.0175803397597 94.08553440036077 167.7871081316417 152.9932400023719 131.8230728301822 143.8193446094467 214.6307757190805 168.4336021421942 31:0.105994 164:0.0523531 170:0.111111 203:0.157018 227:0.0641447 309:0.289474 317:0.157895 365:0.0497408 547:0.0303363 558:0.00593786 634:0.293616 680:0.118275 737:0.0248538 740:0.0462963 764:0.881944 781:0.0869883 803:0.0409357 822:0.0402047 829:0.0657895 861:0.0513726 891:0.0660331 904:0.0111111 924:0.835526 1023:0.0480629 1030:0.119883 1065:0.123392 1251:0.0961663 1301:0.0455653 1313:0.0555556 1314:0.0185185 1478:0.103801 1488:0.00579833 1580:0.0506823 1651:0.0533626 1696:0.0504386 1705:0.058114 1756:0.155702 1988:0.0071359 1995:0.0579922 2077:0.0369152 2083:0.0847953 2088:0.0808967 2101:0.0603801 2119:0.122076 2161:0.0863487 2166:0.11306 2207:0.0419103 2246:0.0244152 2250:0.0409357 2268:0.133041 2276:0.0964912 2280:0.0373173 2329:0.0698099 2402:0.0726121 2454:0.149123 2639:0.060307 2655:0.0555556 2733:0.0252193 2749:0.0740741 2761:0.166667 2834:0.15424 2843:0.27193 2879:0.0423977 2917:0.0453216 2919:0.0592105 2928:0.0325292 2945:0.115058 2957:0.0251462 2990:0.125 3080:0.0416667 3187:0.0511696 3245:0.0273209 3393:0.0317982 3413:0.10307 3465:0.0511696 3491:0.0255848 3536:0.0419408 3537:0.0419408 3558:0.217105 3631:0.420322 3645:0.122076 3676:0.0327729 3681:0.981412 3721:0.185673 3748:0.0986842 3977:0.0694444 4018:0.0606725 4060:0.0767544 4131:0.00579833 4135:0.157895 4152:0.219298 4241:0.0694444 4282:0.0134828 4293:0.0515351 4305:0.0432283 4306:0.0762061 4377:0.0950292 4562:0.0975877 4672:0.0513726 4706:0.088694 4799:0.03565 4821:0.0190058 
0 0 0 0 64.62961654274686 0 0 0 0 18:0.276903 34:0.34252 459:0.570866 477:1 634:0.105424 737:0.267717 754:0.309055 764:1 781:0.468504 803:0.220472 861:0.0628828 924:1 1065:0.498425 1313:0.299213 1410:0.535433 1493:0.346457 1650:0.193898 1770:0.103937 1782:0.265748 1794:0.299213 1971:0.139764 1988:0.0384327 1995:0.312336 2180:0.149606 2268:0.110236 2276:0.173228 2355:0.251969 2748:0.325197 2886:1 3108:0.330709 3276:0.283465 3393:0.17126 3435:0.173228 3536:0.0752953 3537:0.0752953 3681:1 3690:0.235039 3721:1 3807:0.52126 4221:0.139764 4303:0.137008 4649:0.273622 4672:0.0628828 
93.7617531238141 168.0175803397597 94.08553440036077 167.7871081316417 152.9932400023719 131.8230728301822 143.8193446094467 214.6307757190805 168.4336021421942 72:0.0281965 354:0.10883 411:0.114173 513:0.151575 533:0.0935039 631:0.0708661 634:0.105424 644:0.0591864 673:0.162402 694:0.120079 861:0.0628828 890:0.175853 950:0.0777559 962:0.146469 985:0.10105 1028:0.163386 1030:0.107612 1269:0.224173 1299:0.0531496 1301:0.122703 1313:0.299213 1386:0.163386 1465:0.137795 1478:0.279528 1524:0.129921 1675:0.100394 1699:0.0918635 1752:0.188976 1770:0.0519685 1829:0.0871766 1944:0.12874 1955:0.137303 1983:0.832677 2046:0.0880906 2075:0.163386 2161:0.310039 2212:0.122047 2375:0.124016 2452:0.149606 2478:0.144685 2510:0.169291 2519:0.850394 2619:0.133858 2639:0.162402 2663:0.244094 2669:0.0725066 2949:0.128124 3068:0.141732 3411:0.0875984 3423:0.440945 3435:0.259843 3535:0.104331 3536:0.0376476 3537:0.0376476 3577:0.085958 3659:0.105315 3815:0.629921 3897:0.374016 3901:0.34252 3943:0.0649606 4081:0.058399 4105:0.247047 4176:0.0949425 4192:0.106299 4221:0.0698819 4303:0.137008 4304:0.0509624 4306:0.136811 4437:0.075928 4572:0.305118 4641:0.074147 4672:0.0628828 4750:0.183071 
93.7617531238141 168.0175803397597 94.08553440036077 167.7871081316417 152.9932400023719 131.8230728301822 143.8193446094467 214.6307757190805 168.4336021421942 18:0.0374512 65:0.0147764 72:0.0305086 164:0.114407 203:0.0571885 217:0.0295527 256:0.0638978 265:0.0511182 316:0.0301739 317:0.0383387 339:0.0391374 347:0.107827 353:0.015442 360:0.0676735 365:0.0362329 388:0.0436635 445:0.0410543 459:0.15442 461:0.0121018 470:0.0300852 487:0.0473908 513:0.0205005 535:0.0383387 547:0.022098 637:1 644:0.0640398 661:0.0215063 673:0.0439297 689:0.0484558 694:0.0324814 713:0.0899894 737:0.0543131 745:0.0189411 749:0.0244941 754:0.0417998 757:0.0662939 818:0.0600639 825:0.0537806 830:0.0351438 861:0.158191 880:0.0392705 891:0.0481008 901:0.131789 921:0.0348775 987:0.0729499 990:0.0979766 1009:0.0662939 1028:0.044196 1069:0.0617678 1070:0.0447284 1091:0.0367412 1116:0.186368 1140:0.0761448 1143:0.0304846 1158:0.0662939 1180:0.0404686 1181:0.0500532 1276:0.0322684 1279:0.0593717 1294:0.056443 1299:0.014377 1301:0.099574 1313:0.0404686 1326:0.0653177 1332:0.0611143 1343:0.0351438 1351:0.0662939 1405:0.0404686 1409:0.20607 1438:0.04199 1448:0.0383387 1452:0.071885 1456:0.0205005 1471:0.0617678 1482:0.0257366 1489:0.019095 1511:0.0234292 1580:0.0369187 1602:0.228701 1605:0.0793397 1638:0.0479233 1651:0.116613 1683:0.0242279 1727:0.101171 1756:0.0378062 1761:0.0761448 1762:0.0910543 1770:0.0702875 1794:0.0202343 1848:0.0310614 1865:0.0947817 1913:0.123536 1922:0.0798722 1950:0.0171459 1955:0.0371406 1962:0.0205005 1964:0.0649627 1988:0.00519803 2020:0.0206266 2059:0.44196 2101:0.043983 2119:0.0444622 2128:0.038812 2130:0.102482 2162:0.0242279 2195:0.106496 2212:0.0330138 2246:0.0533546 2268:0.0372737 2272:0.0351438 2276:0.0937167 2329:0.050852 2355:0.0681576 2356:0.0184704 2376:0.0202343 2426:0.0505857 2454:0.0362087 2486:0.0332268 2519:0.0766773 2552:0.0975202 2639:0.0439297 2663:0.0660277 2666:0.0447284 2696:0.0539581 2709:0.0362087 2712:0.102236 2723:0.151757 2749:0.0539581 2772:0.0750799 2777:0.257188 2795:0.159744 2843:0.0330138 2863:0.086262 2933:0.0452609 2957:0.128222 2969:0.0538871 2973:0.0473908 3047:0.146965 3058:0.0727725 3087:0.0706634 3105:0.0444622 3117:0.0170394 3181:0.0958466 3214:0.00943253 3228:0.0466809 3233:0.042066 3246:0.0463259 3307:0.085197 3311:0.151225 3313:0.0156416 3330:0.303514 3367:0.0676251 3372:0.0457934 3400:0.155485 3411:0.0473908 3413:0.0250266 3423:0.119276 3427:0.071885 3460:0.175719 3461:0.0421725 3486:0.0447284 3498:0.0465034 3528:0.730564 3533:0.0247071 3536:0.0101837 3537:0.0101837 3554:0.049787 3590:0.0404686 3615:0.020394 3728:0.017631 3735:0.0617678 3748:0.071885 3858:0.043131 3890:0.0253461 3897:0.0505857 3909:0.105431 3915:0.0360566 3943:0.0351438 3956:0.0149095 3969:0.0192074 3977:0.0505857 3986:0.043131 4011:0.0255311 4060:0.0559105 4065:0.153355 4075:0.0262247 4081:0.0473908 4166:0.0320554 4221:0.113419 4223:0.0181044 4282:0.108035 4303:0.0926518 4304:0.0964975 4306:0.203541 4310:0.0383387 4371:0.0290202 4372:0.140575 4381:0.0351438 4426:0.0181044 4437:0.0102693 4479:0.0958466 4506:0.0447284 4538:0.0344338 4544:0.0436635 4547:0.0230032 4554:0.526358 4605:0.0436635 4611:0.0900378 4627:0.0183174 4654:0.0220092 4657:0.0351438 4672:0.158191 4702:0.0423323 4715:0.0312833 4737:0.138445 4750:0.148562 4756:0.0711395 4819:0.0455272 
42.42868372565121 50.03585002729906 49.18274761038759 0 152.9932400023719 0 60.8026878511007 36.11943180574033 9.08633424303269 31:1 72:0.0987849 164:0.493924 388:0.282759 447:0.503448 459:1 505:0.451724 634:0.184674 644:0.207356 673:0.568966 803:0.386207 831:1 861:0.132184 882:0.6 1051:1 1465:0.482759 1482:1 1511:0.303448 2211:0.537931 2276:0.606897 2639:0.568966 2714:0.6 2863:0.558621 3435:0.910345 3536:0.131897 3537:0.131897 3640:0.4 3661:0.289655 3740:0.116279 3890:0.328276 4176:0.332626 4282:0.127203 4293:0.486207 4303:0.24 4306:0.47931 4371:0.375862 4401:1 4672:0.132184 4693:0.0827586 
0 0 0 0 0 28.72835180167616 0 0 0 45:0.0653153 349:0.0795796 447:0.164414 479:0.315315 487:0.20045 567:0.26952 622:0.144144 631:0.0810811 634:0.180931 644:0.135435 673:0.185811 737:0.0765766 825:0.227477 861:0.0503629 1007:0.148649 1009:0.280405 1015:0.237613 1313:0.0855856 1316:0.198198 1439:0.274775 1448:0.162162 1452:0.101351 1456:0.173423 1511:0.0990991 1516:0.132132 1545:0.197635 1550:0.162162 1601:0.198198 1614:0.509009 1625:0.334334 1631:0.054319 1675:0.22973 1705:0.358108 1755:0.320946 1756:0.15991 1761:0.322072 1962:0.173423 2046:0.100788 2059:0.186937 2077:0.170608 2161:0.177365 2162:0.136637 2207:0.129129 2268:0.126126 2276:0.198198 2355:0.144144 2375:0.0945946 2376:0.171171 2389:0.261261 2444:0.205569 2478:0.165541 2696:0.228228 2863:0.0912162 2928:0.100225 3003:0.141892 3313:0.3308 3416:0.0934685 3433:0.324324 3448:0.365991 3460:0.371622 3536:0.0430743 3537:0.0430743 3556:0.135135 3661:0.0945946 3708:0.243243 3934:0.162162 3943:0.222973 4086:0.117117 4121:0.216216 4176:0.217256 4221:0.31982 4256:0.259009 4303:0.0783784 4306:0.313063 4385:0.105856 4454:0.0720721 4544:0.0923423 4547:0.194595 4627:0.0774775 4672:0.0503629 4685:0.436937 4748:0.296069 
93.7617531238141 168.0175803397597 94.08553440036077 167.7871081316417 152.9932400023719 131.8230728301822 143.8193446094467 214.6307757190805 168.4336021421942 203:0.264532 472:0.399015 513:0.189655 585:0.536946 686:0.315271 781:0.586207 848:0.559113 861:0.0944171 1036:1 1163:0.527094 1313:0.187192 1825:0.413793 1971:0.174877 2046:0.220443 2130:0.316029 2292:0.458128 2332:0.329433 2437:0.46798 2480:1 2486:0.307389 2781:0.802956 3010:0.628079 3411:0.219212 3498:0.430213 3566:1 3956:0.137931 4149:0.152709 4280:0.385468 4306:0.513547 4649:0.342365 4672:0.0944171 4730:0.519704 4747:0.275862 
93.7617531238141 120.1458921051756 38.31357266288288 167.7871081316417 152.9932400023719 131.8230728301822 143.8193446094467 214.6307757190805 168.4336021421942 72:0.0598071 319:0.182672 352:0.150313 353:0.121086 363:0.638831 379:0.470772 467:0.189979 485:0.302714 535:0.150313 539:0.175365 547:0.173278 623:0.311065 634:0.0559035 635:0.300626 644:0.439388 673:0.172234 759:0.197137 861:0.0733588 910:0.192067 1028:0.173278 1091:0.14405 1197:0.48643 1221:0.254001 1300:0.0924545 1354:0.141962 1487:0.334029 1562:0.0594187 1697:0.281837 1756:0.148225 1762:0.356994 1770:0.275574 1837:0.55428 1842:0.304802 1950:0.0672234 2059:0.173278 2077:0.052714 2161:0.246608 2207:0.119694 2212:0.258873 2273:0.450939 2329:0.199374 2360:0.122651 2452:0.158664 2511:0.13309 2748:0.344885 2759:0.688935 2765:0.161447 2772:0.294363 2793:0.192067 2794:0.0490605 2863:0.0845511 2928:0.0929019 2957:0.143633 3159:0.158664 3382:0.292276 3386:0.0596149 3413:0.0981211 3899:0.219207 3956:0.0584551 4060:0.438413 4081:0.0619346 4134:0.231733 4282:0.0770123 4303:0.290605 4306:0.362735 4316:0.0659889 4397:0.331942 4448:0.183716 4452:0.0714451 4506:0.175365 4556:0.308977 4672:0.0733588 4684:0.353514 4701:0.150313 4767:0.32707 4821:0.108559 4824:0.128392 
0 0 0 0 0 0 114.8278856236962 55.82270404328399 0 72:0.0345152 164:0.172576 204:0.4 205:0.444578 282:0.173494 353:0.0698795 365:0.491895 472:0.390361 479:0.337349 644:0.1449 655:0.191165 686:0.154217 746:0.886747 757:0.1 759:0.455077 781:0.286747 861:0.0538822 947:0.73253 950:0.0951807 953:0.410843 1009:0.3 1180:0.183133 1267:0.566265 1305:0.159036 1313:0.0915663 1314:0.0610442 1386:0.1 1456:0.185542 1465:0.168675 1502:0.0877797 1545:0.634337 1552:0.0638554 1562:0.274328 1601:0.636145 1730:0.148594 1741:0.36747 1756:0.171084 1844:0.121687 1878:0.259277 1880:0.204819 1962:0.185542 1964:0.293976 2059:0.2 2077:0.0608434 2101:0.398072 2119:0.201205 2160:0.161446 2268:0.0337349 2276:0.106024 2369:0.212048 2454:0.163855 2714:0.209639 2855:0.356627 2863:0.390361 2886:0.204016 2919:0.195181 2933:0.204819 2957:0.0828916 3147:0.109529 3183:0.245783 3303:0.116145 3317:1 3386:0.550469 3435:0.106024 3461:0.0954217 3498:0.105221 3590:0.183133 3640:0.139759 3681:0.174871 3897:0.228916 3943:0.159036 4121:0.231325 4176:0.232437 4211:0.208032 4221:0.0855422 4246:0.516867 4282:0.0444444 4303:0.0838554 4306:0.0837349 4371:0.131325 4392:0.0409639 4452:0.0824632 4454:0.0771084 4528:0.52241 4584:0.16241 4642:0.0903614 4672:0.0538822 4786:0.0903614 
93.7617531238141 131.8315460702976 30.61113190214165 167.7871081316417 152.9932400023719 131.8230728301822 3.967565321269745 0 111.8594855726715 164:0.450434 352:0.45283 447:0.459119 648:0.355346 861:0.100454 1332:0.481227 1410:0.427673 1705:1 1756:0.446541 2119:0.525157 2244:0.91195 2272:0.415094 2355:0.402516 2400:0.254717 2417:0.114848 2454:0.427673 2566:0.301887 2633:0.314465 2698:0.301887 3012:0.193172 3232:0.408805 3258:0.754717 3890:0.299371 3956:0.352201 4065:0.301887 4149:0.194969 4310:0.45283 4392:0.320755 4397:1 4538:0.406709 4627:0.216352 4654:0.129979 4672:0.100454 4702:1 
45.67912872095339 168.0175803397597 94.08553440036077 167.7871081316417 152.9932400023719 131.8230728301822 143.8193446094467 214.6307757190805 168.4336021421942 72:0.025716 130:0.128366 270:0.0831837 296:0.37702 313:0.175943 317:0.064632 351:0.0828845 365:0.122164 513:0.0691203 547:0.0745063 634:0.09615 644:0.215919 703:0.257331 711:0.158887 757:0.0745063 803:0.100539 861:0.0745562 882:0.156194 934:0.113106 1009:0.223519 1180:0.136445 1198:0.181329 1299:0.048474 1300:0.0795076 1313:0.204668 1349:0.186715 1354:0.122083 1386:0.0745063 1398:0.150808 1410:0.122083 1448:0.129264 1452:0.0807899 1482:0.0867744 1511:0.0789946 1545:0.15754 1562:0.0510979 1581:0.233393 1601:0.157989 1683:0.0816876 1730:0.110712 1752:0.172352 1755:0.255835 1756:0.127469 1770:0.14219 1925:0.192101 2059:0.149013 2077:0.0453321 2101:0.148294 2119:0.14991 2161:0.141382 2212:0.111311 2272:0.236984 2276:0.0789946 2292:0.166966 2335:0.151257 2375:0.0754039 2376:0.0682226 2478:0.263914 2567:0.315978 2639:0.29623 2748:0.148294 2753:0.217235 2772:0.253142 2863:0.145422 2928:0.239677 2957:0.123519 2989:0.337522 3007:0.128366 3136:0.152603 3298:0.111311 3311:0.127469 3415:0.158887 3435:0.0789946 3472:0.0947038 3486:0.150808 3491:0.0628366 3498:0.0783962 3554:0.167864 3577:0.0783962 3640:0.208259 3661:0.0754039 3681:0.26058 3740:0.0302701 3876:0.0734705 3890:0.0854578 3897:0.170557 3899:0.18851 3943:0.118492 3974:0.381807 4005:0.184919 4019:0.250449 4121:0.344704 4192:0.0969479 4221:0.127469 4241:0.0852783 4256:0.206463 4303:0.124955 4305:0.424678 4348:0.0640709 4370:0.386595 4397:0.285458 4506:0.150808 4516:0.0622382 4538:0.116098 4572:0.556553 4584:0.242011 4672:0.0745562 4748:0.157336 4803:0.144652 
93.7617531238141 0 0 0 0 0 0 0 0 72:0.129823 365:0.205575 388:0.495468 447:0.220544 459:0.438066 533:0.143505 539:0.253776 648:0.170695 673:0.249245 700:0.189325 775:0.52568 781:0.359517 783:0.154238 861:0.0675562 953:0.643882 1009:0.376133 1313:0.114804 1386:0.125378 1410:0.410876 1650:0.148792 1659:0.323263 1724:0.114804 1756:0.214502 1967:0.265861 2119:0.252266 2161:0.475831 2162:0.229104 2170:0.0966767 2212:0.187311 2268:0.0422961 2355:0.193353 2794:0.141994 2886:0.255791 2933:0.256798 3049:0.314199 3107:0.107251 3159:0.229607 3276:0.217523 3311:0.214502 3386:0.345082 3491:0.10574 3540:0.0466767 3554:0.282477 3600:0.132931 3640:0.175227 3890:0.143807 3897:0.287009 4163:0.182175 4176:0.145712 4282:0.111447 4306:0.104985 4316:0.0954945 4371:0.164653 4452:0.10339 4454:0.0966767 4556:0.44713 4672:0.0675562 4821:0.0785498 
93.7617531238141 168.0175803397597 37.33223655525156 167.7871081316417 152.9932400023719 131.8230728301822 143.8193446094467 214.6307757190805 168.4336021421942 224:0.497664 351:0.215732 447:0.341121 585:0.509346 641:0.497664 757:0.193925 822:0.257009 831:0.67757 861:0.0895639 890:0.417445 953:0.796729 991:0.196262 1163:1 1313:0.53271 1386:0.193925 1545:0.820093 1756:0.331776 1950:0.150467 2355:0.299065 2607:0.106542 2640:0.299065 2723:0.266355 2749:0.47352 2928:0.207944 3108:0.392523 3165:0.359813 3230:0.240654 3311:0.663551 3393:0.203271 3498:0.20405 3849:0.109479 4169:1 4221:0.331776 4257:0.128037 4306:0.162383 4358:0.182243 4627:0.321495 4635:0.197597 4672:0.0895639 4746:0.167557 
93.7617531238141 168.0175803397597 94.08553440036077 167.7871081316417 152.9932400023719 131.8230728301822 143.8193446094467 214.6307757190805 168.4336021421942 72:0.050259 445:0.270526 686:0.224561 737:0.119298 803:0.196491 861:0.0672515 991:0.147368 1028:0.291228 1155:0.160526 1313:0.133333 1374:0.185263 1482:0.169591 1545:0.615789 1577:1 1605:0.261404 1683:0.159649 1755:1 1798:0.152632 1829:0.155388 1851:0.16792 1883:0.105263 2119:0.292982 2124:0.154386 2142:0.113389 2272:0.463158 2276:0.154386 2566:0.168421 2633:0.350877 2843:0.217544 2870:0.475439 2928:0.15614 2973:0.312281 3064:0.128205 3227:0.194298 3413:0.164912 3461:0.277895 3536:0.0671053 3537:0.0671053 3592:0.596491 3849:0.0822055 3862:0.238596 3943:0.115789 4110:0.526316 4221:0.373684 4246:0.250877 4282:0.129435 4306:0.24386 4392:0.238596 4492:0.109474 4528:0.380351 4535:0.814035 4577:0.266667 4626:0.298246 4635:0.148371 4654:0.0725146 4672:0.0672515 
93.7617531238141 168.0175803397597 94.08553440036077 167.7871081316417 152.9932400023719 131.8230728301822 143.8193446094467 214.6307757190805 168.4336021421942 131:0.160693 317:0.129032 350:0.216846 353:0.103943 518:0.169562 634:0.0959777 694:0.218638 861:0.103047 890:0.320191 1030:0.195938 1251:0.235763 1271:0.308244 1580:0.248507 1678:0.37276 1705:0.569892 1756:0.25448 1875:0.908005 2104:1 2124:0.157706 2228:0.286738 2272:0.236559 2276:0.157706 2538:0.42055 2710:0.392473 2733:0.123656 2852:0.424731 3227:0.198477 3376:0.207885 3386:0.10235 3491:0.125448 3533:0.166308 3592:0.101553 3802:0.280765 3873:0.210573 4081:0.106332 4132:0.275986 4282:0.0661091 4305:0.423917 4392:0.182796 4509:0.318996 4649:0.249104 4672:0.103047 4680:0.704898 
0 52.00538419679106 0 167.7871081316417 0 131.8230728301822 143.8193446094467 74.37994206667121 168.4336021421942 49:0.259567 72:0.0953332 130:0.118968 142:0.220822 224:0.177205 309:0.219634 319:0.145591 457:0.114143 465:0.046173 467:0.151414 533:0.0790349 579:0.108486 598:0.0787576 641:0.236273 648:0.18802 757:0.0690516 775:0.144759 822:0.183028 848:0.188852 861:0.0584674 947:0.252912 950:0.0657238 953:0.0709235 1009:0.0690516 1017:0.129784 1091:0.229617 1192:0.206323 1313:0.126456 1314:0.042152 1386:0.138103 1448:0.359401 1562:0.047357 1605:0.24792 1650:0.0819468 1756:0.118136 1770:0.13178 1794:0.063228 1844:0.168053 1848:0.0970605 1967:0.146423 1971:0.0590682 2161:0.262063 2180:0.063228 2272:0.109817 2276:0.512479 2316:0.139767 2369:0.146423 2385:0.0565724 2389:0.193012 2402:0.08264 2410:0.246256 2454:0.22629 2478:0.122296 2633:0.166389 2640:0.106489 2650:0.21797 2748:0.137438 2843:0.103161 2863:0.134775 2933:0.424293 2973:0.148087 3087:0.0736028 3181:0.299501 3188:0.118136 3230:0.0856905 3311:0.118136 3313:0.0488769 3359:0.136439 3415:0.147255 3433:0.359401 3461:0.0658902 3491:0.0582363 3498:0.0726567 3524:0.078619 3536:0.031822 3537:0.031822 3738:0.0413596 3849:0.311861 3854:0.113145 3862:0.113145 3873:0.0977537 3896:0.145092 3919:0.0715474 3943:0.109817 4075:0.0819468 4162:0.121672 4176:0.0802509 4187:0.0861065 4192:0.0898502 4221:0.0590682 4241:0.0790349 4246:0.356905 4282:0.0613792 4303:0.115807 4304:0.0430764 4305:0.196793 4306:0.115641 4348:0.11876 4358:0.0648918 4368:0.143982 4371:0.0906822 4380:1 4392:0.311148 4397:0.264559 4528:0.180366 4547:0.0718802 4627:0.0572379 4654:0.0343871 4662:0.139767 4672:0.0584674 4741:0.18802 4821:0.0432612 
21.42843106834072 0 0 0 0 0 0 0 0 349:0.182131 379:0.332106 447:0.376289 485:0.747423 634:0.13803 644:0.309966 861:0.082331 1099:0.325387 1448:0.371134 1638:0.927835 1761:0.737113 1849:0.103843 1944:0.337113 2161:0.202964 2276:0.226804 2508:0.261168 2957:0.531959 3080:0.293814 3147:0.234302 3188:0.365979 3313:0.151418 3498:0.225086 3536:0.0985825 3537:0.0985825 3640:0.298969 3738:0.256259 3873:0.302835 4065:0.247423 4282:0.0950745 4291:0.462887 4306:0.179124 4371:0.561856 4538:1 4672:0.082331 4821:0.134021 
93.7617531238141 168.0175803397597 94.08553440036077 167.7871081316417 152.9932400023719 131.8230728301822 96.85300884392009 35.7923046253157 168.4336021421942 365:0.309298 447:0.331818 505:0.297727 513:0.175 579:0.296364 598:0.215152 700:0.569697 737:0.154545 822:0.25 848:0.515909 861:0.072601 1009:0.188636 1116:0.477273 1127:0.160909 1143:0.260227 1410:0.309091 1465:0.318182 1511:0.2 1580:0.315152 1756:0.968182 1900:0.122727 2171:1 2246:0.151818 2352:0.445455 2454:0.309091 2576:0.0706061 2666:0.190909 2709:0.309091 2761:0.345455 2863:0.184091 2928:0.202273 3160:0.359157 3181:0.409091 3435:0.2 3536:0.0869318 3537:0.0869318 3738:0.112987 3890:0.216364 4149:0.140909 4230:0.6 4371:0.247727 4381:0.3 4672:0.072601 4750:0.422727 
72.24332689963924 168.0175803397597 94.08553440036077 167.7871081316417 152.9932400023719 30.50125958834111 143.8193446094467 214.6307757190805 168.4336021421942 19:0.88 322:0.393333 433:0.142963 447:0.324444 535:0.32 564:0.757778 634:0.119012 644:0.267259 775:0.386667 793:0.32642 861:0.0709877 1313:0.506667 1439:0.542222 1448:0.32 2161:0.175 2162:0.0674074 2180:0.337778 2272:0.293333 2633:0.222222 2843:0.275556 2863:0.18 2928:0.197778 3313:0.261111 3435:0.195556 3460:0.733333 3461:0.352 3486:0.373333 3536:0.085 3537:0.085 3740:0.0749354 3794:0.848889 3849:0.104127 3956:0.124444 4065:0.426667 4176:0.214359 4188:0.342222 4221:0.631111 4241:0.211111 4303:0.154667 4305:0.262828 4371:0.242222 4392:0.0755556 4449:0.501111 4493:0.418889 4528:0.481778 4672:0.0709877 
70.12794060807646 168.0175803397597 94.08553440036077 167.7871081316417 0 87.60497993691308 143.8193446094467 49.52329894959705 168.4336021421942 19:0.254826 195:0.0261261 217:0.0714286 274:0.162806 351:0.0594166 352:0.0926641 365:0.0875746 379:0.456058 399:0.0808972 459:0.186615 485:0.186615 533:0.122265 571:0.275418 634:0.137852 635:0.0926641 644:0.425654 703:0.0922351 757:0.0534106 861:0.119226 871:0.0990991 950:0.101673 1009:0.160232 1099:0.081242 1117:0.138224 1223:0.0943801 1279:0.143501 1301:0.240669 1313:0.0978121 1332:0.0984751 1367:0.139732 1410:0.0875161 1448:0.277992 1456:0.0495495 1493:0.113256 1511:0.169884 1525:0.041184 1562:0.03663 1601:0.113256 1717:0.288288 1770:0.0339768 1827:0.120978 1944:0.0841699 1962:0.0495495 1964:0.157014 1967:0.113256 2075:0.106821 2077:0.0324968 2090:0.137709 2161:0.101351 2316:0.108108 2335:0.21686 2389:0.149292 2454:0.175032 2639:0.106178 2665:0.298584 2741:0.24274 2759:0.42471 2863:0.0521236 2928:0.171815 2949:0.251301 2957:0.0885457 3003:0.162162 3080:0.0733591 3136:0.21879 3258:0.15444 3276:0.185328 3313:0.0378057 3382:0.18018 3386:0.036751 3415:0.1139 3433:0.0926641 3435:0.0566281 3461:0.0509653 3491:0.045045 3498:0.112398 3536:0.0246139 3537:0.0246139 3566:0.261261 3600:0.113256 3620:0.223938 3645:0.214929 3661:0.108108 3849:0.0904578 3943:0.0849421 3974:0.273702 4065:0.123552 4121:0.123552 4129:0.160875 4165:0.168597 4230:0.0566281 4241:0.122265 4282:0.0712141 4293:0.0907336 4303:0.179151 4305:0.0761086 4306:0.0447233 4348:0.0459299 4368:0.111369 4371:0.0701416 4500:0.0978121 4501:0.129987 4572:0.199485 4627:0.177091 4672:0.119226 4750:0.119691 4821:0.301158 
93.7617531238141 168.0175803397597 94.08553440036077 167.7871081316417 152.9932400023719 131.8230728301822 113.279018092 214.6307757190805 92.00217568295466 459:0.27307 483:0.223478 533:0.178908 595:0.583804 634:0.050429 644:0.169868 767:0.120527 781:0.224105 803:0.105461 845:0.0409605 854:0.114878 861:0.0481272 934:0.118644 1009:0.468927 1091:0.129944 1099:0.237759 1223:0.138104 1313:0.214689 1322:0.544256 1410:0.256121 1511:0.0828625 1580:0.130571 1601:0.497175 1650:0.0927495 1683:0.0856874 1770:0.149153 1837:1 1996:0.0580335 2059:0.156309 2101:0.155556 2133:0.0733355 2161:0.370763 2180:0.0715631 2246:0.0629002 2272:0.124294 2276:0.165725 2283:0.26742 2355:0.120527 2375:0.039548 2406:0.0318399 2454:0.256121 2794:0.132768 2863:0.228814 2928:0.0838041 2957:0.0647834 3133:0.224105 3162:0.124294 3267:0.0809793 3273:0.0715631 3311:0.26742 3313:0.16596 3344:0.173258 3413:0.0885122 3498:0.0822348 3640:0.327684 3740:0.0317523 3890:0.0896422 3897:0.178908 3943:0.248588 4065:0.0903955 4121:0.180791 4221:0.26742 4303:0.131073 4306:0.196328 4422:0.168362 4486:0.10452 4513:0.122787 4528:0.204143 4626:0.320151 4627:0.19435 4654:0.0389203 4672:0.0481272 
93.7617531238141 0 64.93320213128082 103.9716917506899 68.49918026496283 131.8230728301822 15.80660391633228 214.6307757190805 168.4336021421942 72:0.0246962 79:0.184483 294:0.17931 513:0.0663793 567:0.206322 655:0.136782 671:0.0692848 673:0.426724 754:0.27069 781:0.205172 825:0.87069 861:0.049569 935:0.214655 1001:0.0827586 1091:0.118966 1116:0.422414 1209:0.478296 1313:0.131034 1320:0.10977 1332:0.0659613 1425:0.088558 1452:0.155172 1631:0.0415822 1770:0.0455172 1794:0.0655172 1943:0.112931 1964:0.210345 1988:0.0168309 1995:0.136782 2160:0.115517 2162:0.0261494 2246:0.0575862 2454:0.117241 2552:0.315764 2684:0.265517 2714:0.3 2843:0.106897 2863:0.139655 2919:0.139655 2933:0.293103 2957:0.355862 3311:0.244828 3498:0.150575 3536:0.0329741 3537:0.0329741 3706:0.146552 3721:0.437931 3807:0.228276 3968:0.0865517 4039:0.137069 4065:0.165517 4176:0.0831565 4230:0.0758621 4303:0.06 4305:0.101959 4306:0.0599138 4627:0.0593103 4654:0.0356322 4657:0.0284483 4672:0.049569 4691:0.1 4756:0.46069 
