svm_type nu_svc
kernel_type rbf
gamma 0.000206612
nr_class 10
total_sv 1888
rho -2.68081 -2.09236 -1.12091 -3.14735 -1.98908 -1.14923 -3.89193 -6.47168 -2.70524 1.06732 2.19794 0.38835 2.3083 1.28431 -1.09904 -2.35865 0.3355 0.613319 -1.283 0.0556314 0.408344 -2.3771 -4.56298 -1.03724 -2.95921 -2.12529 -0.150867 -3.14257 -4.8266 -2.19458 0.553861 0.918764 -1.83939 -3.0872 -0.00789337 0.438753 -2.38642 -4.48736 -0.784901 -2.13236 -3.67064 -1.29396 -1.72839 1.79872 3.50647
label 4 1 5 0 3 2 9 7 8 6
nr_sv 178 164 182 197 186 214 179 187 201 200
SV
101.4161209277619 118.2548410630586 108.1707275697094 123.0176789824918 124.3420223523934 102.1434131982359 104.9189088310784 142.3208747091005 124.0541077769872 20:0.222179 73:0.0224511 303:0.206897 306:0.0333856 342:0.996865 488:0.0751045 510:0.0489028 511:0.110972 524:0.148903 630:0.2938 635:0.0432602 641:0.188506 646:1 750:0.0532915 755:0.0992685 838:0.130094 1044:0.18652 1155:0.106583 1194:0.0363636 1247:0.112069 1307:0.191223 1416:0.0850873 1599:0.206897 1636:0.0991939 1692:0.0771944 1698:0.339812 1991:0.14616 2134:0.129467 2171:0.0610363 2196:0.0237722 2244:0.194357 2258:0.416144 2285:0.0523511 2575:0.107837 2593:0.0879982 2615:0.144201 2680:0.12931 2754:0.2372 2807:0.258934 2921:0.0634796 3156:0.080721 3177:1 3247:0.142491 3272:0.131661 3330:0.080721 3357:0.0544671 3558:0.186207 3613:0.0549149 3614:0.0207732 3615:0.0228579 3616:0.0297806 3619:0.0556426 3635:0.0299765 3636:0.0299765 3748:0.0658307 3768:0.0699451 3793:0.147335 3819:0.0264271 3842:0.0725481 4008:1 4027:0.209509 4128:0.225705 4235:0.16395 4277:0.174653 4301:0.178683 4332:0.0289098 4351:0.163636 4353:0.0544671 4412:0.406897 4421:0.0619122 4522:0.11233 4568:0.404911 4573:0.101358 4580:0.0838558 4691:0.0751045 4696:0.209248 4767:0.145768 4802:0.0219436 
101.4161209277619 118.2548410630586 108.1707275697094 123.0176789824918 124.3420223523934 102.1434131982359 104.9189088310784 142.3208747091005 124.0541077769872 98:0.0829757 177:0.305675 195:0.120172 309:0.125894 444:0.221745 488:0.0274201 524:0.0679542 578:0.232475 659:0.057781 826:0.160229 853:0.144492 1301:0.0941027 1307:0.34907 1503:0.0550787 1550:0.0629471 1562:0.128755 1724:0.065093 1764:0.0543634 1849:0.0362423 1955:0.120172 2163:0.0629471 2194:0.0958512 2286:0.300429 2342:0.57568 2348:0.482117 2417:0.125374 2419:0.0543634 2463:0.0543634 2827:0.162017 2921:0.11588 2962:0.130901 3023:0.246066 3053:0.243205 3157:0.0507868 3185:0.0764829 3213:0.30186 3235:0.0769671 3253:0.237482 3323:0.0629471 3357:0.0994278 3412:0.0420243 3496:0.127325 3511:0.0672389 3519:0.640916 3526:0.276824 3558:0.0566524 3635:0.0273605 3636:0.0273605 3654:0.422747 3762:0.0519109 3819:0.0241208 3831:0.0593705 3833:0.219361 3889:0.194564 4128:0.274678 4131:0.0550787 4188:0.346209 4212:0.0593705 4294:0.148784 4301:0.108727 4324:0.0755365 4332:0.158321 4351:0.0497854 4352:0.0846014 4353:0.0994278 4421:0.0565093 4444:0.100143 4485:0.0636624 4545:0.160944 4632:0.354793 4646:0.037196 4669:0.160944 4679:0.112303 4691:0.0274201 4698:0.153076 4767:0.133047 4802:0.0200286 4834:0.206009 
0 55.01339241869454 35.15821070931925 100.6628462206428 15.81212922174785 0 104.9189088310784 142.3208747091005 124.0541077769872 73:0.0812007 154:0.0816327 271:0.163265 290:0.233182 307:1 318:0.10034 385:0.120181 401:0.10771 488:0.0760582 503:0.130952 630:0.121441 641:0.0340892 680:0.0566893 750:0.0385488 762:0.204649 788:0.0406544 829:0.468254 838:0.282313 969:1 1114:0.118238 1284:0.255102 1475:0.0506425 1478:0.124717 1562:0.102041 1692:0.111678 1699:0.303288 1744:0.360544 1747:0.161565 1816:0.331633 1930:0.121315 1996:0.0402494 2104:0.183673 2153:0.085034 2154:0.0946712 2163:0.0498866 2195:0.223214 2285:0.0378685 2447:0.0918367 2463:0.0430839 2680:0.0935374 2704:0.291383 2754:0.17158 2799:0.128118 2909:0.768707 2921:0.321429 2977:0.0353741 2999:0.0963719 3005:0.0572562 3090:0.0816327 3157:0.241497 3253:0.188209 3261:1 3282:0.0706727 3300:0.321051 3323:0.29932 3357:0.118197 3412:0.033305 3519:0.253968 3527:0.100907 3558:0.0897959 3762:0.0822805 3779:1 3833:0.0434618 3846:0.0952381 3888:0.118594 3977:0.0193716 4013:0.037415 4021:0.0634921 4087:0.114286 4109:0.163265 4215:0.0829082 4301:0.344671 4324:0.209524 4332:0.167297 4351:0.157823 4353:0.118197 4399:0.080924 4485:0.0504535 4522:0.243764 4584:0.158163 4612:0.14966 4685:0.420887 4691:0.0760582 4712:0.117914 4826:0.0294785 
101.4161209277619 118.2548410630586 108.1707275697094 123.0176789824918 48.27620371203082 102.1434131982359 104.9189088310784 142.3208747091005 124.0541077769872 73:0.0324068 195:0.0475113 214:0.0200792 256:0.0458145 290:0.697964 292:0.356335 303:0.149321 306:0.0361425 307:0.221719 310:0.167924 312:0.020362 318:0.0250283 358:0.081448 401:0.053733 414:0.11086 488:0.126477 503:0.10888 524:0.0268665 630:0.121166 631:0.0559955 638:0.0401584 656:0.0736425 676:0.0466629 680:0.622172 720:0.355204 750:0.0192308 788:0.0405624 791:0.184389 821:0.444005 826:0.0633484 838:0.0469457 904:0.0237557 925:0.0424208 1073:0.031957 1090:0.143213 1096:0.0241092 1224:0.10325 1323:0.0486425 1369:0.0526018 1388:0.0656109 1421:0.0298643 1478:0.186652 1550:0.0746606 1616:0.0313914 1622:0.0780543 1698:0.0613122 1699:0.0302602 1723:0.0936086 1724:0.0257353 1744:0.134898 1768:0.0520362 1827:0.215902 1840:0.0865556 1861:0.1069 1862:0.0251697 1930:0.262255 1996:0.0200792 2023:0.210973 2075:0.101244 2104:0.091629 2154:0.094457 2195:0.267251 2196:0.0257353 2242:0.0704186 2243:0.0441176 2244:0.175339 2281:0.0820136 2353:0.0457973 2399:0.0361991 2419:0.0859729 2424:0.190045 2457:0.0837104 2569:0.164027 2575:0.019457 2602:0.0520362 2615:0.0520362 2647:0.0500566 2754:0.0855958 2763:0.00552144 2803:0.0234163 2833:0.0307315 2909:0.191742 2921:0.183258 2939:0.0123177 3017:0.0736278 3072:0.0143288 3127:0.0251697 3157:0.140554 3197:0.040724 3213:0.119344 3240:0.0230486 3247:0.0257096 3266:0.290724 3272:0.0475113 3323:0.124434 3325:0.0626414 3332:0.0735294 3354:0.0882353 3357:0.11793 3373:0.0890837 3412:0.0498445 3455:0.0252888 3508:0.0246041 3556:0.0933258 3558:0.0223982 3654:0.0278563 3697:0.0248869 3748:0.0475113 3762:0.0205236 3779:0.199548 3792:0.0154977 3888:0.236652 3944:0.166148 3959:0.162896 4000:0.0838989 4013:0.0186652 4021:0.0475113 4039:0.0658937 4071:0.0258767 4128:0.0542986 4182:0.0169683 4188:0.136878 4204:0.0984163 4215:0.0413603 4226:0.123303 4277:0.0315126 4301:0.214932 4324:0.0895928 4331:0.0441176 4332:0.104324 4351:0.078733 4352:0.0334482 4353:0.11793 4395:0.0746606 4424:0.0373303 4441:0.00961538 4481:0.0659502 4485:0.125848 4520:0.0123303 4522:0.0405354 4545:0.0212104 4566:0.295249 4612:0.0746606 4669:0.0212104 4674:0.200689 4685:0.371481 4691:0.126477 4698:0.0605204 4767:0.0526018 4783:1 4802:0.00791855 4826:0.0147059 4827:0.0961538 
101.4161209277619 118.2548410630586 108.1707275697094 123.0176789824918 124.3420223523934 102.1434131982359 104.9189088310784 142.3208747091005 124.0541077769872 17:0.151674 71:0.270589 195:0.077634 264:0.0324186 271:0.0221811 292:0.064695 306:0.0131238 311:0.0349148 312:0.0221811 314:0.0132471 401:0.0292668 405:0.0110906 475:0.0446704 480:0.00718833 491:0.51756 556:0.00250246 630:0.0247484 647:0.0150395 676:0.0254159 742:0.0527829 743:0.0295749 755:0.0390224 759:0.0770949 782:0.0391251 830:0.0437461 896:0.0766482 925:0.0231054 959:0.0643869 974:0.0184843 1037:0.105669 1040:0.0221811 1276:0.0909838 1277:0.00804229 1333:0.017098 1368:0.157116 1470:0.0617683 1473:0.142413 1475:0.0412816 1523:0.0220271 1530:0.00366549 1537:0.0231054 1550:0.0135551 1561:0.0135551 1593:0.0898028 1601:0.0438409 1622:0.0283426 1646:0.0203635 1728:0.0269091 1785:0.0325015 1898:0.0294208 1906:0.132594 1920:0.024825 1923:0.0178681 1944:0.0164818 1971:0.0318452 2021:0.00558861 2037:0.0783528 2060:0.0440542 2134:0.0254467 2166:0.147874 2195:0.0121303 2240:0.0811768 2258:0.0408965 2263:0.0933457 2278:0.100893 2306:0.0489834 2372:0.0181762 2403:0.0548367 2442:0.0328096 2455:0.00785582 2463:0.0234134 2497:0.108133 2498:0.0487523 2537:0.0107545 2615:0.0283426 2653:0.0742452 2673:0.170633 2815:0.202095 2864:0.0282105 2888:0.0252619 2901:0.0483672 2908:0.025878 2921:0.0374307 2965:0.105669 2998:0.03468 3023:0.201356 3032:0.0210721 3057:0.0348891 3078:0.0194085 3105:0.008626 3112:0.0150955 3137:0.0726433 3195:0.0377388 3235:0.0165742 3247:0.0140032 3272:0.103512 3296:0.0212569 3299:0.0118792 3323:0.0135551 3348:0.00816389 3357:0.0107055 3378:0.0132471 3390:0.0315993 3412:0.0090496 3434:0.118299 3449:0.0394331 3477:0.209258 3480:0.0264941 3516:0.0582255 3557:0.0711645 3635:0.0294593 3636:0.0294593 3693:0.0351201 3750:0.0455946 3759:0.00366549 3762:0.0111786 3774:0.041487 3793:0.159273 3831:0.0383549 3833:0.0472376 3876:0.0449784 3930:0.0187924 4002:0.0825632 4003:0.0443623 4040:0.0292668 4090:0.0274184 4120:0.0263401 4128:0.0295749 4182:0.0184843 4198:0.0121996 4206:0.0586876 4222:0.0185459 4301:0.0234134 4324:0.00813309 4332:0.0397755 4350:0.158041 4351:0.0107209 4352:0.0182182 4353:0.0107055 4399:0.0109943 4422:0.0205792 4470:0.0104744 4485:0.0274184 4587:0.0455946 4592:0.0370071 4709:0.0178681 4710:0.0443623 4791:0.0440542 4799:0.0231494 4802:0.008626 4826:0.0720887 
101.4161209277619 118.2548410630586 108.1707275697094 123.0176789824918 124.3420223523934 102.1434131982359 66.29314430754751 142.3208747091005 124.0541077769872 63:0.254867 102:0.253097 142:0.673831 416:0.267257 488:0.10177 491:0.743363 556:0.014377 676:0.146018 682:0.268319 742:0.60649 846:0.179115 880:0.188673 898:0.0250989 917:0.379646 1037:0.40472 1053:0.59115 1058:0.100885 1195:0.548673 1276:0.261357 1422:0.166372 1452:0.186726 1473:1 1506:0.188673 1511:0.260177 1530:0.0140391 1550:0.155752 1601:0.0503744 1644:0.560177 1785:0.186726 1815:0.4 1849:0.0448378 1859:0.300885 1920:0.0713113 2134:0.146195 2348:0.29823 2373:0.169027 2419:0.0672566 2498:0.560177 2641:0.13646 2673:0.840265 2815:0.387021 2827:0.100221 2837:0.451327 2864:0.162073 2898:0.280088 2901:0.069469 2965:0.30354 3211:0.373451 3253:0.146903 3357:0.123009 3378:0.0761062 3412:0.0519912 3453:0.146903 3477:0.0632743 3558:0.0700885 3669:0.379646 3748:0.0743363 3750:0.261947 3759:0.0140391 3831:0.146903 3833:0.0678466 4003:0.382301 4120:0.151327 4122:0.466372 4351:0.123186 4352:0.209332 4353:0.123009 4422:0.11823 4485:0.0787611 4691:0.10177 4710:0.297345 4718:0.119469 
101.4161209277619 118.2548410630586 108.1707275697094 123.0176789824918 124.3420223523934 102.1434131982359 104.9189088310784 142.3208747091005 124.0541077769872 73:0.0207591 306:0.0308696 307:0.142029 312:0.0521739 404:0.133333 414:0.142029 488:0.101852 646:0.616425 755:0.183575 777:0.0992754 807:0.0507246 1017:0.198551 1057:0.124457 1372:0.0673913 1503:0.0557971 1605:0.0698551 1693:0.105797 1722:0.104891 1840:0.0554458 1921:0.0693582 1996:0.0514493 2192:0.12029 2196:0.065942 2575:0.0498551 2628:0.368116 2641:0.111739 2715:0.17971 2719:0.124638 2751:0.14686 2763:0.0141477 2779:0.165217 2814:0.218323 2817:0.313043 2911:0.204348 2921:0.117391 2995:0.084058 3023:0.598261 3116:0.0982609 3157:0.102899 3213:0.305797 3322:0.17971 3323:0.0637681 3534:0.207971 3557:0.39058 3585:0.121739 3655:0.130435 4083:0.0299517 4131:0.0557971 4150:0.0536232 4301:0.0550725 4324:0.0765217 4332:0.0534622 4385:1 4414:0.157971 4421:0.0572464 4691:0.101852 4703:0.122705 4709:0.252174 4802:0.101449 
0 21.65238213750936 47.27938089739816 33.6639710074859 7.020466268890159 0 104.9189088310784 142.3208747091005 22.31437608010053 73:0.00854643 74:0.0180702 112:0.0568815 144:0.255967 174:0.0444511 197:1 206:0.114558 238:0.0622912 255:0.157518 306:0.0127088 312:0.0429594 401:0.0566826 488:0.0686158 630:0.0319544 633:0.394391 676:0.0492243 742:0.0511138 755:0.0377884 776:0.281708 816:0.0438213 826:0.100239 853:0.0602625 898:0.0253834 904:0.0250597 914:0.0542562 925:0.0447494 1044:0.426014 1058:0.0680191 1090:0.151074 1205:0.0320406 1210:0.426014 1247:0.213305 1301:0.0392469 1303:0.061605 1371:0.0379873 1452:0.566527 1483:0.213007 1503:0.0229714 1544:0.022315 1549:0.052506 1562:0.0536993 1609:0.075179 1616:0.0331146 1622:0.0548926 1698:0.129356 1764:0.0680191 1814:0.193616 1971:0.00411176 2104:0.144988 2107:0.1428 2127:0.0369928 2134:0.049284 2154:0.249105 2196:0.00904932 2204:0.0948687 2286:0.125298 2463:0.0680191 2537:0.0208288 2569:0.173031 2615:0.109785 2680:0.0984487 2683:0.1071 2715:0.0739857 2736:0.130072 2764:0.0653341 2807:0.049284 2820:0.132757 2901:0.0234189 2921:0.072494 2949:0.0754347 3005:0.0150656 3023:0.246301 3084:0.0292012 3157:0.275358 3162:0.220764 3226:0.045719 3234:0.0460173 3253:0.0495227 3289:0.0403739 3300:0.112636 3323:0.210024 3325:0.06608 3340:0.110316 3353:0.0939737 3357:0.0829356 3361:0.0278938 3409:0.0536993 3414:1 3479:0.0859189 3507:0.161098 3557:0.0459427 3558:0.0472554 3576:0.118337 3653:0.0557876 3691:0.0660302 3735:0.0876342 3748:0.075179 3762:0.0649506 3807:0.0645386 3876:0.0871122 3909:0.633254 4000:0.177009 4013:0.0196897 4021:0.0167064 4033:0.343675 4058:0.235084 4128:0.114558 4131:0.0229714 4155:0.102625 4188:0.144391 4204:0.207637 4272:1 4301:0.0906921 4324:0.0945107 4332:0.0990453 4350:0.102029 4351:0.124582 4352:0.105853 4353:0.0829356 4399:0.0425865 4412:0.258154 4421:0.023568 4422:0.398568 4484:0.631807 4485:0.0796539 4522:0.0855211 4573:0.0385839 4650:0.0152305 4679:0.0936754 4691:0.0686158 4703:0.101034 4712:0.0620525 4751:0.0843278 4767:0.0554893 4799:0.0224173 4802:0.0167064 
101.4161209277619 118.2548410630586 108.1707275697094 123.0176789824918 124.3420223523934 102.1434131982359 104.9189088310784 142.3208747091005 124.0541077769872 15:0.390428 23:0.0551008 36:0.109572 69:0.0734677 73:0.0180401 140:0.833753 154:0.0906801 256:0.40806 303:0.166247 306:0.0268262 312:0.0906801 314:0.108312 358:0.36272 378:1 437:0.375315 488:0.0643717 503:0.0969773 524:0.0598237 641:0.227204 654:0.099916 694:0.0957179 782:0.15995 898:0.03572 951:0.0717884 963:0.0348447 1017:0.172544 1087:0.110831 1224:0.114953 1363:0.0677582 1503:0.0484887 1644:0.398615 1677:0.0303749 1692:0.0620277 1721:0.319899 1768:0.115869 1782:0.584383 1791:0.127204 1892:0.213602 2021:0.0228471 2104:0.102015 2107:0.150714 2194:0.0843829 2242:0.052267 2243:0.196474 2281:0.18262 2388:0.112091 2399:0.161209 2428:0.117443 2446:0.147985 2559:0.0638119 2575:0.0866499 2807:0.20806 2818:0.117128 2848:0.581324 2884:0.153652 2901:0.1483 3023:0.129975 3156:0.129723 3157:0.268262 3213:0.265743 3253:0.104534 3300:0.118878 3323:0.0554156 3330:0.129723 3357:0.0437657 3388:0.588161 3403:0.0607053 3412:0.0369962 3435:0.304786 3511:0.059194 3529:0.0554156 3556:0.207809 3558:0.0997481 3653:0.117758 3654:0.0620277 3774:0.169605 3819:0.0212348 3833:0.0482788 3923:0.029507 3947:0.0515404 4003:0.0906801 4013:0.166247 4128:0.0604534 4131:0.0484887 4170:0.167926 4212:0.104534 4215:0.276291 4277:0.140338 4301:0.287154 4324:0.0664987 4351:0.306801 4353:0.0437657 4383:0.323678 4399:0.134839 4422:0.084131 4485:0.0560453 4511:0.321159 4516:0.110831 4522:0.0902603 4567:0.222166 4612:0.166247 4674:0.297916 4691:0.0643717 4767:0.117128 4826:0.0327456 4834:0.36272 
101.4161209277619 118.2548410630586 108.1707275697094 123.0176789824918 124.3420223523934 102.1434131982359 104.9189088310784 142.3208747091005 124.0541077769872 73:0.102313 82:0.125 162:0.119286 271:0.308571 306:0.0608571 312:0.154286 318:0.0632143 488:0.118651 503:0.055 680:1 826:0.08 925:0.107143 1044:0.34 1051:0.118571 1057:0.0817857 1090:0.180857 1503:0.055 1677:0.27563 1724:0.065 1768:0.131429 1840:0.109307 1931:0.0474286 2075:0.0639286 2154:0.119286 2163:0.0628571 2196:0.0433333 2210:0.108571 2242:0.177857 2399:0.0914286 2417:0.0625974 2419:0.217143 2569:0.414286 2615:0.131429 2763:0.0139456 2803:0.118286 2921:0.115714 2939:0.124444 2949:0.252857 3064:0.137143 3157:0.304286 3247:0.12987 3266:0.734286 3300:0.134841 3323:0.125714 3355:0.0685714 3357:0.248214 3409:0.0642857 3558:0.0565714 3644:0.362857 3682:0.144857 3876:0.417143 4021:0.04 4039:0.166429 4128:0.0685714 4131:0.055 4234:0.186429 4277:0.0397959 4301:0.217143 4332:0.0263492 4352:0.0844805 4353:0.248214 4395:0.188571 4485:0.190714 4573:0.092381 4612:0.188571 4691:0.118651 4703:0.120952 4783:0.174187 4802:0.04 
0 0 0 0 0 0 3.209588959071122 0 0 17:0.0854597 71:0.213447 73:0.0174044 144:0.521264 258:0.28149 312:0.0437424 416:0.183475 488:0.0853922 630:0.0650736 659:0.0490752 776:0.458948 840:0.17497 853:0.122722 860:0.0756813 880:0.0431754 896:0.151154 959:0.253949 1037:0.138923 1104:0.275213 1205:0.195747 1276:0.35885 1371:0.0773593 1408:0.36938 1436:0.0393682 1445:0.521264 1452:0.12819 1506:0.129526 1562:0.109356 1569:0.1774 1644:0.384569 1646:0.0803159 1721:0.308627 1778:0.107533 1785:0.12819 1840:0.0464855 2075:0.0543742 2107:0.290806 2134:0.301094 2154:0.101458 2195:0.0478433 2240:0.64034 2242:0.0504253 2244:0.0753341 2306:0.193196 2307:0.245443 2334:0.416768 2373:0.232078 2419:0.0923451 2463:0.0461725 2498:0.192284 2537:0.0424169 2615:0.111786 2680:0.100243 2815:0.398542 2827:0.344016 2849:0.0285541 2864:0.222531 2901:0.238457 2960:0.082017 2986:0.18469 3023:0.167193 3078:0.153098 3116:0.164763 3157:0.0862697 3296:0.0838396 3299:0.046853 3322:0.0753341 3323:0.0534629 3332:0.236938 3357:0.0844471 3414:0.290922 3427:0.0204352 3479:0.17497 3480:0.104496 3529:0.0534629 3556:0.200486 3577:0.286756 3585:0.102066 3635:0.0232382 3636:0.0232382 3653:0.113609 3750:0.71932 3762:0.0881791 3793:0.0571081 3833:0.326043 4003:0.612394 4021:0.0680437 4089:0.32017 4128:0.0583232 4135:0.0448296 4155:0.417983 4161:0.208991 4324:0.0641555 4351:0.169137 4352:0.215564 4353:0.0844471 4412:0.210288 4422:0.0811665 4485:0.216282 4542:0.368165 4567:0.428676 4652:0.195018 4691:0.0853922 4698:0.260024 4718:0.0410085 4826:0.221142 
101.4161209277619 118.2548410630586 108.1707275697094 123.0176789824918 124.3420223523934 102.1434131982359 104.9189088310784 142.3208747091005 124.0541077769872 163:0.15 306:0.133125 318:0.0921875 401:0.197917 488:0.0532407 641:0.125278 664:0.1225 750:0.0708333 826:0.116667 854:1 1044:0.495833 1155:0.283333 1224:0.190152 1333:0.115625 1357:0.1375 1452:0.219792 1550:0.0916667 1562:0.1875 1724:0.189583 1848:0.197917 1969:0.261111 2103:0.135417 2104:0.16875 2154:0.347917 2186:0.294444 2195:0.246094 2196:0.0315972 2285:0.139167 2399:0.133333 2417:0.0912879 2463:0.0791667 2680:0.171875 2818:0.19375 2921:0.16875 2960:0.140625 2963:0.158333 3023:0.0716667 3037:0.294712 3177:0.747656 3323:0.0916667 3357:0.0723958 3408:0.3125 3636:0.0398437 3654:0.102604 3748:0.0875 3762:0.15119 3819:0.0702519 3833:0.0798611 3846:0.175 3888:0.217917 3923:0.0488095 3934:0.35625 3997:0.15 4008:0.128629 4301:0.158333 4324:0.165 4351:0.145 4353:0.0723958 4383:0.535417 4414:0.113542 4421:0.0822917 4435:1 4485:0.185417 4500:0.229167 4566:0.271875 4691:0.0532407 4767:0.19375 
101.4161209277619 118.2548410630586 108.1707275697094 123.0176789824918 124.3420223523934 102.1434131982359 104.9189088310784 142.3208747091005 124.0541077769872 142:0.267857 488:0.0389566 673:0.328049 860:0.569686 917:0.653963 999:0.685976 1037:0.697154 1195:0.472561 1473:0.626386 1550:0.134146 1785:0.321646 2115:0.146951 2673:0.241235 2680:0.251524 2815:1 2921:0.123476 2965:0.522866 3023:0.314634 3272:0.512195 3357:0.317835 3833:0.11687 4122:0.803354 4128:0.439024 4353:0.317835 4691:0.0389566 
101.4161209277619 118.2548410630586 108.1707275697094 123.0176789824918 124.3420223523934 102.1434131982359 104.9189088310784 142.3208747091005 124.0541077769872 102:0.0941409 142:0.269914 416:0.0994075 488:0.0525748 556:1 880:0.0233926 898:0.0560139 917:0.141211 959:0.137591 967:0.0431205 1195:0.102041 1368:0.335747 1506:0.0701777 1530:1 1920:0.0265246 2196:0.139785 3282:0.0410358 3635:0.025181 3636:0.025181 3759:1 4122:0.173469 4542:0.0664911 4691:0.0525748 
101.4161209277619 118.2548410630586 108.1707275697094 123.0176789824918 124.3420223523934 102.1434131982359 104.9189088310784 142.3208747091005 124.0541077769872 15:0.282332 17:0.0427039 73:0.00869691 82:0.0531269 87:0.195102 187:0.0356709 200:0.216758 206:0.116576 270:0.0352155 295:0.115361 306:0.0775956 311:0.034406 312:0.0218579 361:0.281724 395:0.114494 455:0.131148 488:0.0465493 524:0.0288403 561:0.482316 562:0.393443 630:0.0162585 731:0.021511 750:0.0619308 767:0.0418116 771:0.0100182 794:0.85003 795:0.0126464 826:0.0340012 843:0.071949 872:0.0132058 972:0.0434123 978:0.0704311 981:0.0440194 1017:0.0831815 1044:0.144505 1073:0.0343048 1077:0.023477 1164:0.0704311 1205:0.0326047 1277:0.0317004 1296:0.036612 1357:0.0400729 1388:0.0704311 1390:0.0526209 1418:0.02712 1475:0.05424 1485:0.0494839 1505:0.0576806 1518:0.0387067 1550:0.0801457 1677:0.0439301 1724:0.055252 1795:0.0868245 1851:0.0994015 1906:0.0653309 2020:0.192674 2075:0.0543412 2077:0.0825744 2126:0.0758956 2131:0.102206 2141:0.0431087 2154:0.202793 2195:0.0239071 2196:0.027626 2210:0.092289 2237:0.144991 2285:0.0405586 2341:0.0910747 2399:0.194293 2442:0.0107772 2463:0.184578 2486:0.0989678 2537:0.0211956 2555:0.162568 2569:0.0880389 2575:0.0208865 2593:0.0681759 2615:0.0558591 2622:0.00943129 2736:0.132362 2744:0.178506 2763:0.0296354 2780:0.0425015 2783:0.0380085 2849:0.370978 2850:0.0910747 2864:0.0555989 2906:0.0768063 2908:0.0510018 2921:0.0737705 2960:0.0409836 2965:0.104129 2982:0.047207 2995:0.0352155 3023:0.0835458 3035:0.0233151 3111:0.0167847 3116:0.0823315 3157:0.064663 3186:0.0891857 3200:0.0246914 3235:0.0979964 3247:0.0275984 3253:0.100789 3269:0.187007 3274:0.191864 3297:0.0704311 3310:0.0740741 3323:0.0534305 3325:0.0336217 3357:0.105495 3412:0.0356709 3495:0.173649 3511:0.0570735 3516:0.114754 3529:0.0267152 3558:0.0480874 3635:0.011612 3636:0.011612 3653:0.0567699 3654:0.0299029 3655:0.0364299 3682:0.0205222 3686:0.017203 3774:0.327059 3819:0.0204742 3826:0.072374 3833:0.0232746 3851:0.518519 3889:0.0412872 3923:0.014225 3930:0.037037 3991:0.0468384 4013:0.0200364 4021:0.0340012 4040:0.115361 4089:0.159988 4133:0.0613236 4167:0.125683 4185:0.0971463 4198:0.0240437 4212:0.0251973 4277:0.0676555 4279:0.0696215 4301:0.161506 4320:0.101396 4324:0.0641166 4332:0.0223976 4351:0.063388 4352:0.0359055 4353:0.105495 4394:0.037037 4404:0.0291439 4422:0.0405586 4434:0.0185461 4452:0.0275501 4485:0.189132 4520:0.0132362 4545:0.0227687 4573:0.0785266 4581:0.279144 4636:0.0708359 4652:0.0974499 4666:0.0340012 4669:0.0227687 4688:0.0220603 4691:0.0465493 4709:0.0352155 4727:0.0120927 4758:0.0874317 4767:0.0564663 
83.15863175206506 79.58429653447287 54.27860320914269 77.82181076341111 124.3420223523934 79.47600971137423 52.89351498961152 75.07465551622604 90.32225908722329 79:0.142155 197:0.671474 262:0.304087 306:0.025601 343:1 488:0.0307158 633:0.794471 694:0.182692 750:0.0408654 853:0.121394 898:0.289753 914:0.109295 1090:0.0507212 1112:0.507212 1209:0.0858173 1230:0.222356 1371:0.535657 1452:0.126803 1544:0.0449519 1562:0.108173 1599:0.158654 1612:1 1677:0.0289876 1775:0.189719 1801:0.342611 1814:0.780048 1923:0.0697115 2020:0.0476763 2154:0.100361 2196:0.0182292 2537:0.125874 2683:0.647236 2751:0.121795 2763:0.0117331 2864:0.330185 3023:0.0413462 3024:0.429087 3084:1 3138:0.235337 3323:0.0528846 3340:1 3353:0.189303 3357:0.0417668 3508:0.0522837 3600:0.378606 3631:0.142155 3635:0.0229868 3636:0.0229868 3678:0.0973558 3909:0.956731 4022:0.507212 4033:0.230769 4061:1 4111:0.736779 4272:0.671474 4301:0.0456731 4324:0.317308 4332:0.155182 4351:0.0418269 4353:0.0417668 4412:0.104006 4422:0.0802885 4484:1 4545:0.0450721 4587:0.177885 4665:0.680288 4669:0.0450721 4691:0.0307158 4799:0.045158 
101.4161209277619 118.2548410630586 108.1707275697094 123.0176789824918 124.3420223523934 102.1434131982359 104.9189088310784 142.3208747091005 124.0541077769872 7:0.525896 73:0.057067 306:0.0848606 488:0.20363 503:0.153386 788:1 972:0.284861 1057:0.114044 1365:0.431607 2035:0.756972 2163:0.175299 2196:0.060425 2206:0.0942895 2224:0.350598 2293:0.346614 2428:0.371514 2763:0.0777841 2977:0.248606 2995:0.346614 3157:0.141434 3282:0.24834 3357:0.276892 3576:0.451527 3613:0.0465282 3614:0.0528021 3615:0.116202 3618:0.41023 3619:0.141434 3620:0.121229 3621:0.298805 3635:0.0761952 3636:0.0761952 3889:0.270916 4277:0.110985 4301:0.151394 4332:0.0734838 4353:0.276892 4520:0.0868526 4691:0.20363 
101.4161209277619 118.2548410630586 108.1707275697094 123.0176789824918 124.3420223523934 102.1434131982359 104.9189088310784 142.3208747091005 124.0541077769872 142:0.044848 686:0.0832843 1208:0.526034 1371:0.194997 1612:0.231658 1728:0.104037 2178:0.0994677 2251:0.0918836 3084:0.449689 3655:0.0918836 3759:0.00607359 3785:0.651608 3807:0.165646 4033:0.147014 4272:0.427769 4484:0.115829 4710:0.0183767 4778:0.287902 
101.4161209277619 118.2548410630586 108.1707275697094 123.0176789824918 124.3420223523934 102.1434131982359 104.9189088310784 142.3208747091005 124.0541077769872 73:0.00132236 79:0.0109188 92:0.00932422 197:0.18911 306:0.0019664 610:0.0060192 633:0.42716 682:0.0139956 694:0.05613 722:0.163782 741:0.00544682 743:0.00443131 750:0.00941654 776:0.270244 782:0.00586226 853:0.00932422 898:0.048439 914:0.00839488 1090:0.00389586 1141:0.0282958 1209:0.00659158 1247:0.00660081 1342:0.650542 1371:0.0293882 1452:0.029219 1473:0.00474184 1511:0.0135709 1544:0.00345273 1562:0.0747784 1609:0.0116322 1612:0.502753 1677:0.00222652 1728:0.541169 1775:0.0194296 1778:0.00817024 1792:0.650542 1801:1 1923:0.0588996 1971:0.195949 2020:0.00366199 2052:0.0188639 2154:0.0616691 2178:0.215868 2196:0.00140017 2286:0.038774 2348:0.0155558 2385:0.0024003 2463:0.0175406 2526:0.0853028 2537:0.00644555 2575:0.00317578 2615:0.0424668 2641:0.199298 2683:0.729136 2751:0.140325 2763:0.00090121 2864:0.00845379 2901:0.00724705 2949:0.00466871 3016:0.029219 3023:0.0889217 3084:0.0587366 3138:0.451902 3234:0.00712011 3235:0.0298006 3323:0.0406204 3340:0.00853438 3353:0.0436208 3357:0.00641617 3414:0.773634 3507:0.199409 3600:0.988737 3631:0.797074 3654:0.00454671 3691:0.00510832 3759:0.111674 3807:0.389448 3874:0.0156942 3960:0.00208641 4013:0.00304653 4033:0.0620384 4058:0.509232 4128:0.132939 4204:0.385524 4272:0.747846 4320:0.0154173 4332:0.052786 4351:0.0899557 4352:0.0382159 4353:0.00641617 4399:0.00658927 4412:0.335524 4484:0.418961 4507:0.0247415 4545:0.00692393 4585:0.0109188 4669:0.00692393 4710:0.00664697 
101.4161209277619 118.2548410630586 108.1707275697094 123.0176789824918 124.3420223523934 102.1434131982359 104.9189088310784 142.3208747091005 124.0541077769872 73:0.0434055 112:0.0361111 154:0.136364 162:0.158144 174:0.0846591 214:0.013447 219:0.0681818 238:0.0395455 271:0.0545455 290:0.077904 295:0.0359848 303:0.1 306:0.0242045 307:0.482576 312:0.0136364 318:0.234659 351:0.0481405 385:0.0401515 401:0.0719697 476:0.017803 488:0.133102 503:0.0583333 524:0.0179924 530:0.013447 626:0.0299242 630:0.0811448 631:0.225 638:0.0268939 641:0.0113889 680:0.0189394 720:0.237879 750:0.0257576 762:0.0683712 764:0.0811448 770:0.0135101 788:0.0135823 821:0.475758 826:0.0212121 829:0.156439 838:0.157197 969:0.371212 1051:0.0314394 1090:0.0319697 1114:0.0395022 1247:0.0270833 1284:0.255682 1388:0.0439394 1452:0.0799242 1469:0.227273 1475:0.0169192 1478:0.0416667 1550:0.0166667 1562:0.0340909 1601:0.0215618 1622:0.0348485 1692:0.0559659 1698:0.0410606 1699:0.121591 1724:0.0689394 1744:0.180682 1747:0.107955 1816:0.110795 1840:0.0144915 1848:0.0359848 1861:0.0178977 1897:0.093892 1930:0.229672 1973:0.0346787 1991:0.141288 1993:0.110417 1996:0.013447 2075:0.0169508 2082:0.0371212 2104:0.0920455 2134:0.0625758 2153:0.0284091 2154:0.0316288 2163:0.05 2195:0.149148 2196:0.0172348 2200:0.027862 2242:0.0157197 2244:0.0234848 2285:0.0126515 2388:0.0337121 2399:0.145455 2414:0.0257576 2419:0.0143939 2424:0.0636364 2447:0.0460227 2457:0.0560606 2463:0.0431818 2578:0.018354 2593:0.0212662 2615:0.0348485 2641:0.0292045 2652:0.120833 2680:0.03125 2704:0.292045 2718:0.0329545 2754:0.0573232 2763:0.0221861 2799:0.128409 2897:0.112879 2909:0.256818 2921:0.214773 2939:0.0164983 2949:0.0191558 2977:0.0118182 2999:0.0643939 3005:0.0286932 3023:0.0130303 3041:0.194697 3072:0.0191919 3088:0.0916667 3090:0.0272727 3116:0.0256818 3157:0.188258 3207:0.0625 3253:0.0628788 3261:0.371212 3266:0.389394 3282:0.0236111 3300:0.10726 3323:0.183333 3325:0.0209754 3355:0.0181818 3357:0.0526515 3381:0.0167929 3409:0.0170455 3412:0.0222538 3464:0.0647727 3508:0.0494318 3519:0.0848485 3527:0.0674242 3558:0.03 3581:0.403202 3654:0.167898 3697:0.0166667 3748:0.0795455 3762:0.0412338 3779:0.467727 3819:0.00638654 3833:0.0290404 3846:0.0318182 3878:0.107955 3880:0.0501515 3888:0.0396212 3923:0.133117 3930:0.0231061 3947:0.0155012 3955:0.0358902 3977:0.00647186 3981:0.100126 4013:0.0375 4021:0.0318182 4027:0.151894 4087:0.0381818 4090:0.0674242 4109:0.109091 4121:0.121212 4128:0.0909091 4162:0.00858793 4215:0.0553977 4277:0.0633117 4301:0.331061 4320:0.189773 4324:0.09 4332:0.0978114 4351:0.210909 4353:0.0526515 4395:0.3 4399:0.027036 4422:0.025303 4441:0.0386364 4485:0.101136 4522:0.0814394 4545:0.0142045 4563:0.0397727 4584:0.0528409 4609:0.0568182 4612:0.1 4669:0.0142045 4674:0.0896006 4685:0.281229 4691:0.133102 4712:0.0393939 4767:0.0352273 4770:0.0214015 4783:0.023093 4826:0.00984848 
101.4161209277619 118.2548410630586 108.1707275697094 123.0176789824918 124.3420223523934 102.1434131982359 104.9189088310784 142.3208747091005 124.0541077769872 73:0.0423781 154:0.213018 214:0.10503 414:0.869822 488:0.0567061 503:0.227811 676:0.732249 1057:0.0846893 1097:0.529586 1371:0.188363 1452:0.31213 1601:0.0842057 1744:0.235207 1796:0.263314 1848:0.281065 2373:0.282544 2575:0.305325 2754:0.223866 2921:0.239645 2963:0.224852 3023:0.101775 3063:0.526627 3157:0.420118 3247:0.134481 3323:0.390533 3355:0.142012 3357:0.102811 3483:0.245293 3556:0.488166 3558:0.11716 3585:0.248521 3635:0.0565828 3636:0.0565828 3923:0.0693153 4013:0.195266 4235:0.309467 4279:0.169625 4301:0.674556 4324:0.0781065 4332:0.163708 4351:0.308876 4352:0.17496 4353:0.102811 4399:0.105584 4441:0.150888 4485:0.263314 4522:0.212032 4679:0.232249 4691:0.0567061 4698:0.316568 
77.39998221986038 0 41.49287715912369 0 32.37337104754349 51.18220791587899 0 0 0 17:0.569962 45:0.0670989 98:0.376013 142:0.0474647 154:0.116694 290:1 303:0.213938 306:0.241653 414:0.158833 488:0.0465964 641:0.194922 646:0.689357 750:0.275527 853:0.163695 867:0.303079 883:0.156672 898:0.0459671 972:0.115883 1057:0.0927877 1096:0.138169 1126:0.172609 1217:0.153971 1272:0.150729 1523:0.115883 1549:0.142626 1553:0.0950837 1562:0.583468 1616:0.0899514 1677:0.0390886 1720:0.437601 1724:0.36872 1726:0.166937 1858:0.179903 2075:0.0725284 2196:0.122907 2285:0.162399 2373:0.154781 2428:0.302269 2463:0.0615883 2575:0.0557536 2653:0.1953 2715:0.401945 2864:0.148414 2901:0.636143 2921:0.0656402 2966:0.218801 3005:0.0818476 3023:0.167261 3145:0.63047 3300:0.15298 3357:0.112642 3479:0.233387 3635:0.0309968 3636:0.0309968 3640:0.0846029 3653:0.15154 3655:0.0486224 3762:0.352859 3923:0.0379718 3990:0.231767 4128:0.0777958 4155:0.557536 4279:0.0929227 4301:0.0615883 4320:0.270665 4324:0.0427877 4332:0.209256 4352:0.095845 4353:0.112642 4414:0.0883306 4424:0.106969 4485:0.144246 4691:0.0465964 4751:0.229065 4811:0.123177 4826:0.252836 
0 118.2548410630586 108.1707275697094 123.0176789824918 124.3420223523934 102.1434131982359 104.9189088310784 142.3208747091005 124.0541077769872 73:0.0532124 82:0.0295508 162:0.0281999 195:0.0283688 214:0.0119892 256:0.0273556 262:0.0854441 271:0.0729483 290:0.416751 292:0.212766 303:0.0891591 306:0.0431611 307:0.198582 309:0.0297197 310:0.100266 312:0.0486322 318:0.0298886 358:0.0486322 385:0.0357987 401:0.0641675 414:0.0661939 444:0.0523472 488:0.116515 503:0.0910165 524:0.0320838 630:0.0723479 631:0.100304 638:0.0359676 656:0.0439716 676:0.0278622 680:0.607903 720:0.212091 744:0.0682202 750:0.0114826 770:0.0120455 788:0.0242196 791:0.110098 821:0.265113 826:0.0567376 838:0.0280311 883:0.0326466 904:0.0141844 925:0.0506586 969:0.0330969 981:0.024485 1044:0.0803783 1051:0.0280311 1057:0.0193347 1073:0.0190814 1090:0.128267 1096:0.0143955 1224:0.0616499 1323:0.0290442 1369:0.0314083 1371:0.0215017 1388:0.039176 1421:0.0178318 1452:0.0356299 1478:0.111449 1503:0.0130024 1537:0.0253293 1550:0.0445795 1616:0.0187437 1622:0.0466059 1677:0.0488706 1698:0.0366093 1699:0.0722729 1723:0.0558933 1724:0.0307329 1744:0.0805471 1768:0.0621412 1827:0.128914 1840:0.0775229 1861:0.0638298 1862:0.0150287 1930:0.168637 1931:0.0112124 1996:0.0119892 2023:0.125971 2075:0.0755657 2104:0.0547112 2134:0.027896 2153:0.0253293 2154:0.0845998 2163:0.0148598 2195:0.25266 2196:0.0256107 2208:0.0330969 2210:0.0385005 2242:0.0840932 2243:0.0263425 2244:0.125633 2281:0.0489699 2353:0.0273454 2399:0.064843 2417:0.0147984 2419:0.102668 2424:0.22695 2457:0.0499831 2463:0.0128335 2569:0.24485 2575:0.0348531 2602:0.0310706 2615:0.0932118 2647:0.0298886 2704:0.17359 2754:0.0511089 2763:0.00989048 2799:0.0763256 2803:0.0419453 2807:0.055792 2833:0.0183497 2863:0.0523472 2908:0.0283688 2909:0.228977 2921:0.191489 2939:0.0294195 2949:0.0683167 3017:0.0439628 3023:0.0116177 3041:0.17359 3064:0.0324215 3072:0.00855567 3127:0.0150287 3157:0.15586 3197:0.0243161 3213:0.0712597 3240:0.0137622 3247:0.0460532 3253:0.0280311 3261:0.0330969 3266:0.52077 3272:0.0283688 3282:0.0421029 3296:0.0233029 3300:0.0318774 3323:0.118879 3325:0.0374029 3332:0.0439041 3354:0.0526849 3355:0.0162107 3357:0.176039 3373:0.0531915 3409:0.0151976 3412:0.0396825 3455:0.0150998 3508:0.014691 3556:0.0557244 3558:0.0267477 3644:0.0857818 3654:0.0166329 3678:0.0273556 3682:0.0456602 3697:0.0148598 3748:0.0283688 3762:0.0122545 3779:0.178723 3792:0.00925363 3833:0.0129461 3876:0.0986153 3888:0.141304 3944:0.0992063 3959:0.0972644 4000:0.0500957 4013:0.0222898 4021:0.0378251 4039:0.0786896 4071:0.0154509 4128:0.0972644 4131:0.0130024 4182:0.0101317 4188:0.0817291 4204:0.0587639 4215:0.0493921 4226:0.0736238 4234:0.0440729 4277:0.0282241 4290:0.100642 4301:0.179669 4320:0.0563999 4324:0.0891591 4331:0.0263425 4332:0.0934369 4351:0.0470111 4352:0.0599153 4353:0.176039 4368:0.010675 4383:0.17359 4395:0.133739 4399:0.0361575 4421:0.0133401 4424:0.0222898 4441:0.0057413 4481:0.0393786 4482:0.0291568 4485:0.135258 4520:0.00736238 4522:0.0242035 4545:0.0126646 4566:0.176292 4567:0.0595745 4573:0.0218395 4587:0.0499831 4612:0.0891591 4669:0.0126646 4674:0.119831 4685:0.395399 4691:0.116515 4698:0.0361364 4703:0.0571879 4767:0.0314083 4783:0.617685 4802:0.0189125 4826:0.0175616 4827:0.057413 
6.324845279988756 0 30.42727569933245 14.12303751465413 21.4987516803588 11.48969105650441 0 30.82427123442901 25.67560220624945 22:1 195:0.449198 303:0.705882 488:0.0683304 503:0.205882 630:0.143197 867:1 898:0.0758334 972:0.382353 1097:0.957219 1220:0.509804 1459:0.209893 1544:1 1605:0.257754 1840:0.204586 2107:0.639929 2285:0.17861 2463:0.203209 2575:0.367914 2807:0.441711 3005:0.135027 3023:0.183957 3282:1 3323:0.235294 3361:1 3551:0.540107 3635:0.102273 3636:0.102273 3645:0.431373 3653:1 3831:0.221925 3923:0.125286 4277:0.148969 4301:0.203209 4332:0.493167 4414:0.291444 4542:0.540107 4691:0.0683304 
101.4161209277619 118.2548410630586 108.1707275697094 123.0176789824918 124.3420223523934 102.1434131982359 104.9189088310784 142.3208747091005 124.0541077769872 42:0.136646 73:0.0296559 306:0.485093 318:0.0916149 342:0.438923 488:0.0462963 676:0.341615 703:0.052795 743:0.198758 777:0.141822 1258:0.0917874 1452:0.218427 1470:0.276743 1475:0.0924776 1561:0.0910973 1562:0.372671 1578:0.0961583 1593:0.0548654 1665:0.0993789 1728:0.0401872 1840:0.158416 1923:0.120083 2020:0.73913 2026:0.0822511 2148:1 2154:0.172878 2196:0.282609 2260:0.2098 2292:0.360248 2399:0.26501 2419:0.15735 2437:0.621118 2463:0.0786749 2502:0.925466 2666:0.0730159 2763:0.020211 2849:0.291925 2892:0.0776398 2983:0.468944 3023:0.142443 3069:0.15735 3156:0.106625 3269:0.15942 3297:0.180124 3323:0.0910973 3357:0.215839 3494:0.107143 3511:0.291925 3558:0.163975 3560:0.0560807 3655:0.559006 3686:0.703934 3697:0.273292 3819:0.0698156 4013:0.068323 4128:0.0993789 4182:0.186335 4198:0.163975 4353:0.215839 4394:0.252588 4520:0.0902692 4691:0.0462963 4709:0.120083 4710:0.0993789 4802:0.202899 
27.23842827357357 14.83539267974036 67.17619325502035 5.141038276023272 22.69687629206916 15.7653335154227 19.61327769262464 0 10.21480657530873 172:0.245499 295:0.155483 318:0.0724223 342:0.346972 378:0.173268 488:0.0418258 524:0.0777414 586:0.065671 630:0.0438262 641:0.246045 676:0.135025 800:0.343699 915:0.149482 951:0.0932897 1156:0.086743 1361:0.237316 1363:0.0880524 1469:0.490998 1562:0.1473 1601:0.0465819 1620:0.0394617 1634:1 1698:0.177414 1735:0.121931 1744:0.520458 1885:0.913257 1991:0.152619 2028:0.141454 2075:0.0732406 2090:0.335516 2104:0.265139 2153:0.12275 2195:0.128887 2463:0.0621931 2575:0.112602 2718:0.14239 2754:0.123841 2852:0.490998 2896:0.0523732 2909:0.554828 3005:0.0413257 3023:0.394108 3157:0.0581015 3280:0.104002 3323:0.144026 3357:0.113748 3511:0.0769231 3529:0.0720131 3545:0.288052 3635:0.0313011 3636:0.0313011 3645:0.132024 3709:0.0626841 3748:0.0687398 3793:0.0769231 3831:0.0679214 3842:0.151508 3914:0.235679 3923:0.0383446 4013:0.0540098 4128:0.314239 4212:0.0679214 4277:0.136778 4301:0.186579 4324:0.0432079 4332:0.150937 4351:0.0569558 4353:0.113748 4383:0.420622 4414:0.178396 4422:0.109329 4441:0.0834697 4485:0.0728314 4493:0.176759 4601:0.474086 4609:0.12275 4691:0.0418258 4696:0.145663 4712:0.170213 4753:0.490998 4766:0.769885 4827:0.278232 
101.4161209277619 99.60334057950654 108.1707275697094 95.01653485054055 124.3420223523934 102.1434131982359 33.1554176347623 97.61572588011161 91.41127035349876 15:0.786802 306:0.108122 488:0.0486464 524:0.241117 556:0.103084 630:0.271856 638:0.180203 641:0.610491 659:0.20502 750:0.172589 1530:0.100661 1550:0.22335 1616:0.281726 1692:1 1724:0.230964 1991:0.47335 2134:0.838579 2173:1 2210:0.192893 2388:0.903553 2575:0.174619 2624:0.345178 2807:0.419289 3023:0.174619 3332:0.329949 3558:0.201015 3653:0.474619 3654:1 3697:0.22335 3759:0.100661 4215:0.371193 4301:0.192893 4352:0.300185 4691:0.0486464 
101.4161209277619 118.2548410630586 108.1707275697094 123.0176789824918 124.3420223523934 102.1434131982359 104.9189088310784 142.3208747091005 124.0541077769872 73:0.0577573 304:0.495968 311:0.228495 488:0.0386425 962:0.493952 1247:0.288306 1475:0.180108 1692:0.198589 1730:0.464286 1850:0.21371 2020:0.159946 2075:0.541331 2195:0.15877 2455:0.102823 2466:0.0599078 2486:0.657258 2615:0.741935 2715:1 2824:0.649194 2849:0.47379 3253:0.334677 3297:0.350806 3300:0.3806 3325:0.223286 3655:0.120968 3708:0.266129 3793:0.379032 3807:0.436156 4301:0.153226 4324:0.106452 4587:0.596774 4632:1 4691:0.0386425 4703:0.341398 
101.4161209277619 118.2548410630586 108.1707275697094 123.0176789824918 124.3420223523934 102.1434131982359 104.9189088310784 142.3208747091005 124.0541077769872 39:0.0948081 108:0.089541 256:0.0914221 306:0.0480813 310:0.167545 312:0.0812641 314:0.0485327 340:0.0398796 488:0.0576875 578:0.183409 630:0.0604465 641:0.0339353 646:0.24003 676:0.0931151 750:0.0383747 755:0.0714823 763:0.509029 826:0.0632054 1057:0.0323081 1058:0.0643341 1104:0.383465 1276:1 1436:0.109707 1549:0.198646 1562:0.10158 1588:0.0296863 1622:0.0519187 1709:0.096614 1791:0.113995 1962:1 1980:0.0545523 1996:0.0400677 2021:0.081899 2075:0.0505079 2134:0.093228 2195:0.0444413 2210:0.0857788 2242:0.0468397 2388:0.100451 2417:0.0494562 2442:0.0601016 2463:0.128668 2502:0.100903 2537:0.0394008 2555:0.100734 2575:0.194131 2624:0.0767494 2680:0.18623 2719:0.0970655 2779:0.643341 2827:0.575198 2849:0.0265237 2921:0.0914221 2962:0.826185 3157:0.0400677 3269:0.0869074 3282:0.0703536 3332:0.0733634 3357:0.0392212 3409:0.10158 3441:0.068623 3556:0.18623 3602:0.0301919 3635:0.0215858 3636:0.0215858 3672:0.103273 3748:0.0474041 3793:0.21219 3819:0.0380597 3833:0.0865312 3880:0.149436 4013:0.037246 4021:0.0632054 4107:0.14447 4128:0.216704 4301:0.0857788 4324:0.0595937 4332:0.0832706 4351:0.0785553 4353:0.0392212 4414:0.123025 4485:0.0502257 4584:0.0787246 4591:0.0948081 4663:0.0415995 4691:0.0576875 4802:0.0474041 4826:0.0880361 
0 0 24.94751932977394 123.0176789824918 0 0 63.92281479569548 0 67.83954181552568 23:0.0822368 195:0.157895 238:0.196241 314:0.0808271 475:0.545113 488:0.0540414 641:0.226065 745:1 763:0.0605532 805:0.272556 1087:0.496241 1622:0.259398 1795:0.806391 1892:0.159398 2195:0.222039 2446:0.110432 2559:0.0952381 2593:0.211063 2615:0.172932 2646:0.128571 2673:0.148731 2680:0.155075 2860:1 2908:0.157895 2921:0.152256 3018:0.183136 3023:0.840602 3105:0.105263 3253:0.31203 3323:0.827068 3357:0.326598 3412:0.496945 3487:0.269925 3602:0.201128 3635:0.0359492 3636:0.0359492 3698:0.610902 3934:0.321429 3944:0.110432 4040:0.178571 4086:0.610902 4109:0.270677 4128:0.0902256 4301:0.214286 4332:0.41604 4351:0.261654 4353:0.326598 4399:0.134164 4414:0.102444 4485:0.167293 4511:0.239662 4522:0.134712 4545:0.140977 4573:0.121554 4669:0.140977 4691:0.0540414 4826:0.244361 4834:0.270677 
0 0 0 0 0 0 0 0.005496866547068082 0 17:0.13061 55:0.0478843 73:0.0265995 206:0.178273 211:0.495822 256:0.0752089 295:0.264624 306:0.118663 312:0.0334262 401:0.088208 488:0.0593212 503:0.0357474 510:0.0579387 578:0.75441 630:0.0248633 633:0.613742 676:0.229805 694:0.0705664 713:0.395543 722:0.109817 750:0.157846 776:0.0876774 782:0.0589601 838:0.0770659 840:0.133705 853:0.187558 896:0.057753 898:0.197505 1044:0.220984 1141:0.284587 1165:0.165274 1209:0.265181 1284:0.208914 1371:0.177344 1436:0.0601671 1473:0.0476914 1483:0.662953 1503:0.0357474 1523:0.0663881 1562:0.0835655 1576:1 1622:0.0854225 1646:0.122748 1801:0.264673 1817:0.420613 1840:0.0355224 1923:0.107707 2104:0.150418 2154:0.0775302 2196:0.042247 2305:0.082637 2307:0.093779 2463:0.0352832 2465:0.0508659 2497:0.325905 2575:0.0319406 2607:0.389972 2615:0.0854225 2647:0.0821727 2680:0.0766017 2683:1 2807:0.153389 2864:0.425123 2921:0.112813 3005:0.0234448 3023:0.287465 3138:0.363603 3157:0.16481 3247:0.0422048 3253:0.0770659 3323:0.245125 3333:0.195915 3357:0.129062 3412:0.0545497 3464:0.476323 3557:0.0357474 3569:0.107707 3600:0.584958 3602:0.0745125 3631:0.219634 3635:0.0177577 3636:0.0177577 3655:0.0557103 3762:0.0336915 3833:0.0355927 3909:0.246363 3949:0.0714949 3975:0.097493 4003:0.0668524 4022:0.0979573 4038:0.259053 4039:0.216342 4109:0.133705 4111:0.569174 4128:0.178273 4131:0.0357474 4206:0.0589601 4301:0.141133 4324:0.0490251 4332:0.171258 4353:0.129062 4391:0.0752089 4399:0.033136 4414:0.253018 4422:0.124048 4485:0.082637 4545:0.0348189 4573:0.120087 4591:0.0779944 4669:0.0348189 4691:0.0593212 4767:0.086351 4802:0.0519963 
68.93449510928789 118.2548410630586 108.1707275697094 123.0176789824918 124.3420223523934 102.1434131982359 104.9189088310784 142.3208747091005 124.0541077769872 73:0.0228086 295:0.151274 306:0.0339172 307:0.468153 318:0.634156 488:0.0712137 630:0.127919 631:0.157643 720:1 821:1 838:0.264331 1051:0.132166 1452:0.167994 1469:0.477707 1601:0.0453209 1622:0.146497 1699:0.0851911 1724:0.0724522 1744:0.253185 1747:0.226911 1930:0.227176 2075:0.071258 2163:0.140127 2195:0.125398 2196:0.0241507 2200:0.117127 2242:0.0660828 2244:0.0987261 2424:0.267516 2463:0.0605096 2641:0.122771 2652:0.507962 2799:0.179936 2897:0.474522 2921:0.257962 2939:0.069356 2999:0.13535 3005:0.040207 3041:0.818471 3072:0.0403397 3157:0.282643 3323:0.350318 3355:0.0764331 3409:0.0716561 3412:0.0467755 3508:0.138535 3527:0.14172 3748:0.133758 3779:0.280892 3833:0.0610403 3878:0.453822 3923:0.0373066 3947:0.0651641 4013:0.105096 4090:0.14172 4109:0.229299 4128:0.152866 4277:0.0443585 4301:0.242038 4320:0.265924 4324:0.0420382 4332:0.146851 4351:0.27707 4441:0.0270701 4485:0.21258 4609:0.119427 4685:0.454706 4691:0.0712137 4767:0.148089 4770:0.0899682 4783:0.0970788 
0 0 0 0 0 0 19.36511925884457 0 0 312:0.122449 488:0.0543273 630:0.0910809 641:0.204535 647:0.166048 664:1 702:0.0614246 770:0.121315 838:0.282313 880:0.120862 1058:0.387755 1182:0.363946 1307:0.414966 1361:0.493197 1388:0.789116 1506:0.362585 1550:0.14966 1622:0.156463 1744:0.270408 1862:0.151361 2104:0.27551 2134:0.280952 2196:0.0515873 2208:0.333333 2244:0.210884 2255:1 2258:0.225765 2399:0.217687 2412:0.252551 2431:0.248299 2615:0.312925 2624:0.231293 2827:0.192602 2901:0.133503 3017:0.221384 3023:0.234014 3024:0.809524 3037:0.481162 3057:0.770408 3110:0.515306 3127:0.151361 3157:0.241497 3323:0.29932 3333:0.717687 3357:0.118197 3403:0.163946 3674:0.860544 3748:0.142857 3762:0.246842 3785:0.723639 3833:0.260771 4021:0.0952381 4084:0.535714 4128:0.489796 4212:0.282313 4279:0.195011 4287:0.258503 4301:0.387755 4320:0.568027 4324:0.179592 4351:0.118367 4352:0.201144 4353:0.118197 4414:0.370748 4507:0.911565 4542:0.343537 4691:0.0543273 4767:0.316327 4826:0.0884354 
101.4161209277619 118.2548410630586 108.1707275697094 123.0176789824918 124.3420223523934 102.1434131982359 104.9189088310784 142.3208747091005 124.0541077769872 73:0.0639456 196:0.0811012 206:0.285714 256:0.120536 279:0.178571 318:0.0658482 420:0.10119 488:0.0427827 503:0.0572917 641:0.0447421 755:0.094246 777:0.101935 788:0.0533588 904:0.0625 1044:0.177083 1051:0.247024 1058:0.254464 1142:0.169643 1181:0.0674603 1307:0.181548 1361:0.215774 1421:0.0785714 1487:0.0391156 1490:0.290551 1503:0.114583 1550:0.0654762 1616:0.0825893 1840:0.113862 2020:0.118056 2022:0.0458568 2075:0.0665923 2163:0.130952 2210:0.0565476 2277:0.0546131 2355:0.094494 2398:0.122024 2400:0.0516183 2417:0.0652056 2419:0.0565476 2424:1 2437:0.14881 2532:0.129464 2569:0.215774 2575:0.0511905 2680:0.613839 2763:0.0435799 2778:0.121032 2888:0.122024 2921:0.120536 2939:0.0324074 3103:0.116071 3157:0.105655 3213:0.313988 3323:0.0654762 3325:0.0824033 3357:0.103423 3384:0.110119 3412:0.0874256 3418:0.0357143 3556:0.245536 3558:0.176786 3635:0.0284598 3636:0.0284598 3706:0.113095 3748:0.0625 3799:0.377976 3879:0.189732 3889:0.404762 3955:0.140997 3966:0.128827 3984:0.0888393 4013:0.147321 4021:0.0416667 4131:0.114583 4222:0.179167 4277:0.0829082 4301:0.0565476 4324:0.0392857 4332:0.0823413 4351:0.155357 4353:0.103423 4485:0.264881 4545:0.0558036 4669:0.0558036 4691:0.0427827 4703:0.125992 4796:0.114583 4802:0.0208333 
87.70048442896159 0 72.95117341601669 0 56.57091676437137 71.06203600324238 3.586898004330681 0 0 23:0.0605956 55:1 142:0.243372 238:0.144598 247:0.364464 249:0.164127 256:0.112188 306:0.0295014 308:0.310249 325:0.0720222 331:0.544044 395:0.0870598 488:0.0752155 647:0.13523 676:0.114266 762:1 803:0.108033 853:0.139889 860:0.172537 867:0.259003 898:0.0589232 1037:0.316713 1057:0.0396468 1205:0.0743767 1357:0.0914127 1459:0.0543629 1503:0.159972 1523:0.198061 1602:0.333795 1644:0.438366 1677:0.133616 1770:0.603878 1795:0.396122 1931:0.0459834 2104:0.112188 2187:0.936288 2196:0.0210065 2285:0.0462604 2286:0.290859 2373:0.132271 2419:0.0526316 2511:0.0937871 2572:0.268698 2580:0.135328 2616:0.0969529 2653:0.834488 2901:0.108726 2941:0.143006 2965:0.475069 2996:0.199446 3005:0.174861 3023:0.0476454 3137:0.108864 3157:0.049169 3282:0.0863343 3300:0.52293 3324:0.739612 3496:0.246537 3510:0.0715028 3517:0.091105 3519:0.310249 3556:0.457064 3655:0.0415512 3692:0.455679 3831:0.287396 3833:0.106187 3967:0.0441584 4089:0.364958 4131:0.159972 4135:0.0511007 4188:0.33518 4301:0.0526316 4332:0.0255463 4351:0.192798 4352:0.163813 4392:0.0598401 4468:0.0582532 4491:0.075831 4510:0.972299 4559:0.121884 4567:0.732964 4587:0.204986 4691:0.0752155 4698:0.148199 4826:0.144044 
0 74.91378769202382 0 66.47083499079402 0 0 104.9189088310784 86.59489172932341 95.12817283665147 23:0.0604282 55:0.997238 142:0.242699 238:0.144199 247:0.363457 249:0.163674 256:0.111878 306:0.0294199 308:0.309392 325:0.0718232 331:0.542541 395:0.0868193 488:0.0705955 647:0.134857 676:0.11395 762:0.997238 803:0.107735 826:0.0773481 853:0.139503 860:0.17206 867:0.258287 898:0.0587604 1037:0.315838 1057:0.0395373 1205:0.0741713 1357:0.0911602 1459:0.0542127 1503:0.15953 1523:0.197514 1602:0.332873 1644:0.437155 1677:0.133247 1770:0.60221 1795:0.395028 1931:0.0458564 2104:0.111878 2187:0.933702 2196:0.0209484 2285:0.0461326 2286:0.290055 2373:0.131906 2419:0.0524862 2511:0.093528 2572:0.267956 2580:0.134954 2616:0.0966851 2653:0.832182 2901:0.108425 2941:0.14261 2965:0.473757 2996:0.198895 3005:0.174378 3023:0.0475138 3137:0.108564 3157:0.0490331 3282:0.0860958 3300:0.521486 3324:0.737569 3496:0.245856 3510:0.0713052 3517:0.0908533 3519:0.309392 3556:0.455801 3655:0.0414365 3692:0.45442 3831:0.286602 3833:0.105893 3967:0.0440364 4089:0.36395 4131:0.15953 4135:0.0509596 4188:0.334254 4301:0.0524862 4332:0.0254758 4351:0.192265 4352:0.16336 4392:0.0596748 4468:0.0580923 4491:0.0756215 4510:0.969613 4559:0.121547 4567:0.730939 4587:0.20442 4691:0.0705955 4698:0.14779 4826:0.143646 
0 0 0 0 0 0 12.60464387769751 4.464698214920078 0 82:0.142741 232:0.719413 306:0.0694943 310:0.242161 312:0.0587276 318:0.072186 358:0.469821 444:0.126427 488:0.0521117 503:0.0628059 641:0.0490484 659:0.0658873 664:0.0959217 702:0.206218 741:0.096248 750:0.0554649 854:0.313214 996:0.125612 1037:0.373029 1141:1 1182:0.174551 1196:0.23056 1205:0.087602 1301:0.107305 1388:0.378467 1408:0.495922 1467:0.077174 1473:0.167581 1562:0.293638 1602:0.393148 1609:0.205546 1646:0.215661 1675:0.168026 1677:0.0393436 1710:0.0988581 1778:0.288744 1840:0.0624104 1848:0.309951 1906:0.702121 2020:0.0647091 2052:1 2072:0.0988581 2075:0.219005 2082:0.159869 2154:0.136215 2195:0.128467 2196:0.0494834 2307:0.164763 2463:0.12398 2569:0.236542 2615:0.150082 2780:0.228385 2833:0.0886351 3023:0.336705 3037:1 3157:0.0579119 3226:1 3357:0.0566884 3373:0.256933 3602:0.0436378 3635:0.031199 3636:0.031199 3653:0.152529 3799:0.414356 3975:0.171289 4039:0.190049 4058:0.642741 4111:1 4128:0.23491 4235:0.170636 4260:0.287765 4301:0.185971 4332:0.0300888 4353:0.0566884 4581:1 4609:0.122349 4691:0.0521117 4698:0.174551 4704:0.316476 4751:0.92224 4802:0.045677 4838:0.236542 
46.73071760222635 0 0 0 0 0 0 0 0 17:0.131219 54:0.36194 214:0.0662313 306:0.0397388 318:0.082556 488:0.0417185 676:0.461754 711:0.106046 722:0.441316 750:0.126866 826:0.104478 840:0.268657 898:0.0529136 1090:0.157463 1263:0.453358 1303:0.192631 1468:0.113806 1483:0.666045 1519:0.166045 1622:0.0858209 1699:0.0998134 1760:0.0839552 1840:0.0713761 2020:0.14801 2066:0.147105 2075:0.250466 2134:0.616418 2195:0.293843 2196:0.028296 2447:0.151119 2537:0.0651289 2593:0.104744 2650:0.31903 2763:0.0182125 2779:0.106343 2864:0.170842 2949:0.0471748 3005:0.0471082 3023:0.192537 3038:0.318097 3141:0.41791 3217:0.289179 3226:0.142957 3356:0.393657 3409:0.16791 3508:0.324627 3631:0.441316 3635:0.285448 3636:0.285448 3655:0.11194 3709:0.285821 3799:0.473881 3926:0.0735527 4031:0.211754 4143:0.414179 4332:0.103234 4352:0.110329 4383:0.958955 4563:0.195896 4691:0.0417185 4704:0.36194 4758:0.268657 4802:0.208955 
101.4161209277619 118.2548410630586 108.1707275697094 123.0176789824918 124.3420223523934 102.1434131982359 104.9189088310784 142.3208747091005 124.0541077769872 97:0.279573 174:0.139252 271:0.134579 295:0.17757 312:0.0672897 395:0.293725 401:0.17757 488:0.0537383 528:0.414953 630:0.150156 641:0.112399 676:0.154206 708:0.553271 776:0.176502 840:0.269159 898:0.0530125 902:0.0457944 1051:0.15514 1388:0.216822 1503:0.0719626 1518:0.119159 1550:0.082243 1576:0.503271 1747:0.266355 1782:0.433645 1849:0.047352 2042:0.134579 2075:0.0836449 2196:0.0850467 2243:0.145794 2244:0.115888 2334:0.641121 2414:0.254206 2641:0.144112 2680:0.308411 2721:0.495327 2807:0.154393 2909:0.633645 2921:0.227103 3005:0.0943925 3017:0.121658 3023:0.0642991 3168:0.476636 3247:0.0849618 3253:0.465421 3269:0.143925 3282:0.116511 3412:0.0549065 3519:0.418692 3635:0.0357477 3636:0.0357477 3653:0.174766 3671:1 3674:0.472897 3735:0.274533 3831:0.23271 3833:0.214953 3914:0.538318 4013:0.0616822 4131:0.0719626 4277:0.156208 4301:0.071028 4332:0.137902 4351:0.19514 4352:0.221071 4399:0.0667056 4422:0.12486 4441:0.127103 4511:0.238318 4516:0.164486 4522:0.133956 4581:0.286449 4601:0.270717 4609:0.140187 4612:0.246729 4691:0.0537383 4698:0.4 4834:0.269159 4838:0.271028 
101.4161209277619 118.2548410630586 108.1707275697094 123.0176789824918 124.3420223523934 102.1434131982359 104.9189088310784 142.3208747091005 124.0541077769872 73:0.0204919 106:0.0722461 174:0.106581 292:0.300429 306:0.0304721 312:0.103004 351:0.181818 371:0.125894 488:0.0228501 524:0.135908 620:0.422031 654:0.113495 689:0.121602 750:0.243205 826:0.160229 898:0.0202873 1036:0.0944206 1272:0.133047 1388:0.165951 1468:0.174535 1511:0.2103 1923:0.0829757 2075:0.57618 2094:0.231044 2104:0.11588 2134:0.354506 2196:0.0216977 2242:0.0593705 2399:0.0915594 2419:0.108727 2446:0.0840486 2463:0.0543634 2782:0.135432 2849:0.0336195 2921:0.11588 2995:0.0414878 3023:0.147639 3157:0.253934 3180:0.213519 3247:0.065028 3280:1 3323:0.188841 3331:0.0883405 3355:0.0686695 3357:0.0497139 3427:0.0481207 3479:0.206009 3527:0.127325 3635:0.054721 3636:0.054721 3672:0.392704 3693:0.48927 3762:0.0519109 3833:0.10968 3944:0.168097 4013:0.141631 4034:0.112065 4279:0.41011 4301:0.16309 4314:0.402003 4315:0.140916 4324:0.0755365 4351:0.199142 4352:0.0846014 4353:0.0497139 4399:0.10211 4444:0.100143 4485:0.254649 4569:0.177396 4584:0.0997854 4634:1 4691:0.0228501 4710:0.0171674 
43.81816944160173 118.2548410630586 108.1707275697094 123.0176789824918 124.3420223523934 53.17481455306189 104.9189088310784 142.3208747091005 124.0541077769872 308:1 310:0.662698 358:0.642857 488:0.0713046 503:0.34375 524:0.424107 641:0.134226 654:0.354167 1473:0.229302 1550:0.196429 1744:0.354911 2463:0.169643 2575:0.307143 2782:0.21131 3005:0.112723 3023:0.153571 3253:0.370536 3300:0.421379 3323:0.589286 3357:0.155134 3519:1 3653:0.417411 3678:0.361607 3889:0.303571 3923:0.209184 4155:0.767857 4301:0.508929 4353:0.155134 4414:0.243304 4422:0.596429 4441:0.0758929 4485:0.595982 4609:0.334821 4691:0.0713046 4770:0.252232 4785:0.699405 
0 0 0 0 0 33.38900552580925 0 0 0 295:0.244216 306:0.0547558 488:0.0574836 526:0.37018 744:0.51928 871:0.560411 937:0.951157 1126:0.547558 1430:0.417738 1473:0.13204 1523:0.183805 1677:0.0619991 1692:0.126607 1721:0.652956 1840:0.0983485 1856:0.46144 1892:0.871979 2196:0.0389889 2206:0.182519 2224:0.113111 2244:0.159383 2286:0.539846 2463:0.390746 2559:0.130249 2575:0.0884319 2807:0.212339 2864:0.235402 2871:0.501928 2901:0.1009 2921:0.104113 2959:0.526992 2995:0.0745501 3017:0.167319 3023:0.353728 3024:0.305913 3145:1 3157:0.0912596 3217:0.398458 3280:0.163356 3300:0.242645 3323:0.339332 3330:0.132391 3357:0.178663 3479:0.37018 3487:0.184576 3526:0.497429 3614:0.0681405 3615:0.0749786 3618:0.0330873 3635:0.0491645 3636:0.0491645 3640:0.13419 3653:0.48072 3674:0.650386 3698:0.417738 3809:0.0851185 3833:0.29563 3922:0.292751 3923:0.240911 3944:0.151028 4003:0.55527 4128:0.123393 4150:0.0951157 4155:0.442159 4324:0.0678663 4332:0.237075 4351:0.0894602 4353:0.178663 4424:0.169666 4441:0.131105 4581:0.393959 4674:0.304043 4679:0.201799 4685:0.0734076 4691:0.0574836 4698:0.275064 4810:0.385604 4834:0.37018 
101.4161209277619 118.2548410630586 108.1707275697094 89.35370797500595 124.3420223523934 102.1434131982359 104.9189088310784 142.3208747091005 124.0541077769872 488:0.122863 755:0.608974 972:0.6875 1247:0.6875 1550:0.423077 1761:0.348901 1840:0.367861 2210:0.365385 2417:0.421329 2428:0.896635 2651:0.701923 2955:1 3357:0.334135 3635:0.183894 3636:0.183894 3654:0.473558 4212:0.399038 4277:0.267857 4294:1 4353:0.334135 4403:1 4545:0.360577 4573:0.621795 4669:0.360577 4691:0.122863 4712:1 4826:1 
101.4161209277619 118.2548410630586 108.1707275697094 123.0176789824918 124.3420223523934 102.1434131982359 104.9189088310784 78.03982644276138 124.0541077769872 42:0.34555 154:0.376963 446:0.811518 488:0.0836242 503:0.201571 745:0.185689 763:0.843306 1550:0.460733 1692:0.257853 1724:0.23822 1898:1 1996:0.371728 2373:1 2463:0.198953 2646:0.119372 2651:0.382199 2782:0.247818 2824:0.421466 3282:0.652705 3412:0.461387 3635:0.100131 3636:0.100131 3944:0.307592 4128:0.502618 4277:0.291698 4330:1 4414:0.28534 4485:0.232984 4691:0.0836242 4763:1 
101.4161209277619 118.2548410630586 108.1707275697094 123.0176789824918 124.3420223523934 102.1434131982359 104.9189088310784 142.3208747091005 124.0541077769872 195:0.119488 256:0.11522 343:0.7101 351:0.361567 488:0.0318081 503:0.0547653 514:0.233286 630:0.304726 676:0.117354 742:0.121859 771:0.0469417 826:0.159317 1058:0.324324 1090:0.120057 1307:0.173542 1333:0.0789474 1503:0.0547653 1550:0.125178 1562:0.128023 1612:0.645545 1622:0.130868 1778:0.125889 2020:0.11285 2104:0.230441 2134:0.234993 2195:0.33606 2237:0.0849218 2262:0.059744 2285:0.0475107 2342:0.286202 2424:0.238976 2497:0.499289 2575:0.195733 2680:0.234708 2763:0.0138861 2824:0.229018 2921:0.172831 2963:0.108108 3128:0.0938834 3182:0.142564 3235:0.0765292 3253:0.118065 3282:0.0886676 3323:0.125178 3356:0.300142 3408:0.426743 3409:0.128023 3412:0.208926 3508:0.123755 3527:0.1266 3556:0.234708 3558:0.05633 3635:0.0272048 3636:0.0272048 3748:0.059744 3762:0.0516155 3799:0.361309 3833:0.109056 4013:0.0938834 4021:0.119488 4039:0.165718 4131:0.0547653 4212:0.0590327 4301:0.216216 4324:0.0375533 4412:0.246183 4444:0.0995733 4464:0.113087 4485:0.316501 4569:0.176387 4592:0.0854374 4671:0.699858 4679:0.111664 4691:0.0318081 4704:0.27596 4802:0.0199147 4823:0.28165 
101.4161209277619 118.2548410630586 108.1707275697094 123.0176789824918 124.3420223523934 102.1434131982359 104.9189088310784 142.3208747091005 124.0541077769872 20:0.0948795 36:0.116466 54:0.129853 73:0.0287627 174:0.0498661 256:0.0542169 262:0.084672 305:0.0749665 312:0.0240964 318:0.0296185 342:0.283802 358:0.0963855 401:0.127175 488:0.00641455 511:0.0236948 524:0.0635877 556:0.165831 630:0.0179235 722:0.15833 732:0.189759 750:0.0227577 788:0.0480015 791:0.109103 816:0.0491596 826:0.149933 828:0.0967871 838:0.0555556 853:0.135207 865:0.2249 883:0.0647033 934:0.170683 1044:0.716867 1051:0.0555556 1057:0.0383199 1058:0.0381526 1067:0.0455154 1247:0.0957162 1371:0.0426149 1372:0.0311245 1388:0.155288 1452:0.0706158 1475:0.0298974 1530:0.220337 1549:0.117805 1574:0.0829987 1599:0.0883534 1601:0.0381011 1699:0.0358099 1808:0.0411647 1840:0.0256075 1858:0.0742972 1899:0.100067 1905:0.0884125 1921:0.0320329 1980:0.0323516 2075:0.0599063 2154:0.0558902 2195:0.0527108 2258:0.0888554 2309:0.124052 2373:0.0639224 2399:0.042838 2417:0.0293294 2419:0.0254351 2457:0.0990629 2494:0.023427 2559:0.10174 2569:0.0970549 2615:0.0615797 2622:0.0207943 2641:0.0516064 2653:0.080656 2719:0.0575636 2763:0.00653407 2772:0.191432 2849:0.456158 2871:0.261379 2888:0.0548862 2892:0.0251004 2906:0.084672 2921:0.0271084 2999:0.0568942 3005:0.0507028 3023:0.0921017 3037:0.0315621 3061:0.0430697 3072:0.0339134 3105:0.0187416 3157:0.0950469 3168:0.170683 3280:0.0425338 3297:0.0582329 3323:0.0589023 3357:0.0930388 3494:0.0346386 3511:0.0314592 3557:0.0515395 3577:0.157965 3635:0.0384036 3636:0.0384036 3653:0.125167 3654:0.164826 3672:0.061245 3759:0.220337 3793:0.440428 3804:0.0619813 3860:0.035676 3904:0.0893574 3944:0.039324 3975:0.0702811 3990:0.0957162 3993:0.180723 4013:0.0441767 4022:0.141232 4027:0.089469 4038:0.186747 4089:0.176372 4119:0.173025 4135:0.0246953 4155:0.230254 4279:0.0767515 4301:0.15261 4314:0.0940428 4324:0.0706827 4351:0.0232932 4353:0.0930388 4399:0.0238872 4421:0.0264391 4422:0.0447122 4482:0.231147 4533:0.176707 4545:0.0753012 4568:0.172914 4609:0.100402 4669:0.0753012 4674:0.0791651 4679:0.0525435 4685:0.0573405 4691:0.00641455 4696:0.0297858 4802:0.11245 4826:0.0174029 
0 0 0 3.028155780410219 0 0 0 0 5.399589451801384 70:0.296456 73:0.0617406 195:0.181034 262:0.272629 318:0.0953664 331:0.211638 395:0.067734 488:0.0344229 524:0.102371 630:0.115421 635:0.0594828 676:0.533405 722:0.509796 750:0.0732759 1057:0.0616918 1155:0.146552 1388:0.25 1562:0.193966 1744:0.171336 1783:1 1906:0.927586 1969:0.135057 2104:0.174569 2187:0.364224 2195:0.0848599 2418:0.200431 2575:0.296552 2921:0.436422 2955:0.224138 3005:0.0544181 3017:0.280547 3023:0.296552 3072:0.109195 3156:0.110991 3253:0.178879 3300:0.203424 3556:0.355603 3640:0.1125 3654:0.212284 3831:0.0894397 4013:0.426724 4022:0.909483 4038:0.601293 4039:0.251078 4128:0.103448 4301:0.163793 4332:0.198755 4351:0.3 4414:0.117457 4441:0.109914 4584:0.150323 4592:0.129445 4674:0.254898 4685:0.123084 4691:0.0344229 4826:0.0560345 
80.40652351215942 33.22437391448544 68.59008131364507 123.0176789824918 84.11400349951045 59.77350931959079 104.9189088310784 45.98989466566151 124.0541077769872 73:0.0392433 191:1 312:0.0986301 340:0.193607 342:0.580822 395:0.0861057 488:0.0437595 528:0.810959 630:0.146728 631:0.813699 641:0.74137 676:0.90411 1339:0.745068 1372:0.127397 1470:0.183105 1503:0.105479 1601:0.0779768 1740:0.111233 1980:0.13242 1996:0.0972603 2042:0.19726 2084:1 2195:0.215753 2242:0.113699 2255:0.40274 2680:0.226027 2780:0.191781 2783:0.0571689 2797:0.487671 2817:0.591781 2824:0.220548 2908:0.230137 2921:0.110959 2929:0.145814 3017:0.17832 3023:0.0942466 3069:0.208219 3157:0.194521 3168:0.69863 3235:0.294795 3511:0.128767 3529:0.120548 3672:0.250685 3819:0.0461931 3833:0.105023 3923:0.192564 3976:0.39589 4128:0.263014 4131:0.105479 4324:0.0723288 4332:0.101065 4351:0.0953425 4485:0.121918 4520:0.059726 4545:0.205479 4669:0.205479 4691:0.0437595 4694:0.126623 4802:0.0383562 4811:0.208219 4826:0.0712329 
101.4161209277619 118.2548410630586 108.1707275697094 123.0176789824918 124.3420223523934 102.1434131982359 104.9189088310784 142.3208747091005 124.0541077769872 73:0.0239529 206:0.64214 255:0.441472 283:0.0502717 306:0.0356187 318:0.147993 401:0.317726 475:0.242475 488:0.0480769 503:0.0643813 745:0.0593088 750:0.113712 763:0.05387 954:0.0983835 1044:0.795987 1142:0.190635 1156:0.177258 1165:0.297659 1172:0.270903 1205:0.628595 1421:0.0882943 1503:0.128763 1512:0.242475 1528:0.0645485 1599:0.441472 1744:0.132943 1840:0.255904 2104:0.406355 2177:0.0540398 2194:0.11204 2285:0.111706 2373:0.159699 2390:0.107023 2399:0.214047 2419:0.0635452 2422:0.102007 2463:0.0635452 2559:0.169454 2575:0.0575251 2615:0.153846 2680:0.27592 2753:1 2763:0.0489728 2779:0.0953177 2921:0.0677258 2995:0.048495 2999:0.14214 3023:0.0575251 3063:0.297659 3156:0.172241 3157:0.474916 3182:0.167596 3247:0.0760109 3262:0.0330328 3280:0.106263 3282:0.521182 3323:0.220736 3357:0.116221 3529:0.147157 3558:0.132441 3719:0.139632 3748:0.140468 3833:0.0641026 3991:0.0322504 4013:0.165552 4128:0.0802676 4131:0.128763 4212:0.208194 4215:0.122283 4277:0.232919 4324:0.0882943 4351:0.174582 4353:0.116221 4444:0.117057 4691:0.0480769 4698:0.17893 4767:0.155518 4802:0.0936455 
101.4161209277619 118.2548410630586 108.1707275697094 123.0176789824918 124.3420223523934 102.1434131982359 104.9189088310784 142.3208747091005 124.0541077769872 73:0.0544632 306:0.0809886 385:0.806084 396:0.642586 414:0.372624 488:0.145754 503:0.146388 530:0.404943 828:0.54981 968:1 992:0.612167 1057:0.10884 1096:0.162072 1155:0.258555 1264:0.368821 1459:0.14924 1538:0.110266 1550:0.1673 1677:0.0917021 1692:0.187262 1840:0.72733 2195:0.449144 2281:0.551331 2575:0.261597 2696:0.501901 2884:0.463878 2894:0.581749 2921:0.153992 2949:0.0961434 2995:0.220532 2999:0.323194 3110:0.576046 3157:0.134981 3418:0.0912548 3841:0.308745 3889:0.258555 4087:0.191635 4277:0.211841 4422:0.253992 4532:0.425856 4691:0.145754 4826:0.0988593 
0 47.53700036157845 0 0 0 0 0 16.84396462491298 3.799510655170242 112:0.0348441 170:0.0480629 255:0.77193 303:0.289474 312:0.157895 457:0.616959 486:0.0453216 488:0.0513726 556:0.00593786 630:0.293616 672:0.0660331 686:0.0795097 750:0.0248538 755:0.0462963 782:0.881944 826:0.0409357 883:0.0706628 896:0.818421 1044:0.0869883 1058:0.0416667 1090:0.123392 1205:0.157018 1209:0.417544 1210:0.347953 1263:0.710526 1264:0.0709064 1301:0.0961663 1303:0.377376 1372:0.0339912 1483:0.260965 1530:0.00579833 1693:0.0533626 1744:0.058114 1775:1 1827:0.651072 1899:0.0273209 1981:0.462719 2020:0.0579922 2026:0.0871212 2066:0.115276 2104:0.0592105 2122:0.0808967 2134:0.0603801 2154:0.122076 2195:0.0863487 2228:0.371345 2260:0.0740741 2285:0.0244152 2373:0.0698099 2424:0.122807 2470:0.123904 2650:1 2680:0.060307 2763:0.0071359 2780:0.0511696 2799:0.165205 2942:0.0423977 3005:0.0369152 3016:0.23136 3023:0.0251462 3072:0.0185185 3084:0.0357757 3088:0.353801 3213:0.15424 3282:0.0455653 3357:0.0762061 3373:0.230263 3409:0.164474 3464:1 3508:0.0317982 3511:0.10307 3557:0.0844298 3580:0.123538 3631:0.0864567 3635:0.0419408 3636:0.0419408 3759:0.00579833 3762:0.981412 3799:0.185673 3842:0.0338346 4033:0.0701754 4040:0.0694444 4058:0.144006 4143:0.324561 4206:0.835526 4301:0.0555556 4320:0.122076 4332:0.0134828 4352:0.0432283 4353:0.0762061 4439:0.23136 4484:0.0552897 4485:0.0325292 4585:0.0864567 4651:0.088694 4691:0.0513726 4802:0.133041 4808:0.03565 4826:0.0190058 4827:0.124269 
70.91681072234523 43.7323024673899 77.19622499466179 96.3273146169694 124.3420223523934 76.83222258268111 18.71275497523794 88.00682919067773 55.82685656421229 17:0.276903 36:0.34252 112:0.375328 343:0.16378 488:0.0628828 630:0.105424 750:0.267717 782:1 826:0.220472 854:0.377953 896:0.979528 1044:0.468504 1090:0.498425 1209:0.843307 1468:0.240157 1692:0.193898 1721:1 1996:0.139764 2020:0.312336 2210:0.149606 2237:0.235039 2399:0.251969 2763:0.0384327 2782:0.186352 2807:0.325197 3157:0.139764 3323:0.173228 3409:0.177165 3464:0.673228 3496:0.350394 3508:0.17126 3529:0.173228 3635:0.0752953 3636:0.0752953 3762:1 3787:0.267717 3799:1 3880:0.52126 3889:0.535433 3949:0.30315 4206:1 4301:0.299213 4324:0.103937 4351:0.137008 4569:0.488189 4679:0.309055 4691:0.0628828 4802:0.110236 
101.4161209277619 118.2548410630586 108.1707275697094 123.0176789824918 124.3420223523934 102.1434131982359 104.9189088310784 142.3208747091005 124.0541077769872 41:0.0725066 73:0.0281965 375:0.244094 401:0.374016 488:0.0628828 503:0.151575 524:0.0935039 630:0.105424 641:0.0591864 676:0.162402 854:0.188976 898:0.0837452 1051:0.163386 1827:0.250469 1936:0.0944882 2075:0.0880906 2195:0.310039 2244:0.122047 2258:0.130659 2431:0.143701 2487:0.146469 2560:0.169291 2680:0.162402 3017:0.128124 3110:0.298228 3157:0.0698819 3177:0.235482 3282:0.122703 3297:0.17126 3323:0.173228 3357:0.136811 3519:0.440945 3529:0.259843 3635:0.0376476 3636:0.0376476 3922:0.224173 3991:0.075928 4008:0.121539 4013:0.0649606 4109:0.850394 4301:0.299213 4324:0.0519685 4351:0.137008 4353:0.136811 4421:0.0777559 4567:0.347244 4584:0.137303 4691:0.0628828 4696:0.0875984 4767:0.183071 4811:0.149606 
101.4161209277619 118.2548410630586 108.1707275697094 123.0176789824918 124.3420223523934 102.1434131982359 104.9189088310784 142.3208747091005 124.0541077769872 17:0.0374512 65:0.0147764 73:0.0305086 174:0.0793397 177:0.568868 306:0.0680511 311:0.0301739 312:0.0383387 351:0.0676735 375:0.0660277 401:0.0505857 452:0.0121018 488:0.158191 503:0.0205005 560:0.0299965 604:0.0158857 626:0.042066 641:0.0640398 659:0.0215063 672:0.0481008 676:0.0439297 731:0.00943253 750:0.0543131 771:0.0351438 779:0.0802272 807:0.186368 853:0.0537806 937:0.197018 978:0.0617678 1017:0.0729499 1051:0.044196 1057:0.0304846 1098:0.0447284 1205:0.0571885 1226:0.0500532 1241:0.254526 1361:0.0772098 1366:0.0181044 1401:0.0662939 1487:0.04199 1503:0.0205005 1505:0.0505857 1550:0.0234292 1562:0.0958466 1616:0.0295527 1622:0.0244941 1693:0.116613 1724:0.0242279 1778:0.0942492 1795:0.0761448 1840:0.0611143 1907:0.0794995 1945:0.0332268 1953:0.0798722 2134:0.043983 2141:0.0378062 2154:0.0444622 2187:0.0899894 2196:0.0242279 2226:0.106496 2244:0.0330138 2245:0.0233404 2260:0.0539581 2285:0.0533546 2373:0.050852 2399:0.0681576 2400:0.0184704 2419:0.0202343 2424:0.0894569 2446:0.0312833 2488:0.235889 2511:0.0360566 2575:0.0183174 2589:0.22311 2615:0.0979766 2641:0.0410543 2680:0.0439297 2684:0.0228967 2691:0.0351438 2751:0.0539581 2763:0.00519803 2779:0.151757 2850:0.159744 2864:0.0975202 2921:0.086262 2939:0.104366 2960:0.107827 2962:0.048722 2995:0.015442 2999:0.0452609 3023:0.128222 3057:0.0603035 3063:0.0947817 3103:0.0415335 3116:0.0361022 3137:0.334824 3157:0.113419 3165:0.0439297 3200:0.0216542 3212:0.0170394 3239:0.592829 3253:0.44196 3282:0.099574 3300:0.150781 3323:0.0702875 3355:0.0511182 3357:0.203541 3361:0.149361 3407:0.085197 3412:0.0156416 3479:0.0766773 3495:0.0761448 3507:0.14377 3511:0.0250266 3515:0.0351438 3519:0.119276 3527:0.0473908 3556:0.175719 3557:0.102503 3558:0.0421725 3585:0.0447284 3635:0.0101837 3636:0.0101837 3653:0.049787 3654:0.0262247 3709:0.020394 3809:0.017631 3831:0.044196 3991:0.0102693 4013:0.0351438 4021:0.0149095 4033:0.0511182 4040:0.0505857 4109:0.0766773 4118:0.0782748 4128:0.153355 4131:0.0205005 4222:0.0320554 4271:0.0322684 4301:0.0404686 4324:0.0702875 4332:0.108035 4351:0.0926518 4353:0.203541 4405:0.035372 4414:0.0290202 4422:0.0711395 4424:0.0351438 4444:0.0372737 4470:0.0181044 4567:0.0939297 4573:0.0344338 4584:0.0371406 4679:0.0417998 4691:0.158191 4696:0.0473908 4712:0.0553781 4751:0.0752574 4767:0.148562 4770:0.0300852 4802:0.0372737 
87.557057550542 65.33211985230552 70.17772455446786 52.42300188205904 124.3420223523934 32.20789526016996 104.9189088310784 115.2447454579759 50.97068594066179 73:0.0987849 488:0.132184 528:0.255172 630:0.184674 641:0.207356 676:0.568966 826:0.386207 975:0.481226 1339:0.803793 1550:0.303448 1980:1 2084:0.83908 2243:0.537931 2569:1 2651:0.503448 2680:0.568966 2921:0.558621 3235:0.742069 3323:0.606897 3327:1 3357:0.47931 3529:0.910345 3635:0.131897 3636:0.131897 3748:0.289655 3819:0.116279 4277:0.192118 4332:0.127203 4351:0.24 4353:0.47931 4414:0.375862 4691:0.132184 4710:0.0827586 4838:1 
101.4161209277619 118.2548410630586 108.1707275697094 123.0176789824918 124.3420223523934 102.1434131982359 104.9189088310784 142.3208747091005 124.0541077769872 144:0.966216 154:0.324324 225:0.164414 306:0.191892 310:0.334334 340:0.0795796 488:0.0503629 578:0.365991 630:0.180931 641:0.135435 676:0.185811 750:0.0765766 853:0.227477 1036:0.148649 1224:0.205569 1452:0.237613 1469:0.675676 1503:0.173423 1538:0.0653153 1550:0.0990991 1553:0.132132 1677:0.054319 1744:0.358108 1778:0.199324 1795:0.322072 2021:0.0408573 2075:0.100788 2107:0.26952 2195:0.177365 2196:0.136637 2242:0.0934685 2399:0.144144 2417:0.296069 2419:0.171171 2575:0.0774775 2651:0.164414 2751:0.228228 2921:0.0912162 3005:0.170608 3078:0.141892 3110:0.341216 3157:0.31982 3253:0.186937 3297:0.0653153 3323:0.0990991 3357:0.313063 3373:0.35473 3408:0.168919 3412:0.3308 3556:0.371622 3635:0.0430743 3636:0.0430743 3655:0.135135 3748:0.0945946 3750:1 3793:0.105856 4003:0.162162 4013:0.222973 4131:0.173423 4277:0.0627413 4301:0.0855856 4351:0.0783784 4353:0.313063 4485:0.100225 4691:0.0503629 4704:0.436937 4802:0.126126 
101.4161209277619 118.2548410630586 108.1707275697094 123.0176789824918 124.3420223523934 102.1434131982359 104.9189088310784 142.3208747091005 124.0541077769872 127:0.884236 358:0.70936 488:0.0944171 503:0.189655 703:0.125616 975:0.343733 1044:0.586207 1073:0.55665 1204:0.329433 1205:0.264532 1945:0.307389 1996:0.174877 2075:0.220443 2283:1 2818:0.458128 2833:0.802956 3357:0.513547 3879:0.628079 4021:0.137931 4301:0.187192 4329:1 4353:0.513547 4666:0.275862 4691:0.0944171 4696:0.219212 
101.4161209277619 118.2548410630586 83.22320823993546 123.0176789824918 124.3420223523934 102.1434131982359 104.9189088310784 142.3208747091005 124.0541077769872 73:0.0598071 159:0.498061 187:0.122651 295:0.19833 475:0.302714 488:0.0733588 630:0.0559035 641:0.439388 676:0.172234 763:0.470772 770:0.0744607 776:0.197137 883:0.201809 1027:0.438413 1051:0.173278 1155:0.141962 1306:0.150313 1518:0.13309 1549:0.183716 1601:0.0594187 1634:0.425191 1827:0.265633 2003:0.161447 2042:0.150313 2141:0.148225 2195:0.246608 2244:0.258873 2307:0.210856 2373:0.199374 2807:0.344885 2817:0.450939 2848:0.321205 2849:0.0490605 2871:0.40762 2921:0.0845511 2929:1 2959:0.427975 2983:0.23643 2995:0.121086 3005:0.052714 3023:0.143633 3235:0.112317 3253:0.173278 3272:0.175365 3297:0.0605428 3357:0.362735 3503:0.30167 3511:0.0981211 3975:0.219207 3976:0.30167 3993:0.563674 4021:0.0584551 4079:0.269013 4297:0.166155 4304:0.188309 4324:0.275574 4332:0.0770123 4351:0.290605 4353:0.362735 4368:0.0659889 4444:0.146138 4461:0.601253 4485:0.0929019 4587:0.308977 4683:1 4685:0.0596149 4691:0.0733588 4703:0.353514 4785:0.32707 4811:0.158664 4826:0.108559 
47.42043906476854 118.2548410630586 108.1707275697094 123.0176789824918 124.3420223523934 67.97742488930425 104.9189088310784 142.3208747091005 124.0541077769872 73:0.0345152 271:0.173494 401:0.228916 446:0.373494 488:0.0538822 641:0.1449 654:0.191165 745:0.0854618 770:0.0859438 776:0.455077 838:0.4 869:0.33012 975:0.168139 1044:0.286747 1096:0.410843 1357:0.159036 1503:0.185542 1523:0.516867 1593:0.0638554 1601:0.274328 1698:0.52241 1906:0.259277 2021:0.0437123 2104:0.195181 2134:0.398072 2154:0.201205 2194:0.161446 2428:0.224699 2848:0.49432 2921:0.390361 2995:0.0698795 2999:0.204819 3005:0.0608434 3023:0.0828916 3072:0.0610442 3157:0.0855422 3247:0.109529 3253:0.2 3323:0.212048 3357:0.0837349 3403:0.116145 3529:0.106024 3558:0.0954217 3762:0.174871 3831:0.1 4013:0.159036 4027:0.322088 4073:0.79759 4131:0.185542 4277:0.134251 4301:0.0915663 4330:0.23012 4332:0.0444444 4335:1 4351:0.0838554 4353:0.0837349 4383:0.619277 4410:0.0877797 4414:0.131325 4421:0.0951807 4441:0.0409639 4482:0.208032 4545:0.0903614 4669:0.0903614 4685:0.550469 4691:0.0538822 4802:0.0337349 
101.4161209277619 78.70326223171435 44.97577986007687 57.55805126123259 124.3420223523934 102.1434131982359 0 0 54.31593080351593 162:0.525157 306:0.669811 385:1 488:0.100454 840:0.90566 1744:1 1840:0.481227 2042:0.45283 2154:0.525157 2281:0.91195 2399:0.402516 2447:0.254717 2463:0.238994 2465:0.114848 2575:0.216352 2626:1 2647:0.556604 2651:0.459119 2704:0.808176 2949:0.954178 3332:0.408805 3453:0.522013 3833:0.24109 3889:0.427673 4021:0.352201 4128:0.301887 4277:0.175202 4441:0.320755 4573:0.406709 4691:0.100454 
101.4161209277619 118.2548410630586 108.1707275697094 123.0176789824918 124.3420223523934 102.1434131982359 104.9189088310784 142.3208747091005 124.0541077769872 73:0.025716 258:0.0831837 292:0.37702 307:0.175943 312:0.064632 401:0.170557 488:0.0745562 503:0.0691203 621:0.254937 630:0.09615 641:0.215919 646:0.381807 741:0.105925 770:0.128067 826:0.100539 840:0.258528 1121:0.270197 1155:0.122083 1247:0.128366 1307:0.438061 1550:0.0789946 1601:0.0510979 1723:0.297127 1724:0.0816876 2026:0.0713236 2134:0.148294 2154:0.14991 2195:0.141382 2244:0.111311 2258:0.23833 2417:0.157336 2419:0.0682226 2680:0.29623 2807:0.148294 2818:0.166966 2921:0.145422 3005:0.0453321 3015:0.680431 3023:0.123519 3056:0.337522 3157:0.127469 3177:0.214767 3235:0.0965889 3253:0.149013 3300:0.169459 3453:0.149013 3529:0.0789946 3585:0.150808 3653:0.167864 3748:0.0754039 3750:0.797127 3762:0.26058 3819:0.0302701 3833:0.0688211 3889:0.122083 3947:0.0734705 3975:0.18851 4008:0.332542 4013:0.118492 4301:0.204668 4314:0.252244 4324:0.14219 4351:0.124955 4352:0.424678 4399:0.0640709 4435:0.43088 4444:0.125673 4485:0.239677 4522:0.257331 4573:0.116098 4691:0.0745562 4809:0.144652 
101.4161209277619 65.44830102278502 48.50933609499525 123.0176789824918 124.3420223523934 102.1434131982359 104.9189088310784 57.42018105668604 124.0541077769872 214:0.497664 306:0.199065 396:0.26324 488:0.0895639 530:0.331776 638:0.497664 788:0.167557 1096:0.796729 1369:0.434579 1696:0.331776 1897:0.772196 1930:1 2260:0.47352 2262:0.196262 2399:0.299065 2428:0.871495 2433:0.128037 2569:0.67757 2575:0.321495 2646:0.106542 2651:0.341121 2779:0.266355 3157:0.331776 3269:0.359813 3330:0.240654 3357:0.162383 3453:0.38785 3508:0.203271 3557:0.179907 3833:0.179128 3923:0.109479 3982:0.553738 4148:0.331776 4244:0.331776 4277:0.260347 4301:0.53271 4331:0.728972 4353:0.162383 4485:0.207944 4691:0.0895639 4780:0.21028 
101.4161209277619 118.2548410630586 108.1707275697094 123.0176789824918 124.3420223523934 102.1434131982359 104.9189088310784 142.3208747091005 124.0541077769872 73:0.050259 174:0.261404 273:0.128205 306:0.0747368 358:0.505263 444:0.27193 488:0.0672515 703:0.0894737 750:0.119298 826:0.196491 1051:0.291228 1388:0.814035 1421:0.185263 1523:0.250877 1698:0.380351 1724:0.159649 1921:0.16792 2154:0.292982 2163:0.154386 2177:0.113389 2262:0.147368 2641:0.270526 2977:0.109474 3157:0.373684 3325:0.194298 3357:0.24386 3511:0.164912 3527:0.312281 3558:0.277895 3635:0.0671053 3636:0.0671053 3686:0.596491 3784:0.122807 3878:1 3923:0.0822055 4013:0.115789 4071:0.160526 4182:0.105263 4277:0.0977444 4301:0.133333 4332:0.129435 4353:0.24386 4383:0.901754 4441:0.238596 4485:0.15614 4623:0.666667 4691:0.0672515 
101.4161209277619 118.2548410630586 108.1707275697094 123.0176789824918 124.3420223523934 102.1434131982359 104.9189088310784 142.3208747091005 124.0541077769872 9:1 312:0.129032 488:0.103047 630:0.0959777 1229:0.704898 1301:0.235763 1323:0.308244 1394:1 1744:0.569892 1796:0.318996 2163:0.157706 2588:0.42055 2615:0.329749 2764:0.392473 2955:0.74552 2995:0.103943 3325:0.198477 3495:0.512545 3686:0.101553 3944:0.210573 4038:1 4039:0.417563 4277:0.199693 4294:0.37276 4332:0.0661091 4352:0.423917 4441:0.182796 4507:0.960573 4685:0.10235 4691:0.103047 4780:0.16129 
101.4161209277619 118.2548410630586 108.1707275697094 123.0176789824918 124.3420223523934 102.1434131982359 104.9189088310784 142.3208747091005 124.0541077769872 73:0.0953332 154:0.359401 174:0.24792 214:0.177205 303:0.219634 306:0.0354409 314:0.0715474 396:0.656129 448:0.114143 488:0.0584674 524:0.0790349 530:0.354409 638:0.236273 694:0.126456 756:0.0715474 770:0.178037 968:0.312574 1096:0.0709235 1247:0.118968 1523:0.356905 1562:0.299501 1601:0.047357 1692:0.0819468 1696:0.118136 1698:0.180366 1861:0.078619 1996:0.0590682 2195:0.262063 2210:0.063228 2457:0.246256 2463:0.252912 2575:0.0572379 2694:0.220822 2807:0.137438 2829:0.21797 2921:0.134775 2939:0.0362359 2949:0.0420727 2999:0.424293 3072:0.042152 3145:0.647255 3157:0.0590682 3323:0.0732113 3327:0.241265 3330:0.0856905 3357:0.115641 3359:0.402662 3412:0.0488769 3527:0.148087 3558:0.0658902 3580:0.281198 3635:0.031822 3636:0.031822 3654:0.0819468 3741:0.0648918 3816:0.0413596 3923:0.311861 3944:0.0977537 4013:0.109817 4215:0.121672 4277:0.0927026 4301:0.126456 4324:0.13178 4331:0.0648918 4332:0.0613792 4351:0.115807 4352:0.196793 4353:0.115641 4383:0.855241 4399:0.11876 4412:0.143982 4414:0.0906822 4421:0.0657238 4441:0.311148 4691:0.0584674 4712:0.173045 4826:0.0432612 
4.024750612981055 0 0 0 0 0 0 0 0 340:0.182131 475:0.747423 488:0.082331 630:0.13803 641:0.309966 745:0.548454 763:0.332106 975:0.359679 1058:0.293814 1162:0.752577 1795:0.737113 1892:0.874227 1920:0.103843 2195:0.202964 2559:0.261168 2572:1 2651:0.376289 3023:0.531959 3170:0.462887 3247:0.234302 3357:0.179124 3412:0.151418 3602:0.551546 3635:0.0985825 3636:0.0985825 3816:0.256259 3914:0.742268 3944:0.302835 4086:0.837629 4128:0.247423 4277:0.143594 4330:0.492268 4332:0.0950745 4353:0.179124 4414:0.561856 4573:1 4691:0.082331 4826:0.134021 
101.4161209277619 118.2548410630586 108.1707275697094 123.0176789824918 124.3420223523934 102.1434131982359 104.9189088310784 142.3208747091005 124.0541077769872 290:0.934848 296:1 488:0.072601 503:0.175 511:0.160909 733:1 750:0.154545 807:0.477273 1057:0.260227 1378:0.780682 1478:1 1511:0.668182 1550:0.2 1562:0.409091 1927:0.122727 1969:0.569697 2227:1 2285:0.151818 2622:0.0706061 2651:0.331818 2921:0.184091 2966:0.613636 3262:0.359157 3529:0.2 3635:0.0869318 3636:0.0869318 3684:0.563636 3816:0.112987 3833:0.174242 3889:0.309091 4277:0.126623 4414:0.247727 4424:0.3 4483:0.409091 4485:0.202273 4691:0.072601 4767:0.422727 
101.4161209277619 118.2548410630586 108.1707275697094 123.0176789824918 98.65932762556911 60.87471817340617 104.9189088310784 142.3208747091005 124.0541077769872 306:0.189333 318:0.393333 427:0.142963 488:0.0709877 630:0.119012 641:0.267259 816:0.32642 1284:1 1430:0.722222 1698:0.481778 2195:0.175 2196:0.0674074 2210:0.337778 2258:0.295 2463:0.168889 2651:0.324444 2921:0.18 2955:0.462222 3157:0.631111 3177:0.708889 3235:0.239111 3408:1 3412:0.261111 3529:0.195556 3556:0.733333 3558:0.352 3585:0.373333 3635:0.085 3636:0.085 3819:0.0749354 3833:0.17037 3842:0.205714 3923:0.104127 4008:0.640287 4021:0.124444 4128:0.426667 4277:0.247619 4301:0.506667 4351:0.154667 4352:0.262828 4414:0.242222 4441:0.0755556 4485:0.197778 4691:0.0709877 
0 0 0 22.354832761849 0 0 51.02051898657319 0 40.99691944421187 17:0.510896 41:0.356739 73:0.0693647 312:0.0871671 340:0.342211 488:0.0464084 503:0.0932203 610:0.157869 630:0.259349 641:0.145601 694:0.184019 771:0.159806 826:0.135593 829:1 854:0.232446 1090:0.204358 1155:0.164649 1209:0.172881 1303:1 1468:0.1477 1692:0.357748 1996:0.0859564 2020:0.19209 2134:1 2195:0.190678 2342:0.487167 2399:0.309927 2641:0.186683 2763:0.0236366 2807:1 2921:0.196126 2939:0.105461 2955:0.251816 3016:0.255448 3156:0.124697 3213:0.510896 3226:0.185533 3272:0.610169 3282:0.150928 3323:0.106538 3385:0.12954 3409:0.108959 3412:0.0711259 3556:0.399516 3635:0.231538 3636:0.231538 3762:0.263577 3799:0.615012 3819:0.0408244 3833:0.27845 3889:0.164649 4013:0.239709 4017:0.0566473 4188:0.585956 4277:0.0674507 4301:0.184019 4351:0.168523 4439:0.255448 4444:0.169492 4485:0.323245 4516:0.639225 4522:0.173527 4691:0.0464084 
0 0 0 0 0 0 13.22910162019629 0 0 63:0.185328 154:0.0926641 262:0.162806 395:0.0808972 475:0.186615 488:0.119226 524:0.122265 528:0.142857 630:0.137852 641:0.425654 646:0.273702 669:0.167525 694:0.0978121 742:0.110253 745:0.410811 763:0.456058 770:0.0918061 811:0.425997 871:0.280566 883:0.12441 972:0.184041 1058:0.0733591 1416:0.139732 1503:0.0495495 1550:0.169884 1601:0.03663 1616:0.0714286 1620:0.0620621 1634:0.262119 1840:0.0984751 1949:0.041184 1991:0.240026 2042:0.0926641 2084:0.0391463 2141:0.0913771 2195:0.101351 2428:0.240026 2575:0.177091 2624:0.0875161 2680:0.106178 2713:0.298584 2782:0.0609181 2848:0.924067 2909:0.436293 2921:0.0521236 2929:0.0684971 2959:0.263835 3005:0.0324968 3017:0.251301 3023:0.0885457 3078:0.162162 3137:0.101158 3142:0.0586873 3217:0.39897 3282:0.240669 3300:0.121479 3357:0.0447233 3412:0.0378057 3496:0.114543 3503:0.0929858 3529:0.0566281 3558:0.0509653 3635:0.0246139 3636:0.0246139 3697:0.113256 3706:0.0978121 3748:0.108108 3889:0.0875161 3918:0.741313 3923:0.0904578 3936:0.141999 3976:0.464929 4013:0.0849421 4079:0.580438 4128:0.123552 4131:0.0495495 4173:0.718147 4188:0.622909 4240:0.126126 4277:0.107557 4297:0.409721 4301:0.0978121 4304:0.116088 4317:0.194521 4320:0.214929 4324:0.0339768 4332:0.0712141 4351:0.179151 4352:0.0761086 4353:0.0447233 4399:0.0459299 4412:0.111369 4414:0.0701416 4421:0.101673 4461:0.185328 4485:0.171815 4493:0.138996 4522:0.0922351 4542:0.129987 4685:0.036751 4691:0.119226 4698:0.137709 4767:0.119691 4778:0.120978 4826:0.301158 
0 0 0 0 0 0 0 0 36.63630599597297 73:0.0283079 82:0.172925 98:0.114625 258:0.0915679 306:0.0420949 488:0.0441919 503:0.076087 645:0.33004 771:0.0326087 804:0.895257 807:0.6917 846:1 853:0.598814 914:0.35942 972:0.141304 1097:0.353755 1157:0.895257 1179:0.180971 1396:0.598814 1518:0.125988 1641:1 1646:0.391897 1677:0.0476633 1772:0.660079 1840:0.0756079 1873:0.950099 2020:0.156785 2134:0.163241 2196:0.0599473 2208:0.193676 2285:0.0660079 2428:0.184289 2763:0.0192923 2864:0.542914 2939:0.129117 2948:0.100962 2962:0.090415 3010:0.20751 3023:0.611858 3068:0.422266 3137:0.310672 3162:0.731225 3239:0.660079 3253:0.164032 3282:0.123188 3297:0.0573123 3300:0.186539 3349:0.33004 3357:0.0686759 3361:0.0923913 3635:0.0377964 3636:0.0377964 3653:0.184783 3799:0.501976 3831:0.0820158 3950:0.358103 4128:0.0948617 4301:0.0750988 4332:0.182257 4353:0.0686759 4422:0.264032 4507:0.529644 4609:0.148221 4624:0.22332 4679:0.310277 4691:0.0441919 4709:0.229249 4799:0.148504 
10.87752356349141 0 56.22276134546136 3.431269945659668 124.3420223523934 63.14568202920666 0 0 0 15:0.583804 42:0.124294 401:0.178908 488:0.0481272 524:0.178908 630:0.050429 641:0.169868 742:0.161331 826:0.105461 854:0.361582 872:0.0409605 946:0.114878 1044:0.224105 1307:0.45951 1333:0.10452 1550:0.0828625 1692:0.0927495 1698:0.204143 1723:0.311676 1724:0.0856874 1740:0.0764595 1827:0.23962 2022:0.0580335 2134:0.155556 2171:0.0733355 2195:0.370763 2210:0.0715631 2258:1 2285:0.0629002 2399:0.120527 2431:0.137476 2452:0.0318399 2502:0.168362 2575:0.19435 2615:0.173258 2849:0.132768 2921:0.228814 2940:0.224105 3023:0.0647834 3157:0.26742 3177:0.525659 3203:0.122787 3235:0.101318 3253:0.156309 3297:0.0546139 3323:0.165725 3357:0.196328 3379:0.120527 3412:0.16596 3496:0.167608 3511:0.0885122 3819:0.0317523 3842:0.348668 3889:0.256121 3949:0.145009 4008:0.968957 4013:0.248588 4128:0.0903955 4277:0.0524617 4301:0.214689 4324:0.149153 4351:0.131073 4353:0.196328 4383:0.483992 4485:0.0838041 4634:0.329096 4691:0.0481272 
22.19588491982953 0 28.23515614456929 24.58582404146961 0 0 43.86302732274669 93.32500244049258 0 73:0.0246962 82:0.150862 306:0.0367241 480:0.0402299 488:0.049569 503:0.0663793 645:0.287931 654:0.136782 676:0.426724 771:0.0284483 779:0.129885 804:0.781034 807:0.422414 846:0.697931 853:0.87069 898:0.0488995 914:0.156782 1044:0.205172 1097:0.308621 1157:0.781034 1179:0.631527 1182:0.184483 1371:0.10977 1396:0.522414 1473:0.088558 1641:0.65431 1646:0.341897 1677:0.0415822 1721:0.437931 1772:0.575862 1778:0.305172 1840:0.0659613 1873:0.276293 2020:0.136782 2104:0.139655 2107:0.206322 2194:0.115517 2196:0.0261494 2285:0.0575862 2575:0.0593103 2763:0.0168309 2864:0.315764 2921:0.139655 2939:0.0375479 2962:0.0788793 2999:0.293103 3010:0.181034 3016:0.363793 3023:0.355862 3068:0.368391 3137:0.271034 3239:0.383908 3297:0.3 3323:0.0758621 3324:0.460345 3349:0.287931 3357:0.0599138 3418:0.0827586 3635:0.0329741 3636:0.0329741 3799:0.437931 3874:0.293103 3876:0.251724 3880:0.228276 3904:0.230172 3950:0.312414 4128:0.165517 4301:0.131034 4324:0.0455172 4351:0.06 4352:0.101959 4353:0.0599138 4422:0.46069 4601:0.249713 4624:0.194828 4679:0.27069 4691:0.049569 4709:0.1 
53.99568186299334 85.03046714857321 46.30529687297975 123.0176789824918 0 0 104.9189088310784 102.7102997097878 66.89214858215466 342:0.427419 395:0.253456 488:0.0644041 503:0.077621 630:0.0539875 641:0.121237 676:0.166331 1224:0.184018 1247:0.144153 1307:0.491935 1333:0.111895 1436:0.0653226 1503:0.077621 1549:0.177419 1550:0.0887097 1692:0.0992944 1724:0.0917339 1744:0.160282 1858:0.22379 1906:0.433871 1996:0.0715726 2075:0.0902218 2163:0.0887097 2186:0.284946 2195:0.15877 2242:0.0836694 2244:0.25 2418:1 2575:0.0693548 2615:0.741935 2680:0.332661 2713:0.233871 2921:0.24496 3017:0.131224 3090:0.145161 3157:0.0715726 3235:0.108468 3253:0.502016 3323:0.0887097 3332:0.262097 3412:0.0592238 3529:0.0887097 3556:0.332661 3640:0.420968 3831:0.0836694 3833:0.15457 3923:0.18894 3975:0.635081 4022:0.850806 4061:0.55914 4073:0.667339 4131:0.077621 4301:0.229839 4332:0.0371864 4351:0.280645 4417:0.0625 4485:0.0897177 4609:0.15121 4679:0.158266 4691:0.0644041 4751:0.284946 4826:0.104839 
0 0 0 0 0 0 3.853870374149963 68.66988723250591 0 15:0.582707 132:0.516917 256:0.304511 306:0.0400376 312:0.0676692 351:0.238893 401:0.357143 475:0.272556 488:0.0540414 524:0.0892857 528:0.0695489 541:0.229323 578:0.305451 630:0.0503342 641:0.169549 816:0.138053 854:0.180451 1044:0.894737 1058:0.107143 1302:0.0415512 1307:0.229323 1550:0.0827068 1601:0.0534991 1620:0.0453216 1692:0.0925752 1698:0.203759 1724:0.0855263 1725:0.0770677 1744:0.149436 1783:0.87218 1785:0.198308 2134:0.155263 2154:0.62782 2171:0.146395 2196:0.0855263 2212:0.194236 2242:0.0780075 2281:0.272556 2334:0.644737 2399:0.120301 2418:0.0582707 2463:0.214286 2575:0.129323 2593:0.105532 2651:0.137218 2680:0.620301 2921:0.0761278 3005:0.0474624 3023:0.323308 3110:0.284774 3174:0.819549 3182:0.188388 3253:0.156015 3323:0.165414 3332:0.12218 3412:0.165648 3424:0.257895 3468:0.157895 3529:0.0827068 3556:0.31015 3640:0.490602 3653:0.527256 3671:0.125705 3833:0.0720551 3991:0.0362513 4013:0.12406 4022:0.198308 4039:0.218985 4107:0.120301 4277:0.104726 4301:0.0714286 4320:0.62782 4324:0.0992481 4332:0.03467 4351:0.0654135 4412:0.325313 4414:0.102444 4485:0.0836466 4507:0.503759 4663:0.0692803 4691:0.0540414 4703:0.159148 4826:0.0488722 
101.4161209277619 118.2548410630586 108.1707275697094 81.33023145960971 92.76928942171399 102.1434131982359 79.61147697898342 142.3208747091005 124.0541077769872 17:0.277997 73:0.113232 262:1 306:0.168379 401:0.375494 444:0.306324 488:0.113636 641:0.118841 676:0.326087 770:0.422925 1179:0.361942 1459:0.155138 1468:0.241107 1692:0.194664 1699:0.422925 1728:0.115081 1840:0.453647 1893:0.224308 1971:0.381337 2195:0.155632 2463:0.150198 2849:0.278656 3023:0.135968 3297:0.114625 3373:0.62253 3674:1 3697:0.173913 3762:0.143422 3975:0.41502 4022:0.416996 4128:0.189723 4243:0.2782 4332:0.145806 4691:0.113636 4838:0.573123 
19.36874861172468 90.76266486637357 22.31709320036924 78.74418121880414 37.47688696157967 17.35371218191688 78.20524053917963 28.5724872840951 68.22725121277493 73:0.0820849 97:1 142:0.0839132 306:0.0610315 395:0.180106 488:0.0549188 524:0.136103 528:0.530086 536:0.282713 641:0.0861509 654:0.227316 676:0.23639 860:0.178469 865:0.962751 898:0.0406328 1436:0.0928367 1523:0.204871 1601:0.0815517 1795:0.409742 1991:0.267192 2140:0.334097 2154:0.47851 2196:0.086915 2208:0.280802 2244:0.17765 2414:0.194842 2572:0.555874 2807:0.710029 2884:0.34957 2921:0.116046 3005:0.0723496 3017:0.559487 3023:0.0985673 3063:0.510029 3203:0.186819 3219:0.415473 3323:0.126074 3635:0.0547994 3636:0.0547994 3640:0.14957 3653:0.267908 3654:0.141117 3671:0.574857 3762:0.103971 3846:0.240688 4277:0.15964 4301:0.217765 4332:0.158548 4351:0.199427 4352:0.169445 4399:0.102256 4441:0.0974212 4485:0.127507 4567:0.505444 4587:0.424069 4601:0.414995 4691:0.0549188 
101.4161209277619 118.2548410630586 108.1707275697094 123.0176789824918 124.3420223523934 102.1434131982359 104.9189088310784 142.3208747091005 124.0541077769872 23:0.0198143 106:0.0114357 142:0.0132635 177:0.0967693 211:0.241848 280:0.03125 306:0.00964674 378:0.0239734 395:0.0427019 469:0.0136585 475:0.328351 526:0.0652174 528:0.0335145 556:0.00183945 647:0.0884387 673:0.0243659 682:0.205978 686:0.246307 827:0.0548007 880:0.016093 996:0.0348732 1057:0.168535 1090:0.0191123 1181:0.0410628 1204:0.0908628 1209:0.032337 1229:0.02969 1276:0.133756 1362:0.0899758 1396:0.0457428 1477:0.496377 1506:0.048279 1544:0.0169384 1637:0.0677749 1677:0.0109228 1720:0.0407609 1728:0.927445 1761:0.0328675 1795:0.129529 1799:0.0146739 1906:0.146196 2090:0.185688 2140:0.105616 2166:0.869565 2196:0.00686896 2258:0.210428 2263:0.274457 2286:0.190217 2399:0.231884 2489:0.0218901 2559:0.0229469 2571:0.153533 2738:0.108696 2763:0.110529 2807:0.0374094 2827:0.0256454 2849:0.0532156 2939:0.0394525 2962:0.0207201 3069:0.0344203 3137:0.213587 3177:0.0180593 3213:0.191123 3219:0.262681 3239:0.151268 3297:0.0262681 3384:0.0335145 3409:0.0203804 3487:0.0325181 3495:0.0647645 3508:0.118207 3635:0.216542 3636:0.216542 3655:0.3125 3677:0.0483092 3709:0.034692 3759:0.00179622 3793:0.34058 3860:0.0241395 3990:0.129529 4052:0.149457 4120:0.0387228 4233:0.0407609 4279:0.207729 4385:0.0347222 4395:0.0597826 4573:0.0878623 4634:0.237432 4780:0.0203804 4802:0.0253623 4826:0.0942029 
101.4161209277619 118.2548410630586 108.1707275697094 123.0176789824918 124.3420223523934 102.1434131982359 104.9189088310784 142.3208747091005 124.0541077769872 15:0.082054 45:0.0657491 55:0.0273009 69:0.0308805 73:0.0227482 92:0.0534674 93:0.0402329 247:0.139303 255:0.139756 256:0.0857597 277:0.225516 289:0.0857597 306:0.0112758 310:0.0785836 312:0.0952885 314:0.0227634 318:0.0468502 395:0.0166377 488:0.0507323 503:0.0815246 510:0.115617 514:0.0868184 524:0.0754367 621:0.075172 646:0.112582 647:0.0258434 650:0.0255867 676:0.0873478 750:0.0359979 762:0.0955532 777:0.0362626 826:0.0296453 838:0.0439386 1036:0.0349391 1044:0.440974 1057:0.0151535 1058:0.0603494 1098:0.044468 1133:0.0651138 1144:0.0184527 1224:0.048318 1229:0.173519 1262:0.103229 1371:0.0337039 1372:0.0246162 1388:0.122816 1436:0.0171519 1490:0.103362 1549:0.0465855 1562:0.142933 1677:0.0127674 1685:0.022181 1698:0.0573849 1747:0.301747 1817:0.239809 1905:0.0233083 1953:0.158814 1971:0.00364812 1975:0.0219252 1989:0.0317628 1996:0.018793 2021:0.0288099 2042:0.0381154 2177:0.0171074 2196:0.0160579 2201:0.407623 2211:0.0281895 2240:0.139492 2242:0.0219693 2262:0.022234 2281:0.15352 2373:0.0505558 2398:0.0434092 2400:0.0367258 2419:0.0402329 2452:0.00895023 2463:0.0201165 2575:0.0182107 2580:1 2680:0.0436739 2729:0.160932 2736:0.115405 2754:0.0801129 2796:0.0390418 2814:0.0265825 2888:0.0434092 2921:0.0643197 2963:0.0402329 3005:0.0133669 3023:0.0728428 3069:0.0402329 3105:0.0148227 3137:0.0416093 3146:0.0442562 3156:0.0272631 3157:0.0939651 3253:0.219693 3282:0.0659961 3323:0.0232927 3325:0.0293145 3357:0.036792 3468:0.044468 3483:0.263343 3511:0.0248809 3556:0.262043 3558:0.0838539 3654:0.026072 3809:0.0350568 3833:0.0202929 3879:0.067496 3888:0.0553732 3889:0.0359979 3944:0.0933033 3947:0.0433278 3967:0.0168779 4013:0.0524087 4021:0.0148227 4081:0.107994 4128:0.152462 4301:0.28163 4320:0.618846 4324:0.0698782 4329:0.107464 4332:0.0585848 4336:0.115405 4351:0.0552673 4353:0.036792 4385:0.243515 4405:0.035166 4485:0.0235574 4516:0.093171 4584:0.0369243 4609:0.0794071 4652:0.0849656 4668:0.0317628 4685:0.0151168 4691:0.0507323 4703:0.0896418 4712:0.0550556 4767:0.0984648 4770:0.02991 4785:0.0829363 4802:0.0148227 4809:0.042653 4826:0.0137639 
59.22245208526881 34.45451180926191 87.85923045657719 109.7331254849469 124.3420223523934 102.1434131982359 104.9189088310784 117.0926482984476 40.40159922320476 154:0.55814 308:0.578811 312:0.0930233 488:0.066035 578:0.419897 641:0.233075 816:0.189779 867:0.483204 1181:0.11714 1371:0.164513 1562:0.232558 1593:0.0684755 1600:1 1677:0.0623195 1722:0.187016 1795:0.369509 1875:0.213322 1899:0.289729 2195:0.203488 2196:0.0391904 2210:0.0981912 2419:0.196382 2428:0.240956 2864:0.236619 2901:0.202842 3023:0.266667 3078:0.162791 3276:0.254953 3280:0.1642 3300:0.731697 3330:0.133075 3357:0.179587 3384:0.191214 3494:0.133721 3526:1 3558:0.102326 3577:0.609819 3653:0.241602 3831:0.321705 3833:0.0990525 3923:0.181617 3936:0.285099 4128:0.496124 4155:0.444444 4188:0.625323 4324:0.136434 4351:0.0899225 4353:0.179587 4441:0.219638 4524:0.0943152 4674:0.305614 4691:0.066035 4698:0.552972 4767:0.24031 
39.22132718087899 18.2568120765375 60.01125692135074 54.84827562635519 81.10129226276118 0 19.14609871325779 40.47369176237243 6.636591312110212 73:0.0809255 306:0.361017 385:0.299435 488:0.0721908 586:0.226695 630:0.151287 741:1 1307:0.689266 1550:0.248588 1778:1 1840:0.216144 1897:0.466808 2196:0.0856874 2447:0.228814 2537:0.197227 2575:0.388701 2647:1 2651:0.412429 2833:0.306968 2921:0.228814 2949:1 2995:0.163842 3023:0.388701 3217:0.875706 3253:0.468927 3635:0.108051 3636:0.108051 3762:0.205004 3833:0.433145 3889:0.384181 4013:0.372881 4064:0.553672 4090:0.502825 4128:0.271186 4237:1 4281:0.607345 4301:0.429379 4332:0.104206 4399:0.201624 4441:0.0960452 4691:0.0721908 
101.4161209277619 71.41415534640345 108.1707275697094 59.3308714291657 124.3420223523934 102.1434131982359 48.6921364456498 142.3208747091005 50.23216358453882 17:0.242529 82:0.301724 270:0.4 488:0.0550766 641:0.103678 750:0.117241 763:0.111084 770:0.614943 805:1 883:1 981:1 1164:0.2 1487:0.0906404 1699:0.368966 1962:0.152759 2154:0.287931 2399:0.22069 2446:0.202586 2779:0.196552 2849:0.567241 2960:0.232759 2962:0.315517 3137:0.271034 3253:0.286207 3297:0.2 3323:0.303448 3357:0.359483 3557:0.398276 3585:0.289655 3602:0.737931 3655:0.103448 3682:0.116552 3697:0.303448 3793:0.162069 4161:0.296552 4277:0.0960591 4332:0.254406 4353:0.359483 4414:0.187931 4536:1 4573:0.222989 4663:0.127094 4691:0.0550766 4718:0.116379 4802:0.241379 
101.4161209277619 118.2548410630586 108.1707275697094 123.0176789824918 124.3420223523934 102.1434131982359 104.9189088310784 142.3208747091005 124.0541077769872 73:0.0443805 154:0.0557707 271:0.0557707 303:0.102246 306:0.0164988 342:0.328428 351:0.0984438 488:0.0519623 503:0.0596437 511:0.0274206 630:0.145193 654:0.0614511 720:0.486445 763:0.0748589 776:0.0731437 779:0.0583527 816:0.0568896 828:0.112006 1036:0.0511232 1096:0.033017 1247:0.221534 1339:0.240744 1396:0.0782339 1416:0.0420494 1449:0.0817971 1549:0.0681642 1562:0.0697134 1622:0.0356313 1685:0.129822 1692:0.0381487 1698:0.0839659 1699:0.0414407 1722:0.0560612 1724:0.035244 1744:0.12316 1778:0.0685515 1796:0.0689388 1827:0.0985578 1856:0.13904 1996:0.0274981 2075:0.0346631 2104:0.125484 2127:0.0480248 2154:0.0646785 2195:0.182998 2196:0.011748 2205:0.45701 2242:0.0321456 2258:0.0514136 2262:0.0650658 2417:0.0339413 2419:0.0294345 2425:0.0161849 2569:0.112316 2575:0.026646 2680:0.127808 2729:0.235476 2772:0.110767 2779:0.0883036 2849:0.200232 2901:0.0304028 2921:0.0941131 2978:0.0237911 2995:0.0224632 2999:0.0658404 3023:0.213168 3116:0.0525174 3157:0.164988 3247:0.0352088 3282:0.048283 3297:0.0224632 3323:0.272657 3357:0.18842 3366:0.0526723 3412:0.0455074 3557:0.0298218 3635:0.0148141 3636:0.0148141 3653:0.217273 3655:0.0464756 3762:0.0281067 3785:0.164795 3793:0.182029 3876:0.113091 3923:0.127033 3944:0.136522 3997:0.0557707 4013:0.0511232 4017:0.0181219 4022:0.163439 4027:0.103537 4039:0.18048 4061:0.214821 4105:0.0161849 4240:0.15182 4277:0.0431559 4301:0.264911 4324:0.204493 4332:0.0428608 4351:0.161735 4352:0.0458066 4353:0.18842 4391:0.0627421 4412:0.0670281 4441:0.0395043 4485:0.0344694 4516:0.0681642 4567:0.409915 4583:0.0503486 4632:0.192099 4634:0.13536 4685:0.0884758 4691:0.0519623 4693:0.195198 4767:0.144074 4780:0.0348567 4800:0.16912 4802:0.0542215 4826:0.0604183 
61.2250130364982 44.10392130060897 29.85985163079431 3.769970918193819 57.24562618637234 46.49435025277257 19.64469859277625 25.11418067387773 46.92697184436055 92:0.687075 630:0.182162 742:0.582766 743:0.326531 759:0.243197 974:0.408163 1258:0.301587 1342:0.15873 1452:0.717687 1473:0.698825 1475:0.303855 1511:1 1550:0.29932 1593:0.180272 1728:0.0660218 1785:0.717687 1792:0.15873 2020:0.269841 2195:0.267857 2641:0.52449 2673:0.538265 2763:0.0664075 3023:0.234014 3300:0.642101 3477:0.243197 3480:0.585034 3831:0.564626 4301:0.258503 4404:0.326531 4422:0.454422 4542:0.687075 4679:0.534014 4710:0.244898 
101.4161209277619 118.2548410630586 85.73116537481634 123.0176789824918 124.3420223523934 102.1434131982359 63.63292961553127 142.3208747091005 124.0541077769872 742:0.545648 743:0.305732 759:0.227707 974:0.382166 1258:0.282378 1342:0.14862 1473:0.327157 1475:0.284501 1550:0.280255 1593:0.16879 1728:0.0618166 1792:0.14862 2020:0.252654 2673:0.503981 2763:0.0621777 2901:1 3023:0.219108 3282:0.397028 3300:0.601203 3322:0.394904 3477:0.227707 3480:0.547771 3653:0.595541 3831:0.528662 4206:0.404459 4330:0.60828 4404:0.305732 4422:0.425478 4485:0.283439 4679:1 4710:0.229299 4799:0.239308 4826:0.165605 
101.4161209277619 118.2548410630586 108.1707275697094 123.0176789824918 124.3420223523934 102.1434131982359 104.9189088310784 142.3208747091005 124.0541077769872 214:0.111635 306:0.0669811 396:0.885744 448:0.107862 488:0.070318 530:0.111635 638:0.446541 659:0.127009 750:0.106918 826:0.176101 1096:0.134041 1323:0.27044 1677:0.151683 1696:0.669811 1724:0.143082 1861:0.148585 1897:0.259827 1930:0.112159 1969:0.197065 2194:0.210692 2196:0.0953878 2206:0.0744235 2224:0.830189 2259:0.345912 2281:0.455975 2293:0.273585 2306:0.5 2419:0.119497 2463:0.119497 2779:0.537736 2788:0.336478 2999:0.267296 3090:0.226415 3139:0.782495 3157:0.111635 3284:0.562893 3491:1 3585:0.264151 3614:0.0833543 3616:0.0597484 3618:0.0809495 3619:0.111635 3635:0.120283 3636:0.120283 3923:0.294699 3997:0.226415 4013:0.103774 4128:0.150943 4277:0.0876011 4324:0.166038 4331:0.490566 4441:0.213836 4646:0.081761 4685:0.0897973 4691:0.070318 4802:0.0440252 
